tree
version=v3
num_class=1
num_tree_per_iteration=1
label_index=0
max_feature_idx=18
objective=lambdarank
feature_names=Column_0 Column_1 Column_2 Column_3 Column_4 Column_5 Column_6 Column_7 Column_8 Column_9 Column_10 Column_11 Column_12 Column_13 Column_14 Column_15 Column_16 Column_17 Column_18
feature_infos=[0:131.99049400000001] [-6.3260512351989746:5.3165383338928223] [1:72] [1:1022] [1:1076] [0:9] [0:113.589401] [0.5:1000] [0.25:1000] [0:4639] [0:9163] [0.40000000000000002:1000] [0.25:1000] [0:1220] [0:4796.4805654814272] [0:3585] [0:137.51606351093679] [0:135.591095] [0:135.591095]
tree_sizes=4460 4456 4483 4485 4478 4465 4460 4470 4486 4476 4468 4486 4480 4480 4483 4470 4462 4488 4487 4487 4483 4476 4466 4467 4481 4482 4477 4488 4485 4476 4473 4468 4482 4453 4477 4453 4485 4454 4463 4435 4456 4455 4464 4453 4461 4450 4469 4461 4463 4492 4488 4460 4476 4459 4447 4449 4429 4472 4471 4449 4469 4451 4470 4456 4444 4461 4491 4459 4437 4447 4431 4472 4453 4443 4445 4437 4448 4462 4422 4423 4446 4457 4447 4465 4445 4442 4476 4430 4414 4422 4456 4453 4423 4453 4458 4448 4437 4450 4429 4445 4422 4451 4406 4450 4451 4446 4437 4448 4449 4443 4422 4477 4434 4455 4443 4449 4449 4434 4412 4434 4438 4449 4395 4428 4393 4438 4431 4435 4449 4428 4391 4431 4445 4427 4444 4429 4411 4433 4410 4434 4384 4442 4419 4445 4386 4439 4436 4435 4416 4416 4411 4409 4399 4405

Tree=0
num_leaves=40
num_cat=0
split_feature=17 17 1 1 12 10 12 1 2 2 17 3 2 2 8 8 2 9 8 5 12 17 10 9 9 3 2 17 8 13 5 2 1 5 9 8 13 13 5
split_gain=1468.1 392.901 236.271 186.863 88.126 87.1383 79.9121 66.2903 64.7745 58.8258 54.6554 42.1119 36.9437 28.6497 27.146 26.2489 26.0299 25.2341 23.7734 23.7446 23.608 22.2564 21.9147 21.5614 21.4313 20.8454 20.7469 20.7275 19.6009 16.3136 16.2106 15.9481 15.8557 15.5721 15.1066 14.6713 14.6667 14.6143 14.5548
threshold=8.4365500000000022 17.800350500000004 0.18394848704338077 -0.3514679074287414 5.2111111111111121 26.500000000000004 1.6904761904761907 -0.93445408344268788 10.500000000000002 8.5000000000000018 4.3011985000000008 15.500000000000002 1.5000000000000002 7.5000000000000009 11.510869565217392 13.33854166666667 13.500000000000002 38.500000000000007 7.5166666666666675 2.5000000000000004 19.845238095238098 21.420600000000004 41.500000000000007 8.5000000000000018 19.500000000000004 34.500000000000007 5.5000000000000009 11.879150000000001 3.5166666666666671 27.500000000000004 5.5000000000000009 5.5000000000000009 -3.1773869991302486 4.5000000000000009 8.5000000000000018 4.6076923076923082 76.500000000000014 20.500000000000004 2.5000000000000004
decision_type=2 2 2 2 2 2 2 2 2 2 2 2 2 2 2 2 2 2 2 2 2 2 2 2 2 2 2 2 2 2 2 2 2 2 2 2 2 2 2
left_child=3 2 5 10 28 9 26 16 15 23 17 -11 -8 -12 31 38 19 -1 24 -3 32 -18 -6 -2 -9 -23 -5 -13 -4 -21 -17 -14 -10 -25 35 -15 -20 -30 -7
right_child=1 7 4 6 22 8 12 18 20 11 13 27 14 34 -16 30 21 -19 36 29 -22 25 -24 33 -26 -27 -28 -29 37 -31 -32 -33 -34 -35 -36 -37 -38 -39 -40
leaf_value=-0.065449990716333936 -0.017618652775457863 0.00019546338152059688 0.040246024679323179 0.031509158226653268 -0.0081552018272648581 0.00060764214706666216 0.052331198069607267 0.0041903329334117287 -0.026539819491999319 0.0060422779164929523 -0.030656345219925121 -0.042514919705740652 0.0006826402487692155 -0.0404563824013923 -0.040453111524188803 -0.015410103809806803 -0.0084511499423245758 -0.02682256569805766 0.018132946228375472 0.007020259137489656 -0.032035543960318984 0.028799201013878534 0.015058714832621532 -0.010465938619133012 0.044816924178180124 0.0027757843640955791 -0.02312731057646256 -0.02289674932593019 0.0091742858599668364 0.033458140173242855 0.0096288252248019866 -0.030374969569842571 -0.0022088130171677646 0.012048625054396762 -0.039756909889960897 -0.072601220893823287 0.034488049817221138 0.031259372824011394 0.022010603311841653
leaf_weight=539.47920809198695 195.87666072178399 78.51284449067316 357.1406521450117 93.214851503456885 215.74591179646086 98.234898793751199 14.501652148552237 34.288380603888072 79.136352990262822 82.13959856958536 318.2471714598214 260.86400275221968 89.267595159224584 51.976096256796154 220.62629760567506 116.75118631595979 123.85711363450537 45.875559187174076 208.98935109443846 67.687459864391712 104.36230900180817 164.60618381207132 192.27218623828958 124.80272711098951 609.21600258720173 144.50905990028696 21.355824499041773 278.25140120830474 117.38384073738416 422.9415961173072 144.82543931955479 76.978890552156372 435.11581115073386 199.67244884036336 133.56825514942466 111.95462252879224 398.37252689804882 207.0020449047297 415.00514063236187
leaf_count=25377 7962 5327 14255 3706 7728 4045 381 1144 5204 2979 12911 11891 3583 2487 6655 4335 5198 2078 6987 2258 4427 5762 7596 4812 21636 6565 746 11371 4233 13877 5087 2486 16216 7087 5801 6001 14966 8536 14861
internal_value=0 0.011882 0.00168989 -0.0406727 0.0211621 -0.00667917 -0.0155059 0.0282789 0.00171153 -0.0169207 -0.0514834 -0.0273082 -0.0260192 -0.0410841 -0.0289561 0.011344 0.0186968 -0.0624227 0.0359555 0.0257253 -0.0103532 0.00945769 0.002784 -0.00451902 0.0426522 0.0166334 0.021325 -0.0323895 0.0321648 0.0298108 -0.00154696 -0.0136983 -0.00595302 0.00338886 -0.0522391 -0.0624093 0.0288604 0.0232676 0.017914
internal_weight=0 5877.56 3624.58 1717.05 1089.54 2535.04 515.945 2252.98 1393.43 1141.61 1201.1 621.255 401.374 615.746 386.873 774.817 1002.11 585.355 1250.87 569.142 618.614 432.972 408.018 520.352 643.504 309.115 114.571 539.115 681.527 490.629 261.577 166.246 514.252 324.475 297.499 163.931 607.362 324.386 513.24
internal_count=298557 226345 142625 72212 42348 100277 17557 83720 54175 46102 54655 26241 13105 27200 12724 28328 38987 27455 44733 21462 25847 17525 15324 19861 22780 12327 4452 23262 27024 16135 9422 6069 21420 11899 14289 8488 21953 12769 18906
is_linear=0
shrinkage=0.05


Tree=1
num_leaves=40
num_cat=0
split_feature=17 1 1 17 10 8 8 0 8 8 9 2 3 3 2 2 1 3 3 16 13 5 16 3 2 10 11 0 0 6 8 16 8 12 10 16 12 3 8
split_gain=1153.7 490.081 362.154 234.066 181.842 129.266 128.386 69.1509 67.3591 66.2994 51.7462 46.7843 49.6238 45.6554 41.0916 40.7917 39.948 35.7705 33.1136 29.741 29.5826 29.1012 28.9131 28.5947 28.3455 28.0617 29.2821 27.9125 27.8976 26.8992 24.6213 24.5042 24.1771 23.5015 23.7699 23.4641 22.9314 22.0404 22.0248
threshold=12.005649500000002 0.20957645773887637 -1.7853320837020872 7.3975000000000009 74.500000000000014 3.4330357142857149 10.627314814814817 20.8478995 9.5119047619047645 1.9500000000000002 5.5000000000000009 7.5000000000000009 18.500000000000004 14.500000000000002 10.500000000000002 1.5000000000000002 0.6966344714164735 21.500000000000004 20.500000000000004 20.851126270958208 20.500000000000004 5.5000000000000009 39.796635721509581 66.500000000000014 3.5000000000000004 41.500000000000007 11.981812169312173 10.864350000000002 14.279899500000001 33.010000000000012 675.66666666666674 19.639270539745947 16.68990384615385 17.226495726495731 65.500000000000014 39.796635721509581 3.6125000000000003 78.500000000000014 9.0200000000000014
decision_type=2 2 2 2 2 2 2 2 2 2 2 2 2 2 2 2 2 2 2 2 2 2 2 2 2 2 2 2 2 2 2 2 2 2 2 2 2 2 2
left_child=1 3 7 9 6 16 13 14 17 -1 24 27 -13 36 21 30 -3 -6 -17 -8 -15 -2 23 31 -11 -16 -27 -5 38 -19 -7 -9 -24 -12 -35 -10 -4 -23 -14
right_child=2 5 4 11 8 15 19 22 35 10 33 12 28 20 25 18 -18 29 -20 -21 -22 37 32 -25 -26 26 -28 -29 -30 -31 -32 -33 -34 34 -36 -37 -38 -39 -40
leaf_value=-0.016909979452964654 -0.013302831112778564 -0.001867532549687015 0.026828239003210089 -0.017781454816997829 0.030975368501898429 -0.042476062409195402 -0.033563250912140435 -0.077103320116730475 0.0067210637680398221 -0.038272807321126652 -0.026420938228154722 -0.010175959290930981 -0.026396523636181432 -0.0020555313937550656 -0.02746582379319942 -0.0056441970135852407 0.018029646668187318 0.018986961160526408 -0.026435340257897229 -0.0071746466611332443 0.0098981722507207048 0.0034934241737578872 0.024240015025419892 -0.05294293461388936 -0.06217727181979902 0.0050765839294733377 -0.016910814907742489 -0.001901663055662765 -0.011559744959928925 0.046459580613038384 0.049659412965596242 0.0012948941748709998 -0.0014198343641466321 -0.056503490318429245 -0.02111754571675252 0.019203125317266007 0.003837650715893206 -0.083879619809798897 -0.042632153595479123
leaf_weight=191.10036241350463 477.72099343978334 357.76750096719479 518.4314766760217 765.33060958673013 1081.8136219121516 8.9871906246989948 122.99101363762747 10.06914133694954 1061.0648942691041 157.79226633132203 274.66679555771407 378.38353436638135 393.51378086284967 642.49658047320554 408.16333872335963 371.5951458941563 855.41949529922567 2327.5934108613874 395.16600971174194 809.7371888718335 2661.9101982055581 713.62463050085353 255.79578015184961 25.675763075705618 579.29402264999226 202.51293490990065 600.22999413590878 433.45170732273255 149.34801594878081 92.646833046339452 37.53373134508729 983.33026740106288 143.18324726773426 188.07682290126104 63.473990528727882 583.58213283750229 137.15395286516286 7.2915440832730374 445.22853684762958
leaf_count=4100 7675 2633 4868 13497 8588 46 2485 400 14780 3505 7924 6637 9466 9793 10176 7315 7563 18424 9596 14643 27697 8716 2872 562 24794 3233 10279 6222 3382 732 217 11980 2266 7457 1831 7032 1663 143 13365
internal_value=0 -0.0182264 0.00794684 -0.0283338 0.0129361 0.00182249 0.00603443 -0.00513944 0.0194971 -0.0443576 -0.0485097 -0.0192489 -0.0255733 0.00996525 -0.0102951 -0.0136011 0.012162 0.0234171 -0.0163593 -0.0106543 0.00757394 -0.00373229 0.00362101 -0.000846263 -0.0570599 -0.0167914 -0.0113639 -0.0120397 -0.0314697 0.0200386 0.0318601 0.000500246 0.0150314 -0.0365331 -0.0475745 0.0111502 0.0220184 0.00260971 -0.0350149
internal_weight=0 6046.13 13867 4019.66 10039.4 2026.47 4892.72 3827.6 5146.7 1454.4 1263.3 2565.26 1366.47 3959.99 2409.54 813.282 1213.19 3502.05 766.761 932.728 3304.41 1198.64 1418.05 1019.08 737.086 1210.91 802.743 1198.78 988.09 2420.24 46.5209 993.399 398.979 526.218 251.551 1644.65 655.585 720.916 838.742
internal_count=298557 129550 169007 102180 110705 27370 61149 58302 49556 49611 45511 52569 32850 44021 40222 17174 10196 27744 16911 17128 37490 16534 18080 12942 28299 23688 13512 19719 26213 19156 263 12380 5138 17212 9288 21812 6531 8859 22831
is_linear=0
shrinkage=0.05


Tree=2
num_leaves=40
num_cat=0
split_feature=17 1 1 17 0 10 12 8 2 2 8 8 1 3 3 9 12 9 2 16 10 17 12 1 11 3 12 17 13 8 12 3 11 10 2 2 13 5 1
split_gain=1016.11 427.776 318.643 216.871 186.15 119.716 79.519 77.2644 76.1396 60.12 60.0462 49.6169 45.2151 41.7663 37.1172 36.2961 36.1544 32.0468 31.5007 31.2275 30.5536 29.689 29.5651 28.13 26.2756 25.6653 25.6128 24.0641 23.6722 24.9715 22.7937 22.9684 22.6705 22.5461 21.6627 21.5303 20.4869 20.4863 20.875
threshold=12.005649500000002 0.72520142793655407 -0.2998701930046081 6.6203995000000004 17.925350500000004 74.500000000000014 6.2071428571428582 2.2613636363636371 9.5000000000000018 7.5000000000000009 5.488095238095239 1.9500000000000002 -2.1392873525619502 14.500000000000002 23.500000000000004 5.5000000000000009 2.0416666666666674 9.5000000000000018 1.5000000000000002 41.074593501073053 42.500000000000007 23.036999000000005 9.4365079365079385 -3.4039099216461177 27.300416666666674 12.500000000000002 6.6055555555555561 20.218900000000001 27.500000000000004 12.289915966386557 6.9705882352941186 6.5000000000000009 36.750092592592601 11.500000000000002 6.5000000000000009 14.500000000000002 375.50000000000006 6.5000000000000009 -0.90856909751892079
decision_type=2 2 2 2 2 2 2 2 2 2 2 2 2 2 2 2 2 2 2 2 2 2 2 2 2 2 2 2 2 2 2 2 2 2 2 2 2 2 2
left_child=1 3 4 11 8 6 13 -3 22 16 -7 34 19 -4 33 25 -5 -18 -9 32 -10 24 -2 -22 -14 -13 -25 -12 29 -16 -20 -32 -6 -11 -1 -23 -21 -19 -39
right_child=2 7 5 9 12 10 -8 18 20 14 27 15 21 -15 28 -17 17 37 30 36 23 35 -24 26 -26 -27 -28 -29 -30 -31 31 -33 -34 -35 -36 -37 -38 38 -40
leaf_value=-0.0080918259252967112 0.0024345385374259718 0.017289425959346912 0.022298817384358589 -0.0018914821395890848 -0.0018535802731433721 0.029402569925683398 -0.011145362008760025 0.037171688792505854 -0.02471249127033338 -0.035355649241905332 0.0083346191269434294 -0.032362731326011571 0.009651340890999862 0.0067101759870030631 -0.031048497440070263 -0.037183900885519656 -0.030063135224810734 -0.01843830857713007 -0.0032398125124818511 0.018665028158622601 -0.033467434662074219 0.022838287719475461 -0.018462268582022798 6.7616069174994904e-06 -0.006130567563139639 -0.060647077212528815 -0.018301685078545415 0.019937721242118508 -0.021057231227700621 -0.054090214423169941 0.034776882170839817 -0.030226896651982967 -0.036902829204188303 -0.012324992305359184 -0.048413266699137862 0.0091440121040313009 -0.046243116918502691 -0.0097536198286738117 0.022354251614729745
leaf_weight=121.07532340532634 1163.8351672147401 709.5986803509295 638.68530007603113 542.78195402779966 1217.3207833659835 1499.1302588492399 467.5892451107502 38.272110459394753 681.58872291829903 138.79463846504223 654.93398862506729 94.829483304696623 1282.4238653857028 1313.0741553280677 273.75203923683148 417.66059643539484 350.90458101406693 361.45197979948716 414.36625829827972 256.04092184104957 118.34003977401881 658.83573802094907 198.06771293166094 476.12363679218106 332.02051014499739 520.01568975191913 319.02339524094714 1406.4349330754485 217.39454551081872 206.1225290147122 14.843661169521509 160.7931333307788 47.953892943216488 453.43818718835246 45.953090864233673 508.58136571431533 12.76272818725556 156.82909681950696 74.751090909121558
leaf_count=1950 13349 5616 4851 8489 19188 9673 11410 206 16746 4268 8650 3362 12746 20460 9412 14683 8574 6937 7382 3207 3242 5143 3786 5709 4205 23913 5449 14745 5889 8873 177 5334 1103 9820 1590 4905 440 2178 897
internal_value=0 -0.0184729 0.0074066 -0.0267025 0.000376528 0.0159568 0.00737448 0.00598312 -0.00928756 -0.0190264 0.0217885 -0.0444682 0.00699768 0.0118113 -0.0269269 -0.0485582 -0.0121739 -0.0180865 -0.00678666 0.000106114 -0.0167012 0.0107981 -0.000604579 -0.0107237 0.00640569 -0.0562847 -0.00733883 0.0162512 -0.0347449 -0.0409457 -0.00963814 -0.0247332 -0.00318195 -0.0177224 -0.0191851 0.0168724 0.0155832 -0.0109998 0.000610386
internal_weight=0 5313.63 13252.8 3975.75 7272.92 5979.85 2419.35 1337.87 2956.98 2776.22 3560.5 1199.53 4315.94 1951.76 1289.5 1032.51 1486.72 943.937 628.275 1534.08 1595.08 2781.86 1361.9 913.487 1614.44 614.845 795.147 2061.37 697.269 479.875 590.003 175.637 1265.27 592.233 167.028 1167.42 268.804 593.032 231.58
internal_count=298557 129550 169007 110835 99218 69789 36721 18715 48281 65337 33068 45498 50937 25311 38262 41958 27075 18586 13099 23938 31146 26999 17135 14400 16951 27275 11158 23395 24174 18285 12893 5511 20291 14088 3540 10048 3647 10012 3075
is_linear=0
shrinkage=0.05


Tree=3
num_leaves=40
num_cat=0
split_feature=13 12 8 1 1 10 9 17 12 0 10 8 17 8 16 3 3 5 9 3 1 0 1 2 16 10 4 15 17 12 5 2 1 4 11 16 9 17 2
split_gain=891.598 385.934 240.093 175.784 154.479 126.436 102.89 60.3676 69.7637 55.4448 49.0986 45.0134 43.9004 41.512 38.1031 36.9601 35.6292 33.5316 29.7555 28.3058 27.6397 27.12 31.4394 25.4248 28.1637 29.5633 25.1845 23.7807 22.878 22.8142 21.4887 21.2048 20.5298 28.9097 20.2581 20.5603 19.379 19.112 20.3999
threshold=27.500000000000004 7.912878787878789 9.5119047619047645 0.15713769197463992 -0.76014959812164296 75.500000000000014 6.5000000000000009 1.0000000180025095e-35 607.50000000000011 18.788550500000003 74.500000000000014 46.026315789473692 8.3640500000000024 3.4330357142857149 35.379880941470738 14.500000000000002 6.5000000000000009 6.5000000000000009 2.5000000000000004 31.500000000000004 -1.1440664529800413 14.345998000000003 -2.672846674919128 6.5000000000000009 14.303116700996107 17.500000000000004 12.500000000000002 9.5000000000000018 10.958750000000002 34.095454545454551 1.5000000000000002 9.5000000000000018 -2.2664251327514644 51.500000000000007 25.583370370370378 17.63606877738307 3.5000000000000004 18.258201000000003 11.500000000000002
decision_type=2 2 2 2 2 2 2 2 2 2 2 2 2 2 2 2 2 2 2 2 2 2 2 2 2 2 2 2 2 2 2 2 2 2 2 2 2 2 2
left_child=1 3 4 6 9 11 18 16 12 32 15 17 36 26 19 -6 -3 37 -1 -7 -10 22 -19 28 -25 -26 -5 -28 -8 -16 -12 -23 33 -2 35 -14 -9 38 -4
right_child=2 7 5 13 10 14 23 8 20 -11 30 -13 34 -15 29 -17 -18 21 -20 -21 -22 31 -24 24 25 -27 27 -29 -30 -31 -32 -33 -34 -35 -36 -37 -38 -39 -40
leaf_value=-0.045901127165953771 0.0047689616094686495 -0.0029340895937610277 -0.018196706584480467 0.022032974610259146 0.02395400348889069 0.0065488277044511824 -0.0094074458332580151 -0.070913511530389967 -0.034465700385274307 0.01004945269366677 0.014132783369474718 -0.040189989602509732 -0.038182937230288469 -0.0061834702475453895 0.012860303972449151 0.007826076910530352 -0.056371745366874781 -0.064231730957303043 -0.02451645523654826 -0.0098048153920706673 0.016385977360407634 0.017352995601132213 -0.01015873327997421 -0.028144771493937987 -0.025088236664885757 -0.0058845198795604032 -0.0042914310175671501 0.012945643038696676 0.011965953226236316 -0.03277178155725196 0.024635400726157393 -0.0034579401896675556 0.00076108533942054082 -0.022258100656247726 -0.045943791147237061 -0.018688381890918121 -0.042904287751678961 -0.0056152453898959511 -0.043862726039161727
leaf_weight=252.63084394537145 152.80742482538335 33.860364145948552 419.03052293404471 323.29036591609474 484.66999686695635 561.28184210252948 295.12224061466986 82.932056530029513 36.204443094844464 1643.0595155353658 609.27264396171086 133.19355182058644 192.87274230003823 582.79846788264695 1186.3285515559837 1330.1780127281381 395.90259980686824 32.752007866278291 456.80066032821196 500.58115796081256 102.01999828056432 166.18078569544014 149.97448677034117 261.68722898617852 255.44493389548734 930.23283830960281 350.63205490510154 466.06676767382305 217.45322781172581 28.038099288649391 2427.3924371015746 464.63782288052607 806.43973940866999 280.69075568486005 132.97731256717816 452.71997946093325 241.83325162902474 230.65873768524034 94.965375578845851
leaf_count=10159 2696 833 10850 2820 4185 9106 5399 4423 1071 16508 5074 4526 6497 13217 15580 19616 19565 1159 13775 9030 1109 2527 2978 7177 6952 17040 3900 4508 2700 702 16896 8735 8637 4913 4410 12564 9343 4418 2959
internal_value=0 -0.0155609 0.00806293 -0.00777957 0.0131924 -0.00193657 -0.0158154 -0.03601 -0.0304193 0.00402592 0.0186396 -0.012291 -0.0346143 0.00467159 0.00575747 0.0121332 -0.0521615 -0.0099062 -0.0321316 -0.00116057 0.00306665 -0.00288887 -0.0198508 -0.00990952 -0.0132985 -0.0100218 0.010221 0.00554528 -0.00034007 0.0118067 0.0225282 0.00202442 -0.00395596 -0.0127311 -0.0281728 -0.0245124 -0.0500567 -0.0175727 -0.0229387
internal_weight=0 6063.48 11702.1 4392.16 7734.51 3967.62 2669.37 1671.32 1241.56 2883 4851.51 1691.39 1103.34 1722.79 2276.23 1814.85 429.763 1558.2 709.432 1061.86 138.224 813.545 182.726 1959.94 1447.37 1185.68 1139.99 816.699 512.575 1214.37 3036.67 630.819 1239.94 433.498 778.57 645.593 324.765 744.655 513.996
internal_count=298557 147462 151095 87647 78525 72570 63202 59815 39417 32754 45771 38152 37237 24445 34418 23801 20398 33626 23934 18136 2180 15399 4137 39268 31169 23992 11228 8408 8099 16282 21970 11262 16246 7609 23471 19061 13766 18227 13809
is_linear=0
shrinkage=0.05


Tree=4
num_leaves=40
num_cat=0
split_feature=13 12 1 1 12 17 17 1 17 9 8 17 12 12 1 2 0 17 2 1 10 2 0 1 3 3 3 2 16 2 0 8 3 5 4 18 9 9 5
split_gain=788.841 334.444 212.258 156.224 112.715 102.986 97.3618 63.3496 68.2706 58.0399 49.2648 46.4031 42.5113 37.6806 36.3564 34.4817 31.5776 28.6539 39.2575 29.4788 28.622 26.7685 22.8961 23.9793 22.1549 22.0409 20.1573 19.9386 19.0605 19.0041 18.8843 18.6588 18.1849 18.1431 17.2022 16.7396 16.5392 16.5231 16.3827
threshold=27.500000000000004 7.912878787878789 -0.93445408344268788 0.36389335989952093 9.3416666666666686 8.2118500000000019 17.980300000000003 0.55559071898460399 8.3640500000000024 50.500000000000007 3.4330357142857149 23.036999000000005 607.50000000000011 3.757352941176471 0.63918969035148632 9.5000000000000018 13.211100000000002 25.674100000000003 13.500000000000002 -4.573819398880004 16.500000000000004 7.5000000000000009 15.754050000000001 -2.7442650794982906 21.500000000000004 40.500000000000007 75.500000000000014 5.5000000000000009 14.303116700996107 6.5000000000000009 18.090450500000003 2.8944444444444448 9.5000000000000018 4.5000000000000009 1.5000000000000002 10.050199500000002 2.5000000000000004 42.500000000000007 4.5000000000000009
decision_type=2 2 2 2 2 2 2 2 2 2 2 2 2 2 2 2 2 2 2 2 2 2 2 2 2 2 2 2 2 2 2 2 2 2 2 2 2 2 2
left_child=1 3 6 5 11 21 15 8 31 -6 34 13 -9 14 30 16 -2 18 26 -19 29 -1 23 -17 -13 33 -8 35 -29 -7 -4 -3 -16 -15 -5 -22 -12 -34 -30
right_child=2 7 4 10 9 20 17 12 -10 -11 36 24 -14 25 32 22 -18 19 -20 -21 27 -23 -24 -25 -26 -27 -28 28 38 -31 -32 -33 37 -35 -36 -37 -38 -39 -40
leaf_value=-0.025859069217945563 -0.015445300092290493 -0.019290093270348078 0.0035260281092613713 0.021405238881401011 -0.017137628927289133 -0.0084403422728525287 0.0070309353832785611 -0.032581777540822469 -0.027799069300411334 0.0073676900967478628 -0.045415931998677946 0.030696708179990092 0.014722582278348157 0.0022447648861002702 0.040903441038071621 -0.042005990513902705 0.0047898636777084511 -0.055140908027071903 -0.0099634714533093915 0.014741125674003428 -0.0068854746795807033 -0.048330425982262899 -0.0091983271859603765 -0.016372933833502908 0.018656554246590004 -0.013970376985280182 -0.052530559646958845 -0.024831732848977273 -0.016524524438893455 -0.02437597885298896 0.017590257161165926 -0.052797896359528418 0.013438887316007198 0.013174707140776634 0.0071752044497077686 0.024042654112647045 -0.0059243969618275327 0.024776646072936736 -0.0017865256668093564
leaf_weight=391.74322616527206 286.0609998696018 44.49777450459078 569.41665321728215 311.3039797055535 399.50175894104177 326.56816718360642 1371.7488556394819 93.385037084197393 645.64765255455859 611.43857739362284 28.349393960204907 572.46549108703039 96.648586908413563 644.34983621459105 115.63347874383908 129.72717761818785 591.37025753353373 15.387624000664799 497.12873674393632 782.9671845564153 79.22831484884955 200.28348820866086 653.95091292914003 307.51422476710286 1148.7980113178492 115.241129707254 14.353612332139162 144.28535857517272 250.0752628010232 438.04040375864133 410.91490673949011 626.3726360782166 535.98014478984987 924.33767250960227 668.32790256786393 97.700269849970937 409.10352932719979 802.47401758958586 766.54154722613748
leaf_count=10960 4630 1124 5562 2113 11271 6197 14570 3755 21855 9644 877 3685 1053 10116 613 4747 7711 950 8073 8918 1232 10124 14237 6104 11130 1861 312 3481 5617 13977 2770 32028 6537 11496 7991 920 10640 6158 13518
internal_value=0 -0.0153566 0.00750168 -0.00797203 0.0130981 -0.0150401 -0.000742831 -0.03551 -0.0394054 -0.00231628 0.00546736 0.0157666 -0.00852341 0.0128852 0.0168629 -0.00918672 -0.00180722 0.00545605 0.00209085 0.0133942 -0.00985295 -0.0334612 -0.0151206 -0.0239781 0.0226609 0.0071347 0.00641415 -0.00544256 -0.00782553 -0.0175698 0.00942118 -0.0505754 0.02188 0.00868515 0.0116972 0.0101931 -0.00848367 0.0202365 -0.00541189
internal_weight=0 5618.1 11500.8 4111.55 6850.55 2694.47 4650.21 1506.55 1316.52 1010.94 1417.08 5839.61 190.034 4118.35 2434.42 1968.62 877.431 2681.59 1883.23 798.355 2102.44 592.027 1091.19 437.241 1721.26 1683.93 1386.1 1337.83 1160.9 764.609 980.332 670.87 1454.09 1568.69 979.632 176.929 437.453 1338.45 1016.62
internal_count=298557 147462 151095 87647 80843 66026 70252 59815 55007 20915 21621 59928 4808 45113 21640 37429 12341 32823 22955 9868 44942 21084 25088 10851 14815 23473 14882 24768 22616 20174 8332 33152 13308 21612 10104 2152 11517 12695 19135
is_linear=0
shrinkage=0.05


Tree=5
num_leaves=40
num_cat=0
split_feature=13 12 1 1 0 9 12 1 17 1 9 10 3 16 8 12 8 3 16 11 8 2 17 5 2 8 17 0 12 8 3 1 11 6 10 17 13 3 3
split_gain=710.808 290.596 210.758 136.988 108.083 93.4673 87.9923 53.7317 55.0659 46.2087 43.3715 42.0061 39.4683 37.0741 35.9918 35.9128 33.5778 28.9936 24.7672 24.7252 23.9061 22.197 29.3184 20.8942 20.01 19.0706 17.8222 17.7568 17.5649 17.0793 16.6224 16.1715 16.2934 17.8264 16.2766 15.586 15.5711 15.3002 15.1506
threshold=27.500000000000004 7.912878787878789 -0.5279412269592284 0.6966344714164735 19.345099000000001 8.5000000000000018 9.3416666666666686 0.55559071898460399 8.3640500000000024 -1.8259755373001096 50.500000000000007 74.500000000000014 17.500000000000004 9.4340364340404044 46.026315789473692 607.50000000000011 3.3484848484848491 33.500000000000007 25.439142096808339 15.118452380952382 2.8090909090909095 8.5000000000000018 15.681999500000002 3.5000000000000004 3.5000000000000004 5.6770833333333348 10.958750000000002 14.345998000000003 2.4083333333333337 7.1455026455026465 8.5000000000000018 -3.4396803379058833 14.150555555555558 11.841350000000002 40.500000000000007 9.726799500000002 113.50000000000001 9.5000000000000018 18.500000000000004
decision_type=2 2 2 2 2 2 2 2 2 2 2 2 2 2 2 2 2 2 2 2 2 2 2 2 2 2 2 2 2 2 2 2 2 2 2 2 2 2 2
left_child=1 3 4 5 14 13 11 8 29 18 -8 12 20 24 17 -9 30 31 -6 36 37 23 38 -7 -1 -13 -25 -19 -15 -3 -5 32 33 -2 -33 -32 -11 -4 -23
right_child=2 7 6 16 9 21 10 15 -10 19 -12 25 -14 28 -16 -17 -18 27 -20 -21 -22 22 -24 26 -26 -27 -28 -29 -30 -31 35 34 -34 -35 -36 -37 -38 -39 -40
leaf_value=-0.021308436877641116 -0.027773551521028707 -0.024273518817647041 0.047706283582833985 0.030903888885144309 -0.025695789586407947 -0.013134520313165757 -0.01784728840113891 -0.033650813088959168 -0.027470407688779348 0.016515249681988097 0.0071085402023130725 0.023125715944478764 0.0040572881218434 -0.011857041680993122 -0.040900312011599195 0.010586622132417726 -0.0068277302926199063 -0.026197576245148693 0.0016659853508949629 0.0073418750956934804 0.012085844749916053 -0.007868565080820674 -0.0017951115236250648 -0.006582073258653974 -0.052185205631647108 0.015397710267335394 0.0098791470297797147 -0.0095994500052262524 -0.028093967984197728 -0.051605476346064584 0.0016938485360543853 -0.0083871012121630711 -0.03931851123920161 0.025708542992060941 0.002589216593274637 0.016857908288307456 0.037331689711015296 0.022527118207685746 -0.024877461892509573
leaf_weight=74.120480733108707 33.117669746512547 63.687822369160131 89.540526973549277 105.88623892562464 88.049899592995644 302.79640620620921 278.74734785206965 83.989716002717614 589.81906117897597 503.04818986332975 463.75124211219372 1754.3569518248551 1086.7579854204087 304.58674170382437 79.198137987928931 101.10713990789372 315.86029067047639 231.87689899723046 1362.2741360862856 947.47588027373422 458.78045086725615 189.63376375992084 370.63033858855488 291.6948536876007 179.64777480904013 1464.8951863808907 376.87010874284897 528.14992743358016 367.56672715814784 557.3672155358945 324.81376546487445 526.31076518492773 58.520641695009544 29.423331550555304 942.68962530582212 354.26915825298056 109.3659936459735 184.95881965698209 422.88068349059904
leaf_count=1903 1124 2150 341 686 1928 6159 9244 3755 21855 4316 8265 11085 18331 7235 3131 1053 9154 5378 19605 9927 6131 4069 7775 5051 8887 16029 4413 10030 12865 31002 3461 8836 2067 518 12322 3894 701 1786 12095
internal_value=0 -0.014947 0.00716258 -0.00806421 9.79056e-05 -0.0137979 0.013809 -0.0345764 -0.0384117 0.00642946 -0.00226033 0.0161767 0.0101054 -0.0268838 -0.00774774 -0.0094866 0.0069385 -0.0066305 4.83827e-06 0.0124028 0.0190691 -0.00759862 -0.012895 -0.00223798 -0.0431667 0.0196091 0.00269712 -0.0146634 -0.0207362 -0.0488026 0.0124778 -0.0027909 -0.0203558 -0.00261212 -0.00134336 0.00960475 0.0202327 0.0307405 -0.0196115
internal_weight=0 5377.23 11221.3 3981.26 5439.5 2880.43 5781.79 1395.97 1210.87 3010.21 742.499 5039.29 1820.04 925.922 2429.29 185.097 1100.83 2350.09 1450.32 1559.89 733.28 1954.51 983.145 971.361 253.768 3219.25 668.565 760.027 672.153 621.055 784.969 1590.06 121.062 62.541 1469 679.083 612.414 274.499 612.514
internal_count=298557 147462 151095 87647 79883 70452 71212 59815 55007 36477 17509 53703 26589 30890 43406 4808 17195 40275 21533 14944 8258 39562 23939 15623 10790 27114 9464 15408 20100 33152 8041 24867 3709 1642 21158 7355 5017 2127 16164
is_linear=0
shrinkage=0.05


Tree=6
num_leaves=40
num_cat=0
split_feature=17 1 1 0 17 17 8 12 8 2 16 13 9 9 8 2 3 5 3 2 2 2 3 5 3 17 3 3 1 15 4 3 1 9 2 16 11 9 9
split_gain=640.952 266.388 261.623 115.587 93.6848 89.714 73.6229 62.0201 45.8719 44.9121 35.1435 29.9521 27.3698 25.0883 26.5711 24.8533 24.5172 23.6302 23.1627 21.7224 21.0375 20.8362 20.1717 19.412 19.3388 18.5555 18.3126 18.02 17.6258 17.0751 21.0794 16.1816 16.1053 15.8448 15.3343 19.8499 18.8593 18.3282 14.8921
threshold=10.639499500000001 0.20957645773887637 -0.93445408344268788 17.266700000000004 6.6203995000000004 15.395250000000003 3.2613636363636371 1.8090909090909093 5.6770833333333348 9.5000000000000018 39.796635721509581 76.500000000000014 10.500000000000002 43.500000000000007 1.9500000000000002 13.500000000000002 28.500000000000004 7.5000000000000009 39.500000000000007 1.5000000000000002 10.500000000000002 9.5000000000000018 21.500000000000004 2.5000000000000004 20.500000000000004 22.397799500000001 21.500000000000004 12.500000000000002 -1.8058176040649412 9.5000000000000018 1.5000000000000002 20.500000000000004 -4.0232160091400138 178.50000000000003 6.5000000000000009 19.234923203393908 29.171072761413672 19.500000000000004 274.50000000000006
decision_type=2 2 2 2 2 2 2 2 2 2 2 2 2 2 2 2 2 2 2 2 2 2 2 2 2 2 2 2 2 2 2 2 2 2 2 2 2 2 2
left_child=1 4 3 9 13 6 27 26 22 34 15 -10 18 14 -1 23 -17 -11 -6 31 -8 -14 25 33 -21 -7 29 -4 -12 30 -3 -9 -19 -5 36 -36 37 -2 -35
right_child=2 7 5 10 12 8 20 19 11 17 28 -13 21 -15 -16 16 -18 32 -20 24 -22 -23 -24 -25 -26 -27 -28 -29 -30 -31 -32 -33 -34 38 35 -37 -38 -39 -40
leaf_value=-0.022026014458804029 -0.0037437311874210775 0.024220436355023214 0.024853320805805455 -0.014637557524986928 -0.025467538056252237 0.01992092890272781 -0.0014874489273727989 2.4897475382011071e-06 0.0025503810929257426 -0.026345792670021434 0.0058498877114406891 0.013988322671827686 -0.010469583142440951 -0.012486000977784168 -0.048432245376524269 0.0016892295153030118 -0.016699456919711145 -0.048475174904672548 -0.053767684901671775 -0.0059867175062521902 -0.016886949503607175 -0.027720369149939306 0.015050429272116521 0.0049999846971578617 -0.025368390349908163 0.032531115302588391 -0.0016433015121885171 0.0092394067536038377 0.021826430370979377 0.028296188448864619 -0.0061170544998805435 0.059982133950338773 -0.0094635860291478521 0.065312601019172092 -0.020490518256291643 -0.0030577481850323643 -0.040106785523567889 0.020574142601473642 -0.1006822664451148
leaf_weight=111.01865029218607 172.44037607382052 107.30142142483965 257.71455084788613 196.23236068850383 506.89505635591922 882.99512261123164 968.65202168503311 34.575476970523596 833.83186901611043 566.88172722159652 404.05679512280039 1825.2849148446694 601.43464788398705 65.564055209397338 671.38515086259576 352.68601176724769 372.93189884524327 27.9663839416462 84.331079645373393 289.31958900106838 287.63533388249925 246.8982186667854 1161.4962258432643 1631.936653214274 231.83106465218589 435.65182706108317 186.46654126979411 653.01324974466115 301.40959840337746 189.63008388574235 122.77259106468409 16.664657194167376 489.81844496459235 10.612263459246604 245.69601517333649 486.8717721644789 22.604746317490935 140.70821940153837 1.5482902480289329
leaf_count=3159 2644 677 1825 4942 17511 7891 19303 196 15851 16633 5415 22976 12561 2164 37704 5311 8310 1503 4063 6408 6787 8913 11472 19479 7831 2508 2522 8014 2896 1701 1736 96 12107 160 5050 8310 462 1441 25
internal_value=0 -0.0190623 0.00518994 -0.00312874 -0.0290118 0.011366 0.00283358 0.000249186 0.0149638 -0.0121257 0.00279234 0.0104017 -0.0212458 -0.0421957 -0.0446854 7.50337e-05 -0.00776165 -0.0192926 -0.0295042 -0.0115543 -0.00501327 -0.0154902 0.019855 0.00316494 -0.0146086 0.0240871 0.0113949 0.0136578 0.0126758 0.0171876 0.00803168 0.0195095 -0.0115707 -0.0112054 -0.0048491 -0.00890453 0.0039993 0.00718311 0.044178
internal_weight=0 3466.09 12730.7 5424.4 2287.53 7306.28 2167.02 1178.56 5139.26 2152.99 3271.41 2659.12 1439.56 847.968 782.404 2565.95 725.618 1084.67 591.226 572.391 1256.29 848.333 2480.14 1840.33 521.151 1318.65 606.171 910.728 705.466 419.704 230.074 51.2401 517.785 208.393 1068.32 732.568 335.753 313.149 12.1606
internal_count=298557 107242 191315 94688 86075 96627 35929 21167 60698 48150 46538 38827 43048 43027 40863 38227 13621 30243 21574 14531 26090 21474 21871 24606 14239 10399 6636 9839 8311 4114 2413 292 13610 5127 17907 13360 4547 4085 185
is_linear=0
shrinkage=0.05


Tree=7
num_leaves=40
num_cat=0
split_feature=17 1 1 0 9 10 12 12 8 8 10 1 2 3 2 3 10 3 3 16 5 18 3 2 12 18 12 7 2 3 12 5 16 2 13 2 10 8 15
split_gain=583.75 250.515 244.395 103.023 83.5248 80.0652 71.2614 57.8802 39.1022 37.9167 35.8765 33.2153 30.5397 29.8638 26.7265 26.412 22.9624 21.5202 21.1234 19.7851 21.6403 17.9588 17.7062 17.5939 16.975 16.6377 16.5697 16.3361 16.065 15.6223 15.2604 15.0048 14.8269 14.4674 14.3491 17.2269 14.2013 14.1083 14.1357
threshold=10.639499500000001 0.20957645773887637 -0.93445408344268788 19.345099000000001 2.5000000000000004 53.500000000000007 3.757352941176471 1.8090909090909093 9.7207792207792227 6.7573529411764719 11.500000000000002 -1.907804489135742 9.5000000000000018 33.500000000000007 1.5000000000000002 14.500000000000002 39.500000000000007 20.500000000000004 21.500000000000004 21.132413578314999 7.5000000000000009 17.878250500000004 8.5000000000000018 5.5000000000000009 13.211111111111112 15.709650000000002 1.5277777777777779 20.645254629629633 10.500000000000002 20.500000000000004 14.343137254901963 1.5000000000000002 39.414885103555868 7.5000000000000009 28.500000000000004 9.5000000000000018 24.500000000000004 26.031250000000004 29.500000000000004
decision_type=2 2 2 2 2 2 2 2 2 2 2 2 2 2 2 2 2 2 2 2 2 2 2 2 2 2 2 2 2 2 2 2 2 2 2 2 2 2 2
left_child=1 4 3 12 29 6 15 22 18 -6 -11 -5 19 16 -9 27 -14 -16 31 23 24 -18 -3 26 -21 -15 -2 -4 -17 -1 36 -7 -13 -24 35 -12 -8 38 -22
right_child=2 7 5 11 9 8 30 14 -10 10 34 32 13 25 17 28 21 -19 -20 20 37 -23 33 -25 -26 -27 -28 -29 -30 -31 -32 -33 -34 -35 -36 -37 -38 -39 -40
leaf_value=-0.035876372485522487 0.024069748600979678 0.029377579561372116 0.014113111113407274 -0.0012168870591001118 -0.014631110380653588 0.0094989993221686816 -0.015921416218885816 0.026074000278773237 0.0066423387421514395 -0.045551754573631288 -0.0224693874947559 0.0064657900660917466 -0.018635857668186342 -0.032359564140828433 -0.0057594434591969768 0.0078073675970804814 -0.008251974731393984 -0.026895675413769301 0.013776581933381007 -0.0012833832300764094 0.011421185117613617 0.011712676709527341 0.0095338640032921057 -0.014767291130440922 -0.036516013945696167 -0.014437634543464384 -0.0096701909280407766 0.03434101360391275 -0.012124527041861176 -0.054367346036884735 -0.027949984171790385 0.023336458600709906 0.018565709446697398 -0.024128624009183579 -0.015931693887078689 -0.043535870198327942 -0.0014504008431670229 -0.025233831536604273 0.042416470304301679
leaf_weight=190.4992094731424 64.102112904423848 109.89956626668572 384.94262300583068 1363.5505783996196 728.58180506006465 228.39563295745756 234.63721944225836 43.748297669459134 1193.6075092938845 261.29428102492238 270.57475540006999 811.12602279079147 414.08692865725607 285.58156807802152 284.62846754415659 720.76172252383549 462.0712769877864 208.75565035780892 2133.7606521247071 341.47397191787604 158.34098646510392 148.94993850169703 451.29269988590386 484.37527697382029 37.990245793480426 236.93920577759854 84.167581062298268 134.7535408079857 117.58594909880776 285.29014256974915 82.855776482232613 1377.4160092422972 368.05998892011121 34.347479618852958 315.80859701056033 151.31076646834845 611.07872536382638 20.128090452169999 47.916151957120746
leaf_count=9346 578 648 3600 22048 19153 1977 6840 292 21880 13934 8652 8622 12875 10309 6408 11455 8901 7831 21269 5391 2005 1928 5442 9425 1096 6109 1368 1034 2465 17176 2853 10014 3285 546 9479 8335 13240 409 339
internal_value=0 -0.0185899 0.00494209 -0.0031799 -0.0284138 0.0109369 0.00320299 0.000520147 0.0145216 -0.0233049 -0.0296308 0.00409739 -0.00982147 -0.0145044 -0.0113812 0.0105018 -0.00954559 -0.0147024 0.0170366 -0.00396969 0.0024882 -0.00338515 0.0112543 -0.010154 -0.00481072 -0.0242328 0.00491675 0.0193581 0.00501174 -0.0469638 -0.00747156 0.0213683 0.0102425 0.00715304 -0.0239916 -0.030025 -0.00546527 0.0147225 0.0186218
internal_weight=0 3336.03 12548.7 5328.86 2203.36 7219.8 2286.62 1132.67 4933.18 1727.57 998.988 2542.74 2786.12 1547.63 537.132 1358.04 1025.11 493.384 3739.57 1238.49 605.849 611.021 595.54 632.645 379.464 522.521 148.27 519.696 838.348 475.789 928.572 1605.81 1179.19 485.64 737.694 421.886 845.716 226.385 206.257
internal_count=298557 107242 191315 94688 86075 96627 41487 21167 55140 59553 40400 33955 60733 40122 14531 18554 23704 14239 33260 20611 9240 10829 6636 11371 6487 16418 1946 4634 13920 26522 22933 11991 11907 5988 26466 16987 20080 2753 2344
is_linear=0
shrinkage=0.05


Tree=8
num_leaves=40
num_cat=0
split_feature=13 12 1 1 10 17 17 12 1 2 0 12 9 8 17 3 11 9 8 16 1 1 17 12 5 8 18 2 3 16 10 12 16 9 5 8 1 9 5
split_gain=534.319 276.338 131.221 130.089 89.56 70.9238 58.9039 41.8111 36.7773 33.5807 40.4202 32.3044 30.3405 27.7403 24.9983 23.8869 23.0668 22.1294 21.5403 18.7478 19.4001 17.51 16.6737 25.2507 16.6598 15.7651 14.8193 22.2196 14.5992 14.0988 13.9682 13.8987 13.2761 13.1733 12.2206 17.7573 12.6418 12.1445 12.1115
threshold=40.500000000000007 7.4833333333333343 0.079352259635925307 0.0274004340171814 16.500000000000004 17.800350500000004 1.0000000180025095e-35 6.026315789473685 -1.8868228197097776 1.5000000000000002 10.663549000000001 2.4083333333333337 2.5000000000000004 51.809090909090919 18.076549500000002 4.5000000000000009 14.150555555555558 10.500000000000002 3.4330357142857149 21.24019297887018 -1.8658583164215086 0.81236991286277782 20.335200000000004 3.035714285714286 6.5000000000000009 3.3484848484848491 10.783699500000003 5.5000000000000009 57.500000000000007 37.012565688880947 7.5000000000000009 7.2583333333333337 19.639270539745947 64.500000000000014 5.5000000000000009 7.5166666666666675 -1.5178488492965696 37.500000000000007 3.5000000000000004
decision_type=2 2 2 2 2 2 2 2 2 2 2 2 2 2 2 2 2 2 2 2 2 2 2 2 2 2 2 2 2 2 2 2 2 2 2 2 2 2 2
left_child=1 3 5 4 12 13 15 22 32 -8 18 21 -1 28 -9 -3 33 -13 -11 20 26 30 23 -4 -12 -14 -6 -28 34 -18 -5 -21 -7 -10 35 -2 -36 -22 -24
right_child=2 6 7 11 19 8 9 14 16 10 24 17 25 -15 -16 -17 29 -19 -20 31 37 -23 38 -25 -26 -27 27 -29 -30 -31 -32 -33 -34 -35 36 -37 -38 -39 -40
leaf_value=-0.041541719634170859 -0.00068134887584064244 0.0030943618468852237 0.020433926563129586 -0.01383762251075181 -0.028322426427620534 -0.064303004560726851 0.018023467676499677 -0.0063383799899430372 0.01288873728143046 -0.0044972156564448496 -0.025111359187223188 -0.016458230274235305 -0.011671362168561884 -0.040033789158798766 0.011729412224851632 -0.048630796107260711 0.0031210859993107561 0.0026573344352185269 -0.039592882851008815 -0.0003578434701180518 -0.0070123906814884467 0.014822206305794526 0.017492097096569795 0.0067523087613059682 -0.011800423493201671 -0.025572131633868341 0.02960448560379117 -0.015011980727402617 -0.034958975124670499 0.012888601138483889 0.0076554819770252372 0.038312171470873679 0.00052201502780945897 0.026271165587936664 -0.0054620847579961015 -0.018114165918899382 0.0055821598221234732 0.010121488651655366 0.027290413129043102
leaf_weight=183.90554805967258 300.16244867490605 23.896453364752233 831.60861817718251 103.38625042198692 178.88469928750419 7.9500414133071891 48.922650233609602 276.00388595773256 509.42829198297113 48.711735490243882 447.25261661576224 206.19816214323509 383.28095340944128 55.49503568970249 624.86372480401769 338.36332247505197 881.39853792474605 569.74046882311814 426.69107703201007 834.04030352365226 534.56598996807588 814.56898996414384 582.35577465064125 567.29143510927679 495.48516936873784 435.9742543164175 31.652249168604612 235.72798180603422 37.454766289272811 636.05989274941385 281.19231124361977 23.9020500339102 1209.8104339952115 287.7724450994283 536.35389636282343 284.56185594131239 501.25623833591817 128.22917602583766 687.9391524126404
leaf_count=9562 4092 618 7672 1684 4990 392 598 8423 4413 843 16184 5975 9945 2465 10678 20871 8953 12583 21385 14056 9321 9407 5364 7963 15278 15799 224 5621 1103 5910 3699 303 18766 1782 10450 6985 6721 1520 5959
internal_value=0 -0.0105597 0.0081129 -0.00441786 -0.0110309 0.00308201 -0.0271632 0.0155079 0.00713255 -0.0227047 -0.0241098 0.00552689 -0.0231887 -0.00525959 0.00619388 -0.0452187 0.0108331 -0.00242244 -0.0359968 -0.00483049 -0.00912382 0.0106707 0.0186514 0.0148857 -0.0181154 -0.0190688 -0.0171829 -0.00973032 -0.00409691 0.00721525 0.00187749 0.000719493 9.88106e-05 0.0177195 -0.0033844 -0.0091652 -0.000126751 -0.00369755 0.0227985
internal_weight=0 6774.57 8817.77 4945.25 2970.16 5247.7 1829.32 3570.06 3532.42 1467.06 1418.14 1975.09 1003.16 1715.28 900.868 362.26 2314.66 775.939 475.403 1967 1109.06 1199.15 2669.19 1398.9 942.738 819.255 446.265 267.38 1659.79 1517.46 384.579 857.942 1217.76 797.201 1622.33 584.724 1037.61 662.795 1270.29
internal_count=298557 180466 118091 104689 71341 72032 75777 46059 40216 54288 53690 33348 35306 31816 19101 21489 21058 18558 22228 36035 21676 14790 26958 15635 31462 25744 10835 5845 29351 14863 5383 14359 19158 6195 28248 11077 17171 10841 11323
is_linear=0
shrinkage=0.05


Tree=9
num_leaves=40
num_cat=0
split_feature=17 1 1 17 0 12 17 12 2 1 9 13 8 3 2 8 2 10 10 3 2 10 2 16 2 5 10 8 9 5 15 11 5 17 9 8 1 13 14
split_gain=503.428 230.17 190.233 110.289 79.831 58.0565 54.9563 48.1172 35.197 30.6865 24.604 21.5125 24.8017 20.8665 19.1541 18.715 18.3793 18.8329 18.2131 17.8092 17.3302 21.5715 17.14 16.855 17.5523 16.1431 17.9761 14.8922 14.354 16.1819 14.0886 14.0708 15.5478 13.8598 13.2269 13.1543 12.9447 12.8571 13.5223
threshold=12.069450000000002 0.20957645773887637 -0.5279412269592284 7.746449000000001 17.841100000000004 1.8090909090909093 20.218900000000001 5.3452380952380958 9.5000000000000018 -2.1392873525619502 2.5000000000000004 14.500000000000002 5.026315789473685 20.500000000000004 1.5000000000000002 5.6770833333333348 8.5000000000000018 30.500000000000004 46.500000000000007 13.500000000000002 7.5000000000000009 51.500000000000007 5.5000000000000009 41.074593501073053 13.500000000000002 6.5000000000000009 78.500000000000014 16.68990384615385 174.50000000000003 2.5000000000000004 9.5000000000000018 40.249803571428586 6.5000000000000009 23.036999000000005 49.500000000000007 26.031250000000004 -2.4624770879745479 136.50000000000003 263.75191722371494
decision_type=2 2 2 2 2 2 2 2 2 2 2 2 2 2 2 2 2 2 2 2 2 2 2 2 2 2 2 2 2 2 2 2 2 2 2 2 2 2 2
left_child=1 3 4 10 8 19 7 16 35 23 13 12 -5 -1 -7 -8 -4 -18 -9 30 -12 -22 -13 24 28 -10 -27 -25 29 -6 -3 32 -24 -11 -17 -2 -34 38 -26
right_child=2 5 6 11 9 14 15 18 25 33 20 22 -14 -15 -16 34 17 -19 -20 -21 21 -23 31 27 37 26 -28 -29 -30 -31 -32 -33 36 -35 -36 -37 -38 -39 -40
leaf_value=-0.03238718309883161 -0.0010064063966418453 0.0091215987273578335 0.01515893762834835 -0.012070830227078128 -0.024587371323842717 0.022663454386400848 0.022319481114536521 -0.015158194666112016 -0.022423366738389808 0.0036548258999801256 -0.022015791526944013 0.0020816201055563646 -0.029905874917701615 -0.055697146279232737 -0.011593450839713344 0.0014800782253097744 -0.010301665381474224 0.0089575109699531509 0.0017562887529944439 0.003937768005290776 -0.046291471653814815 -0.015455003853709615 -0.022062690015069133 0.017993398626618248 -0.012602287203211639 -0.014984436061504305 0.0045304585445053421 -0.0085383961944957305 0.036849320086954608 0.00063930359183059519 0.029321351764536919 -0.059020554757766852 -0.021584652897462791 0.011646881704270435 0.015604304445470136 -0.036134322482040536 -0.0018474952243205341 -0.036078728725867343 0.030460964494774631
leaf_weight=163.91116624634014 944.36619887815323 172.25819239020348 1265.9987338251085 361.90469921624754 70.433616689173505 43.665027583017945 1129.7076115361415 231.24867932358757 445.20131757762283 1219.2898956814315 321.50747403819696 211.08487251109909 422.48545605060644 231.75205946195638 622.79569443804212 191.85533340851543 148.99190281203482 857.42400854284642 510.45100366894621 422.68011217232561 229.16291365449433 75.366015321749728 285.62895629223203 166.45165877323598 295.09704965353012 454.51021697634133 159.38826182833873 77.520879729650915 24.823684852104634 652.30557957920246 173.02776507288218 17.019549366785213 112.52251265489031 977.27523217978887 1218.4401444797986 27.424324767431244 317.41501844476443 55.329623274272308 19.429793982766569
leaf_count=8729 14465 1605 15091 9663 3091 292 8937 7603 13208 15194 10679 3464 17096 15910 18803 4388 3078 10124 11601 5777 14601 2998 8319 1987 6648 13239 2582 1659 291 8769 1147 721 4064 8744 14650 851 6698 1485 306
internal_value=0 -0.0147878 0.00555282 -0.0232577 -0.000959845 0.0014489 0.0121062 0.00754049 -0.00886939 0.00355494 -0.0362806 -0.0155581 -0.0216771 -0.0460405 -0.00934901 0.0175241 0.0111497 0.00610634 -0.00351734 0.0108196 -0.0301122 -0.0386599 -0.0104719 -0.00234331 -0.0049429 -0.0151746 -0.00991773 0.00956307 -0.000535099 -0.00181913 0.019244 -0.014089 -0.0130203 0.00721058 0.0136829 -0.00199773 -0.00701307 -0.013852 -0.00994207
internal_weight=0 4184.19 11143 2749.76 5588.85 1434.43 5554.12 3014.11 2030.89 3557.96 1021.7 1728.06 784.39 395.663 666.461 2540 2272.41 1006.42 741.7 767.966 626.036 304.529 943.671 1361.39 1117.42 1059.1 613.898 243.973 747.563 722.739 345.286 732.586 715.566 2196.57 1410.3 971.791 429.938 369.856 314.527
internal_count=298557 130566 167991 102942 92519 27624 75472 47497 44345 48174 52917 50025 26759 24639 19095 27975 28293 13202 19204 8529 28278 17599 23266 24236 20590 29029 15821 3646 12151 11860 2752 19802 19081 23938 19038 15316 10762 8439 6954
is_linear=0
shrinkage=0.05


Tree=10
num_leaves=40
num_cat=0
split_feature=10 1 1 17 17 8 13 8 2 1 8 2 17 5 8 1 0 8 2 8 4 11 0 16 3 1 0 2 7 3 12 4 15 10 3 16 9 16 3
split_gain=464.271 211.713 180.613 106.014 102.38 43.6888 43.1824 43.0787 32.7283 26.5887 26.5276 25.7335 24.056 21.8386 22.4186 21.923 21.7351 21.5462 21.0405 18.6271 17.8509 17.2709 16.9667 16.497 16.3333 26.5241 17.0017 17.8873 16.2537 16.0313 15.679 15.4538 22.762 14.7731 14.1831 13.7777 13.7175 13.7113 13.6565
threshold=26.500000000000004 0.20957645773887637 -0.32601922750473017 7.6666995000000009 17.980300000000003 5.6770833333333348 77.500000000000014 3.4330357142857149 11.500000000000002 -1.8058176040649412 6.2052631578947377 7.5000000000000009 21.044700000000002 5.5000000000000009 7.026315789473685 -3.0893821716308589 10.663549000000001 15.207142857142857 1.5000000000000002 28.019230769230774 35.500000000000007 15.333827160493831 14.410250000000001 35.868828766262546 34.500000000000007 -4.1814513206481925 17.188550000000003 13.500000000000002 9.502645502645505 13.500000000000002 5.8397435897435903 1.5000000000000002 9.5000000000000018 17.500000000000004 55.500000000000007 34.959357269892458 47.500000000000007 19.43724889754056 20.500000000000004
decision_type=2 2 2 2 2 2 2 2 2 2 2 2 2 2 2 2 2 2 2 2 2 2 2 2 2 2 2 2 2 2 2 2 2 2 2 2 2 2 2
left_child=1 3 4 10 8 12 19 31 13 24 -1 16 29 14 15 20 -5 33 -9 -7 -2 38 34 -23 37 -26 -27 35 -29 -4 -20 -3 -33 -13 -15 -28 -31 -6 -11
right_child=2 7 5 11 9 6 -8 18 -10 21 -12 17 -14 22 -16 -17 -18 -19 30 -21 -22 23 -24 -25 25 26 27 28 -30 36 -32 32 -34 -35 -36 -37 -38 -39 -40
leaf_value=-0.026312895997999321 0.018652379400301945 0.018356313695368394 0.021466118861750233 -0.018738702431397466 -0.055035084857560528 0.00057629494784637852 0.012288085279808949 0.023305742104457045 -0.017016771313980019 0.024289379673504211 -0.044916522231748746 -0.024672009275171797 0.022828604683444848 -0.005167489380974024 -0.020885014468975338 0.00036235142335884843 -0.002112015255322763 -0.036629099781681516 -0.0055647020057287295 -0.025082646231366048 -0.063875170153553026 -0.0013888132136675687 0.0051158420891449863 0.011255131685136824 -0.042992855387165803 -0.046208246296945116 -0.0025585449816192198 0.039376294150281446 -0.017058232493247113 0.0057082905991169622 -0.024399213344015794 -0.0074832279721568605 0.011989502002596623 -0.011146076621864412 -0.04254102031533083 0.018810680227469123 0.015526081782511273 0.0048865897580444217 0.010264685948580153
leaf_weight=306.79254774069705 8.9291749773547036 254.93610339309089 430.70203507505357 353.80611329298699 9.6472549586032965 804.12890650419286 1485.3145122488786 42.111272821202874 740.36384030795307 246.80787123250775 510.43772847269429 407.78472946997499 940.74650591250975 475.11135177448159 334.30052464664914 358.18353066721465 442.25125850888435 191.53136578924023 257.39758730464382 77.552060001180507 24.616978650214151 531.74375727330334 639.80428949475754 501.07493143447209 45.705981957726181 22.146392497699708 189.22642091684975 13.699796890839933 185.71350613725372 735.4666627610568 193.61135875797481 261.03417295985855 353.03272028116044 399.78407271247124 26.818249231902882 125.42603011336178 689.17687661468517 915.44198392285034 585.00185428955592
leaf_count=12621 234 2254 3215 9751 389 18980 21965 263 22271 1711 32849 16844 7025 8545 9182 4816 8839 9399 7648 3066 865 6015 9141 4740 2523 732 2930 207 4593 11618 8001 4283 4226 10829 940 1403 5600 12263 5781
internal_value=0 -0.0146715 0.00523313 -0.0230043 -0.000681932 0.0120838 0.00708488 0.00130981 -0.00812054 0.0050722 -0.0379326 -0.0162083 0.0163156 -0.00459417 -0.0113741 -0.00325754 -0.00950171 -0.0215519 -0.0104941 -0.00168065 -0.0419083 0.00906392 -0.00028279 0.00474543 0.000133233 -0.00642989 -0.00331331 -0.00146536 -0.0131812 0.0130132 -0.0136501 0.00800802 0.00371182 -0.017976 -0.00716437 0.00595961 0.0104577 0.0042617 0.014426
internal_weight=0 3974.51 11142.9 2612.39 5979.76 5163.09 2367 1362.12 2608.13 3371.64 817.23 1795.16 2796.09 1867.76 726.03 391.73 796.057 999.1 493.12 881.681 33.5462 1864.63 1141.73 1032.82 1507.01 581.918 536.212 514.066 199.413 1855.35 451.009 869.003 614.067 807.569 501.93 314.652 1424.64 925.089 831.81
internal_count=298557 127807 170750 101132 99281 71469 44011 26675 55994 43287 45470 55662 27458 33723 15097 5915 18590 37072 15912 22046 1099 18247 18626 10755 25040 12388 9865 9133 4800 20433 15649 10763 8509 27673 9485 4333 17218 12652 7492
is_linear=0
shrinkage=0.05


Tree=11
num_leaves=40
num_cat=0
split_feature=17 1 1 17 0 17 12 8 1 0 3 1 2 0 3 3 8 5 9 8 2 17 3 10 1 16 2 10 14 17 17 11 4 3 8 16 12 5 4
split_gain=437.998 196.38 168.595 103.104 73.693 46.463 39.395 34.3072 31.4357 25.3137 22.3671 21.1027 20.7043 20.1013 18.6462 18.285 17.8226 22.8196 17.3696 21.0456 16.3593 16.3089 15.7538 14.9628 14.6613 13.3898 13.33 13.1036 13.597 12.7041 16.9243 12.4589 12.7098 12.1737 12.051 12.0358 14.5555 14.3392 12.7944
threshold=12.069450000000002 0.72520142793655407 -0.5279412269592284 6.6203995000000004 19.345099000000001 20.218900000000001 3.1742424242424243 1.9500000000000002 -1.2137597799301145 14.345998000000003 78.500000000000014 -1.907804489135742 9.5000000000000018 15.683350000000003 29.500000000000004 21.500000000000004 2.683333333333334 6.5000000000000009 43.500000000000007 1.9500000000000002 6.5000000000000009 24.479049500000006 12.500000000000002 2.5000000000000004 0.61139777302742015 24.524548618699416 1.5000000000000002 63.500000000000007 122.74459990449812 14.122550000000002 18.258201000000003 14.150555555555558 1.5000000000000002 29.500000000000004 5.2071428571428582 21.132413578314999 2.5227272727272729 6.5000000000000009 26.500000000000004
decision_type=2 2 2 2 2 2 2 2 2 2 2 2 2 2 2 2 2 2 2 2 2 2 2 2 2 2 2 2 2 2 2 2 2 2 2 2 2 2 2
left_child=1 3 4 18 10 6 24 -3 9 20 12 21 35 27 -8 -7 -10 -18 19 -1 23 25 -9 -5 -4 -6 -24 33 -29 -27 -31 32 -13 -14 -22 36 -2 38 -37
right_child=2 7 5 8 11 15 14 22 16 -11 -12 31 13 -15 -16 -17 17 -19 -20 -21 34 -23 26 -25 -26 29 -28 28 -30 30 -32 -33 -34 -35 -36 37 -38 -39 -40
leaf_value=-0.018610879624879326 0.0024289300736826916 0.014884704793782786 0.005969338873716157 -0.064563631444449654 -0.032125817929971316 0.021942987312651138 0.0048745308985410126 0.0094883907000722651 0.00084653916744088461 0.00061845167884187844 -0.057756772922381384 -0.00061109996378423811 -0.015048744406564903 -0.0059003854382774709 -0.0075986456663986292 0.013142401300277521 -0.021010431020774618 -0.0023532690678724072 -0.011012084858694822 -0.041356294911273003 -0.018547239276782618 0.0067784197224859764 0.024864621274212566 -0.012468881028373235 0.016505301421214657 0.033919543055183257 -0.011948297616050168 -0.00024728378053605744 -0.044116098375848699 -0.02593454370419488 -0.0017404422076012238 0.0045336449769000633 0.016834145159769054 -0.032263531687482624 -0.032524496670500551 -0.03023500069188604 -0.015864381045304295 0.0099650783766881048 -0.00095506610898089838
leaf_weight=121.0420453644474 189.9897630054038 471.14614877244458 504.77119447791483 14.342068550642578 42.803262249566615 920.59083820064552 1021.4474886299577 159.27083262539236 345.13450606854167 127.60278087342158 21.764140773564577 129.72611361392774 230.34189771697856 833.5257968941587 423.99516862549353 1644.6370254652575 388.15578330372227 283.66426824248629 66.190135297249071 636.36589293651923 238.21916906291153 480.47942237299867 26.48420053999871 354.02999589231331 954.68367398146074 22.16689169453457 343.91681955425884 138.56561258001602 20.243747718632221 81.655634263064712 629.67477255663835 965.32829737616703 534.91144892014563 185.3246530147444 437.3017334670003 43.070303069194779 254.26125941495411 329.50099161686376 278.9511080107186
leaf_count=3537 2562 4847 5644 608 1445 7554 21013 2449 6268 3507 965 1690 6618 18685 10148 20421 12246 6851 2265 39696 7894 8335 138 8174 10692 347 11469 2802 508 1860 9883 10559 4220 7410 20617 1095 4921 3891 4723
internal_value=0 -0.0141194 0.00520651 -0.0204953 -0.00105009 0.011397 0.00706661 0.00506925 -0.0148203 -0.0204036 -0.00728773 0.00440705 -0.00684902 -0.0108601 0.00121574 0.0163007 -0.00838847 -0.0131328 -0.0355748 -0.0377213 -0.0229733 -0.000461435 -0.00366166 -0.0144971 0.0128613 -0.00494243 -0.00931612 -0.0180563 -0.00583933 -0.00335615 -0.00451775 0.00816088 0.0134291 -0.0227239 -0.0275955 -0.00169503 -0.00804101 0.00263207 -0.00487125
internal_weight=0 4012.87 10882.4 3012.05 5412.29 5470.13 2904.9 1000.82 2188.45 1171.5 2525.54 2886.75 2503.78 1408 1445.44 2565.23 1016.95 671.82 823.598 757.408 1043.89 1256.78 529.672 368.372 1459.45 776.301 370.401 574.476 158.809 733.497 711.33 1629.97 664.638 415.667 675.521 1095.77 444.251 651.522 322.021
internal_count=298557 130566 167991 111663 92519 75472 47497 18903 66165 40800 54180 38339 53215 36023 31161 27975 25365 19097 45498 43233 37293 21870 14056 8782 16336 13535 11607 17338 3310 12090 11743 16469 5910 14028 28511 17192 7483 9709 5818
is_linear=0
shrinkage=0.05


Tree=12
num_leaves=40
num_cat=0
split_feature=17 1 17 1 8 17 10 2 9 3 10 2 1 17 8 2 1 2 3 0 8 16 8 0 10 2 6 3 8 3 5 1 15 8 5 14 17 0 2
split_gain=413.193 226.856 156.485 110.739 61.7798 34.9067 31.4418 25.345 24.5519 23.9403 19.7315 19.3738 19.3089 19.4034 19.0993 19.0552 18.616 18.4717 18.1244 16.9334 16.5397 16.1495 17.3158 15.4931 15.4073 13.9088 13.2263 13.1295 12.8727 12.6906 12.6196 13.7566 12.13 14.7269 16.2164 12.3165 12.2631 12.9043 12.1845
threshold=15.974900000000002 -0.17285412549972531 8.2118500000000019 -0.5279412269592284 3.4330357142857149 23.036999000000005 26.500000000000004 10.500000000000002 5.5000000000000009 21.500000000000004 68.500000000000014 8.5000000000000018 1.3172498941421511 6.6203995000000004 6.2583333333333337 13.500000000000002 -2.1611340045928951 7.5000000000000009 53.500000000000007 32.721050000000012 5.026315789473685 21.052987798151875 6.9045454545454552 10.731350000000001 101.50000000000001 3.5000000000000004 18.070149500000003 12.500000000000002 28.019230769230774 25.500000000000004 1.5000000000000002 3.4733999967575078 25.500000000000004 11.379807692307695 2.5000000000000004 75.846178042083366 17.980300000000003 18.174000000000003 18.500000000000004
decision_type=2 2 2 2 2 2 2 2 2 2 2 2 2 2 2 2 2 2 2 2 2 2 2 2 2 2 2 2 2 2 2 2 2 2 2 2 2 2 2
left_child=1 2 8 5 12 16 17 21 14 30 11 29 13 25 -1 26 32 23 -17 -20 -19 22 -8 -4 -11 -3 -7 -16 -13 -6 -5 -32 33 34 -2 -34 37 -36 -37
right_child=3 4 6 9 10 15 7 -9 -10 24 -12 28 -14 -15 27 18 -18 20 19 -21 -22 -23 -24 -25 -26 -27 -28 -29 -30 -31 31 -33 35 -35 36 38 -38 -39 -40
leaf_value=-0.029204017538469986 -0.033183625537253437 -0.0023364726908742754 -0.019819038817071963 0.0070138315113212231 0.0011828688603211903 -0.0024555644347685132 -0.0018290082850142696 -0.014972824086628376 -0.025655273396365936 0.005515318679220854 0.0055453607176870097 -0.014203032598550389 0.015432832406589707 0.006604565537268535 -0.022190909761299695 0.0052878303942627998 0.0016454797243870339 -0.012055198288393474 -0.035771030312183948 0.0088802650485902881 -0.027963223064203058 0.0040103018987191581 -0.018247599272216735 -0.0035163578143768701 0.013792860975532504 -0.043650046035496493 0.017075194482273414 -0.053231930551618234 -0.040371291277484678 -0.013042717678950081 0.019220107224615143 0.043529159222242007 -0.047534504054151237 -0.018164597098463877 0.0019597694945952663 -0.010086696495570485 0.011616408560253057 -0.037318772464985286 -0.061611294911437867
leaf_weight=194.09034993231762 29.396897173719481 51.794314608210698 250.2675775794778 205.55097941169515 438.51396039276733 102.44554847036488 464.57112482929369 615.39152519879281 482.57390955601295 909.04300245555351 305.68858042280772 312.56652743427549 667.9945594179444 730.45020729553653 39.060974466963671 731.01789709297009 1361.1154102151049 255.01694767878507 55.018418480001856 34.577784094959497 454.77447079651756 533.17626395076513 245.42136909195688 348.90435326623265 1473.2430160460644 33.581015821488108 563.42230174085125 266.38138021648047 55.312598500138847 244.01676127375686 1314.981046107423 60.893840122269467 25.36923023685813 111.80818882922176 76.317993979202583 388.41524790023686 244.72942175436765 28.801867770962417 11.823363479925318
leaf_count=9222 1356 844 6868 2236 11714 1590 6216 17607 22303 17234 5754 9627 7902 9018 2246 9631 18871 8126 1292 648 20106 8680 5813 6909 16921 628 5561 20545 2665 8618 13026 603 704 3228 1600 8292 3198 682 473
internal_value=0 -0.00880922 -0.0162611 0.00796748 0.00207939 0.00182562 -0.0108546 -0.00667399 -0.0336986 0.0138003 -0.00563471 -0.00888831 0.00912949 0.00396835 -0.0414688 0.00778582 -0.00206401 -0.0167905 0.00268639 -0.0185388 -0.0222477 -0.00256591 -0.00750438 -0.0103258 0.0106343 -0.0185865 0.0140703 -0.0492623 -0.0181376 -0.00390303 0.0185696 0.020296 -0.00757209 -0.00221738 0.00248413 -0.0137502 0.0054812 -0.00880219 -0.0116088
internal_weight=0 6989.55 4149.63 7727.97 2839.92 3764.26 3167.52 1858.56 982.107 3963.71 1356.1 1050.41 1483.82 815.826 499.533 1486.48 2277.78 1308.96 820.614 89.5962 709.791 1243.17 709.992 599.172 2382.29 85.3753 665.868 305.442 367.879 682.531 1581.43 1375.87 916.662 491.054 379.246 425.608 349.849 105.12 400.239
internal_count=298557 191411 134641 107146 56770 57126 80325 38316 54316 50020 38378 32624 18392 10490 32013 18722 38404 42009 11571 1940 28232 20709 12029 13777 34155 1472 7151 22791 12292 20332 15865 13629 19533 10064 6836 9469 5480 2282 8765
is_linear=0
shrinkage=0.05


Tree=13
num_leaves=40
num_cat=0
split_feature=17 1 17 1 2 16 12 8 3 9 9 3 9 10 2 3 5 18 3 2 10 1 16 3 1 10 8 2 15 7 6 12 1 16 14 14 12 2 3
split_gain=395.276 218.907 156.792 99.3786 42.3404 34.1664 30.8104 29.4717 28.9722 28.0432 27.6191 27.2457 22.7893 22.456 19.9322 19.348 17.3725 15.6869 14.6854 13.9238 17.9933 16.337 21.997 13.8865 13.6154 13.5565 13.5345 13.0873 13.0176 21.3032 12.867 12.6599 12.5906 12.5124 12.631 12.1631 11.9467 11.7733 11.1916
threshold=15.974900000000002 0.81236991286277782 8.2118500000000019 -0.95861673355102528 9.5000000000000018 39.796635721509581 2.8090909090909095 2.8944444444444448 21.500000000000004 5.5000000000000009 8.5000000000000018 29.500000000000004 29.500000000000004 101.50000000000001 12.500000000000002 9.5000000000000018 5.5000000000000009 25.678050000000002 12.500000000000002 5.5000000000000009 48.500000000000007 -2.5534112453460689 23.670424651747201 28.500000000000004 -3.9301803112030025 43.500000000000007 6.6742424242424248 13.500000000000002 40.500000000000007 18.600264550264551 7.5504500000000005 4.7596153846153859 -0.8103954792022704 25.901430473840822 78.462072718259336 154.7903598871732 17.226495726495731 1.5000000000000002 74.500000000000014
decision_type=2 2 2 2 2 2 2 2 2 2 2 2 2 2 2 2 2 2 2 2 2 2 2 2 2 2 2 2 2 2 2 2 2 2 2 2 2 2 2
left_child=1 2 7 5 10 14 15 32 31 18 -4 25 -13 -10 17 30 26 38 -9 -18 21 22 -21 28 -19 -6 -12 -7 29 -16 -3 -5 -1 34 -23 -17 -11 -8 -2
right_child=3 6 4 8 11 27 37 9 13 36 16 12 -14 -15 23 35 19 24 -20 20 -22 33 -24 -25 -26 -27 -28 -29 -30 -31 -32 -33 -34 -35 -36 -37 -38 -39 -40
leaf_value=-0.025722630081061199 0.00077592714495438512 0.011592717920537947 -0.017717474409873729 0.020036064358443094 -0.015676915541864286 0.020396855125951581 0.026925474534022317 -0.021046840509782481 0.0035924351343068722 -0.01919287273390316 -0.0035466419901008894 -0.033865676458928955 -0.013450329566823738 0.012839424235237061 0.0023168730971055633 0.0079513500263849197 0.013638715527169927 -0.054672599951336991 -0.046965201880531805 -0.036632350416193747 0.0098068873763313726 -0.00012844152031964365 0.010175564573502214 -0.013475741889326823 0.025450274272983034 -0.0038145548322557378 -0.016011260306957414 0.0056806260811205931 0.011511034690732471 -0.025284487318715756 0.036291720630474575 0.010432222228449254 -0.0049968101503319326 0.021705768450640817 -0.01893825489799543 0.046760634609030391 -0.035268057327501837 -0.0038507393335210586 -0.052624058337171965
leaf_weight=151.38325784006156 1431.1173054483952 92.425986234797165 362.38694796420168 1304.2814273342956 552.8299665088125 240.54085058299825 32.969214184209704 64.145951982121915 1058.1283600606257 289.85727717692498 655.00914869143162 295.33293819648679 254.48776709334925 1729.9971471870958 209.7360331772361 827.8873460906907 192.20477325748652 5.6193172959610811 369.27601555292495 81.944694674923085 272.31970756995725 414.23517813894432 36.181887604063377 477.94797846348956 93.962113573215902 426.78489213506691 326.26048186363187 406.19572773622349 138.54806048842147 104.8577892142348 122.77349432278425 465.65798685181653 142.02075847348897 51.205568274483085 113.76122266735183 20.693482400616631 192.22755535040051 540.76718587108189 9.8795655914582294
leaf_count=5743 21774 699 11885 10890 18448 2489 192 3227 20328 11961 10556 14121 7385 19385 3388 11405 2279 186 26862 2329 3171 6964 606 12092 766 8358 9584 5310 1737 1965 629 6411 3158 876 1959 180 11157 17677 425
internal_value=0 -0.00870192 -0.0136854 0.00780061 -0.00895293 0.000922647 0.00725669 -0.0294807 0.0125062 -0.0339002 -0.00495121 -0.0155085 -0.0244163 0.00933008 -0.0017545 0.0122935 -0.00279253 0.00173615 -0.0431293 0.00134457 -0.00109239 -0.00534876 -0.0222952 -0.00753012 0.020929 -0.0105089 -0.00769098 0.011154 -0.00125901 -0.00688298 0.0256838 0.0175094 -0.0156904 -0.00189258 -0.00418117 0.00889775 -0.0256027 -0.00208221 0.000409813
internal_weight=0 6881.37 5243.86 7676.47 4034.95 3118.4 1637.52 1208.91 4558.06 915.507 2505.51 1529.44 549.821 2788.13 2471.67 1063.78 2143.12 1540.58 433.422 1161.85 969.648 697.329 118.127 931.09 99.5814 979.615 981.27 646.737 453.142 314.594 215.199 1769.94 293.404 579.202 527.996 848.581 482.085 573.736 1441
internal_count=298557 191411 160629 107146 98521 50132 30782 62108 57014 53207 50209 48312 21506 39713 42333 12913 38324 23151 30089 18184 15905 12734 2935 19182 952 26806 20140 7799 7090 5353 1328 17301 8901 9799 8923 11585 23118 17869 22199
is_linear=0
shrinkage=0.05


Tree=14
num_leaves=40
num_cat=0
split_feature=17 1 17 1 16 2 10 12 3 8 9 8 1 8 3 3 10 3 9 10 8 1 10 5 16 2 1 16 8 3 11 13 8 3 17 16 2 18 0
split_gain=366.906 203.098 143.253 94.4208 40.9029 40.2829 32.8124 28.4203 26.5757 25.6833 25.418 23.8563 22.7573 18.0688 17.8697 17.2814 16.609 14.1634 14.1072 14.0504 13.773 16.9159 13.7411 12.9896 12.543 13.4432 13.3374 13.3398 11.8252 11.5086 11.4605 11.4575 11.4566 11.399 14.3032 12.9555 11.9741 12.5248 21.439
threshold=15.974900000000002 0.81236991286277782 8.2118500000000019 0.10545676946640016 36.131654150275502 10.500000000000002 16.500000000000004 2.8090909090909095 74.500000000000014 2.8944444444444448 5.5000000000000009 5.6770833333333348 -2.0971019268035884 3.3484848484848491 56.500000000000007 9.5000000000000018 43.500000000000007 12.500000000000002 54.500000000000007 74.500000000000014 16.256578947368425 -3.4760029315948482 299.50000000000006 5.5000000000000009 33.217079557961249 5.5000000000000009 -1.5178488492965696 16.288312985891949 26.031250000000004 49.500000000000007 24.44461073318217 24.500000000000004 10.510000000000002 33.500000000000007 17.980300000000003 25.798615403148126 11.500000000000002 27.548950500000004 21.652750000000001
decision_type=2 2 2 2 2 2 2 2 2 2 2 2 2 2 2 2 2 2 2 2 2 2 2 2 2 2 2 2 2 2 2 2 2 2 2 2 2 2 2
left_child=1 2 9 4 8 6 13 15 12 -1 17 -5 33 -4 23 31 29 -11 -13 32 -6 22 -22 -8 25 -25 27 -27 -29 -7 -21 -3 -14 34 35 -2 37 38 -35
right_child=3 7 5 11 20 16 14 -9 -10 10 -12 18 19 -15 -16 -17 -18 -19 -20 30 21 -23 -24 24 -26 26 -28 28 -30 -31 -32 -33 -34 36 -36 -37 -38 -39 -40
leaf_value=-0.015726406794061672 -0.0014253551647130675 0.016208434437402466 -0.0057076873236164283 0.018684493883118821 0.013032444917525447 -0.021779617846822308 -0.0065673647300163096 -0.0021337138180697415 -0.051582830794150138 -0.02019222404358214 -0.024950219963594276 0.0012385858957465008 0.0014749373776641707 -0.021759244221345116 -0.030516277422669571 0.0085256224560490718 -0.010656076582705594 -0.04584387764514454 0.01273405756353446 0.0099307320640264259 -0.054321980141025843 0.0049955101817003994 0.0314474874542423 0.014539516944843404 0.032373575152691951 -0.025557216111896437 0.0034378720995013341 -0.00076021019440882832 -0.02881923152884714 -0.053287340588884041 -0.00080268004350330952 0.040481499970615592 -0.012296778978314856 0.00082246617653834514 0.0024313162384200066 -0.029851507067352751 -0.021221896279956579 0.051582630311612171 -0.047160670904209237
leaf_weight=287.98948055595974 85.816856694989838 145.63886349927634 297.85174369381275 1586.3128731629986 1054.7720364711713 495.3791378326132 957.33180442720186 560.89613554844982 24.854337061638944 63.520112521364354 470.04330853998545 363.99058759090258 732.7550615525106 426.17740551714087 57.158734556782292 837.9544372362725 465.37017396575538 352.0848321444937 1000.4208114661742 860.15409108623862 21.417638346552852 400.03394768515136 5.9718275368213645 147.09951618569903 31.434377634199336 86.910223070532084 585.6357389294426 340.27078971243463 42.206935092573985 30.783034451073036 349.84819676936604 72.976849179714918 190.21698363765609 150.88043103786185 500.04794301860966 75.213095679646358 195.98833927069791 9.7622286351397616 27.526098808739334
leaf_count=8901 1877 999 6674 14970 11016 20350 19583 17869 1001 3227 23118 9796 10140 16339 1971 11585 11964 26862 14205 8162 763 5768 263 1515 439 2178 8663 5642 1241 1962 4327 329 4333 3307 8002 2170 6366 56 624
internal_value=0 -0.00848859 -0.0133535 0.00750892 0.00309658 -0.0088101 -0.00589865 0.00696279 -8.13936e-05 -0.0286973 -0.0329151 0.014515 0.00032136 -0.0151559 -0.00291716 0.0117918 -0.017537 -0.0419233 0.00966736 0.00328314 0.00996426 0.00239277 -0.0356213 -0.00219712 0.00119452 0.000379216 -0.00159512 -0.00787458 -0.00385656 -0.023623 0.00682738 0.0243111 -0.0013633 -0.00572264 -0.00174226 -0.0147025 -0.0125723 -0.00356326 -0.00658079
internal_weight=0 6754.71 5137.25 7635.98 4685.26 3963.61 2972.08 1617.47 3203.06 1173.64 885.648 2950.72 3178.21 724.029 2248.05 1056.57 991.532 415.605 1364.41 2132.97 1482.2 427.423 27.3895 2190.89 1233.56 1202.12 1055.02 469.388 382.478 526.162 1210 218.616 922.972 1045.23 661.078 161.03 384.157 188.169 178.407
internal_count=298557 191411 160629 107146 68175 98521 64245 30782 50365 62108 53207 38971 49364 23013 41232 12913 34276 30089 24001 26962 17810 6794 1026 39261 19678 19239 17724 9061 6883 22312 12489 1328 14473 22402 12049 4047 10353 3987 3931
is_linear=0
shrinkage=0.05


Tree=15
num_leaves=40
num_cat=0
split_feature=13 1 1 17 0 8 12 12 3 1 16 11 9 2 8 4 15 15 8 15 16 16 13 2 9 6 13 0 2 5 5 16 2 1 1 6 13 5 11
split_gain=347.216 146.365 126.797 96.6792 80.2393 49.939 30.2199 23.5193 22.2443 21.7343 18.8042 18.6818 18.404 18.2449 21.9743 17.438 21.327 14.291 14.2896 13.7133 12.4605 10.918 10.876 10.7997 10.811 10.6564 14.1317 10.6359 12.7876 15.4699 10.5352 10.4402 10.5814 10.617 10.334 13.642 18.3199 10.1267 11.9758
threshold=27.500000000000004 -0.57988792657852162 0.10545676946640016 7.746449000000001 19.345099000000001 4.4833333333333343 6.026315789473685 11.34848484848485 33.500000000000007 -1.8058176040649412 19.067722708199252 15.333827160493831 48.500000000000007 1.5000000000000002 14.67543859649123 1.5000000000000002 6.5000000000000009 88.500000000000014 39.904545454545463 8.5000000000000018 20.851126270958208 25.310462302324822 111.50000000000001 7.5000000000000009 2.5000000000000004 10.909850000000002 94.500000000000014 14.345998000000003 11.500000000000002 6.5000000000000009 2.5000000000000004 41.074593501073053 10.500000000000002 -1.7853320837020872 -3.2374737262725826 11.841350000000002 31.500000000000004 7.5000000000000009 4.6706349206349218
decision_type=2 2 2 2 2 2 2 2 2 2 2 2 2 2 2 2 2 2 2 2 2 2 2 2 2 2 2 2 2 2 2 2 2 2 2 2 2 2 2
left_child=1 3 4 23 8 15 17 10 18 21 -5 22 -8 -7 19 -3 -17 30 20 -15 -2 25 -11 24 -1 -6 -27 -10 29 -29 -4 32 -13 -34 35 -22 -37 -12 -39
right_child=2 5 6 7 9 13 12 -9 27 11 37 31 -14 14 -16 16 -18 -19 -20 -21 34 -23 -24 -25 -26 26 -28 28 -30 -31 -32 -33 33 -35 -36 36 -38 38 -40
leaf_value=-0.039944793885033851 -0.0078979930304361179 0.014617849849192522 0.0099444042082631745 -0.016266786342530971 0.049820327854549144 0.021315762533836293 -0.0061864354466363318 -0.028052572420898137 -0.02209363668369093 0.011299180285754088 -0.010576264096456112 0.009422337315851053 0.009183426143626201 -0.01996393658409536 -0.028736855859279521 -0.014075346599179831 0.0052046511146706092 0.034175295231223611 -0.026327245278079066 -0.0030752829713727725 -0.048605512343217194 0.0015714238253538911 0.024303008252225287 -0.043429732609471951 -0.022424925377950024 -0.045686582665763448 0.0075338895315115164 -0.01348592283483053 -0.021258826527314367 0.0071939170008353233 0.016366730581676599 0.011659173923873788 -0.061903807801696756 -0.0015500318570605186 0.0024315563380403536 0.042567368169653785 -0.016722134023517337 0.018500009467892462 -0.0043466443551015933
leaf_weight=162.0632512193406 609.81177464476787 335.92001032968983 966.95230506081134 908.10031798644923 4.9528075614944091 40.557026218622923 283.74820532431477 249.72814921895042 231.8333637425676 682.14255294844043 390.2204333456466 291.77030367555562 621.07018316039466 174.52591825256241 172.56739481911063 180.87519240644178 692.93873483309289 92.309117408469319 63.169644381443504 386.11575828384957 22.502410371555015 1174.465007757768 210.3848844608292 290.24662811623421 192.81303008884424 35.117411132436246 19.343839581590146 199.39836299559101 154.75570269848686 165.49050440767314 1880.1931845842628 386.38066163472831 7.3861621320247641 541.23248579044593 1044.9279683135101 16.404862950788811 63.312089799321257 78.024468591436744 216.56267320842016
leaf_count=9016 10752 4432 11639 28110 48 346 10510 12208 6900 6602 10844 3191 11491 7259 8128 4160 11349 834 2634 11411 938 19919 1256 25308 7760 1323 507 4590 5174 2713 21039 4262 77 6932 15832 231 1701 1692 5439
internal_value=0 -0.0115404 0.005282 -0.0196181 0.000693521 -0.00140919 0.0123538 -0.0137859 -0.00595084 0.00578919 -0.0115492 0.00886073 0.00436349 -0.0113292 -0.013135 0.00493584 0.00121379 0.0148133 -0.00296282 -0.00833267 -0.00212278 0.000513561 0.0143644 -0.0362764 -0.0304258 -0.0203977 -0.0267834 -0.013188 -0.0092149 -0.00410686 0.0141856 0.00485656 0.00172896 -0.00236259 0.00094727 -0.0142257 -0.00452101 -0.00529337 0.00170453
internal_weight=0 4471.26 9769.06 2487.76 5924.78 1983.5 3844.27 1842.64 2571.61 3353.18 1592.91 2119.3 904.818 773.766 733.209 1209.73 873.814 2939.45 1820.13 560.642 1756.96 1233.88 892.527 645.123 354.876 59.4141 54.4613 751.478 519.645 364.889 2847.15 1226.77 840.389 548.619 1147.15 102.219 79.717 684.808 294.587
internal_count=298557 147462 151095 100377 95582 47085 55513 58293 51465 44117 46085 22320 22001 27144 26798 19941 15509 33512 32088 18670 29454 21797 7858 42084 16776 1878 1830 19377 12477 7303 32678 14462 10200 7009 18702 2870 1932 17975 7131
is_linear=0
shrinkage=0.05


Tree=16
num_leaves=40
num_cat=0
split_feature=17 1 17 1 8 17 0 8 2 8 9 10 16 13 3 3 9 1 3 3 1 2 16 3 8 16 3 1 4 2 0 11 18 1 17 2 2 14 18
split_gain=332.898 181.682 113.299 90.9354 43.5595 30.4646 26.2854 21.6244 20.7347 19.1858 17.655 17.1545 16.841 16.3685 16.1303 15.9255 15.3049 14.7767 18.1754 13.9897 13.9648 13.3696 13.486 20.8464 12.8009 12.5753 11.4707 11.467 11.4669 11.4359 12.2087 11.0685 14.3654 10.8605 11.139 11.0962 10.504 11.9037 12.3339
threshold=15.974900000000002 -0.17285412549972531 8.2118500000000019 -0.5279412269592284 3.4330357142857149 23.036999000000005 13.616699500000001 3.3484848484848491 8.5000000000000018 5.6770833333333348 5.5000000000000009 46.500000000000007 11.308678626302635 42.500000000000007 25.500000000000004 52.500000000000007 2.5000000000000004 -3.9301803112030025 31.500000000000004 9.5000000000000018 -3.0332436561584468 13.500000000000002 54.470491438935973 53.500000000000007 6.2583333333333337 45.433068230676191 69.500000000000014 0.66816213726997387 69.500000000000014 9.5000000000000018 33.628400500000005 11.001764705882358 22.995000000000005 1.2811630964279177 7.832843500000001 5.5000000000000009 13.500000000000002 39.582421181911108 18.247200000000003
decision_type=2 2 2 2 2 2 2 2 2 2 2 2 2 2 2 2 2 2 2 2 2 2 2 2 2 2 2 2 2 2 2 2 2 2 2 2 2 2 2
left_child=1 2 10 5 16 26 7 20 -8 27 24 14 -9 -11 33 -14 -3 18 25 -18 -4 -19 23 -23 -1 31 36 28 -5 -20 -31 -7 -33 34 35 -6 -2 -38 -39
right_child=3 4 6 9 11 17 8 12 -10 13 -12 -13 15 -15 -16 -17 19 21 29 -21 -22 22 -24 -25 -26 -27 -28 -29 -30 30 -32 32 -34 -35 -36 -37 37 38 -40
leaf_value=-0.027208972608395693 -3.4522891301568534e-05 -0.010443349553691519 -0.031511952875419795 0.016193808482352218 -0.0090620013231547027 -0.063839596852795083 0.0029735675210700147 -0.049002160894988211 -0.0098369582221988858 -0.0047429898875901884 -0.023630234609401918 0.0029528729978959083 -0.015467884071176219 0.010500327144841635 -0.018980870019278066 -0.038155112760082557 0.020746162284175071 0.013604832937762813 0.056516473034464602 0.0070391539570495588 -0.0026793455779565924 0.0038470441030238195 0.02151718688098074 -0.028595937469430822 -0.044482439581754372 0.056573662151786434 -0.036719384247962755 0.01899161049154308 0.0036585162163302654 -0.07281237272569549 0.031188952211264838 -0.10055588586167408 0.029974226420196561 0.0054254374754103647 -0.0036897786196567737 -0.043177091877178289 0.015411859016819809 -0.0224498224422367 -0.0045694713158606478
leaf_weight=177.38170559005812 1709.672682069242 104.89614362397697 46.677846218924969 453.38924045494059 55.208208770724013 7.1673620427027371 486.11894139228389 43.039230701746419 901.89190071425401 196.09594297281001 449.08677173842443 447.23671149347501 1050.9768216866651 1728.1608856767416 278.89555579220178 83.497130804229528 225.08939084457234 625.94542517955415 2.369730548933151 1076.0637520679156 418.69348996737972 602.78923787246458 93.089426591061056 53.945438690716401 271.30190854822285 9.3359039975330216 23.825653301202692 1209.1853322656825 305.27874690119643 20.688267088029537 3.2675327449105671 2.4773733494803336 14.13063396932557 190.56779013076448 237.19039240360144 41.943749520898564 46.529921475797892 154.23746772296727 257.40849626716226
leaf_count=9222 27104 1699 1928 4150 1615 415 7490 1913 24008 5507 22303 10599 33230 26283 11653 3989 1537 6004 32 15156 7767 7466 1058 1393 22791 136 1035 11725 2355 1452 463 81 222 6251 6402 1858 1006 4063 5196
internal_value=0 -0.00820766 -0.0150374 0.00718895 0.0018905 0.00149279 -0.0104162 -0.0146961 -0.00535037 0.012497 -0.0306388 -0.00489641 -0.0183023 0.00894692 -0.00926375 -0.0171377 0.0079292 0.0071556 -0.0172532 0.00941036 -0.00557132 0.00821013 0.00370668 0.00118212 -0.0376536 0.00740066 -0.00221547 0.0159683 0.0111498 -0.048262 -0.0586268 -0.0119082 0.0105034 -0.00410084 -0.00953061 -0.0237906 -0.00183626 -0.0085594 -0.011269
internal_weight=0 6585.76 3928.67 7518.99 2657.09 3626.88 3030.9 1642.88 1388.01 3892.11 897.77 1251.04 1177.51 1924.26 803.806 1134.47 1406.05 1435.21 59.4368 1301.15 465.371 1375.77 749.824 656.735 448.684 33.1113 2191.67 1967.85 758.668 26.3255 23.9558 23.7754 16.608 524.91 334.342 97.152 2167.85 458.176 411.646
internal_count=298557 191411 134641 107146 56770 57126 80325 48827 31498 50020 54316 38378 39132 31790 27779 37219 18392 18722 2801 16693 9695 15921 9917 8859 32013 854 38404 18230 6505 1947 1915 718 303 16126 9875 3473 37369 10265 9259
is_linear=0
shrinkage=0.05


Tree=17
num_leaves=40
num_cat=0
split_feature=13 12 1 1 0 9 17 12 2 0 1 1 10 2 8 0 13 11 7 5 16 15 3 2 16 2 8 3 4 1 0 1 16 10 16 17 11 13 13
split_gain=314.301 143.311 89.1774 74.7232 49.401 46.0158 31.4503 26.0048 20.7175 24.266 19.2737 19.0096 20.3669 18.6858 17.6154 17.3482 15.4536 14.0752 14.0338 13.2116 16.5179 13.023 12.8637 12.4412 12.567 12.0349 12.01 11.9736 11.6209 11.3105 11.2242 11.4762 10.7816 10.6221 10.4422 10.4097 9.9499 9.88587 14.7876
threshold=40.500000000000007 7.4833333333333343 -0.27511405944824213 -0.83661639690399159 19.345099000000001 8.5000000000000018 1.0000000180025095e-35 7.7573529411764719 1.5000000000000002 10.663549000000001 -1.8058176040649412 1.0025278925895693 17.500000000000004 6.5000000000000009 46.026315789473692 12.613650000000002 72.500000000000014 15.333827160493831 20.237083333333338 2.5000000000000004 37.310636230344926 88.500000000000014 4.5000000000000009 7.5000000000000009 13.137078137782078 8.5000000000000018 5.1483516483516496 14.500000000000002 14.500000000000002 0.72520142793655407 14.410250000000001 -2.3515105247497554 19.526142261288669 42.500000000000007 27.890334981048344 32.162550000000003 26.192296296296302 640.50000000000011 375.50000000000006
decision_type=2 2 2 2 2 2 2 2 2 2 2 2 2 2 2 2 2 2 2 2 2 2 2 2 2 2 2 2 2 2 2 2 2 2 2 2 2 2 2
left_child=1 3 4 5 14 18 22 21 -8 26 37 12 13 -5 30 -7 -9 25 -1 -17 23 29 -3 24 -21 28 -10 -13 -12 32 -2 -32 -4 -25 -11 -19 -26 38 -6
right_child=2 6 7 11 10 15 8 16 9 34 17 27 -14 -15 -16 19 -18 35 -20 20 -22 -23 -24 33 36 -27 -28 -29 -30 -31 31 -33 -34 -35 -36 -37 -38 -39 -40
leaf_value=-0.019890048531474865 -0.012848868707745898 0.0014628462039184341 -0.0034201930571783092 -0.0033073667722399837 0.00068585919024474837 -0.014019879902131696 0.015345796247434033 -0.011246287159351586 -0.0058664909693437574 -0.018220778907032477 -0.039315881555714804 0.013664239482749058 0.0028405252103821861 -0.023576160603769006 -0.040824870368030675 -0.021875008527225067 0.0069263136284569045 0.0030794808682166703 -0.039636894829294236 0.060435226118235201 0.037646789439412194 0.029145180546855678 -0.039377995995217213 -0.010333553625763254 0.0088141930748380035 0.012968802651030406 -0.032754066977336592 0.0023795155472643159 0.04894679667566703 0.015406577201772579 -0.010346042704157857 0.00071123140063524925 0.011003150806789042 0.0023748439125677746 -0.0057957986638926566 0.018682888142922988 -0.068575610849656285 0.083451145156934428 -0.054064330072266131
leaf_weight=308.52720608998789 354.66238444769988 20.745890809106641 148.35149858309887 372.67758838282316 1076.8475177662913 582.39211355167208 44.068795981584117 148.36715371732134 47.029591551283374 584.3072456557129 4.1267589582130304 418.14329118595924 891.04155437988811 163.63693598780083 35.344354967353866 84.897175055695698 553.11505368624057 810.22352479113033 127.01530782046029 11.675013824366031 26.519073776435107 131.00808050855994 272.95657213655068 413.72484989208169 133.77174330432899 570.68167921237182 355.2654934580496 536.86022402098752 38.717743840301409 1926.8454959997616 336.43633386364672 775.71023604460061 1023.1785522994469 272.87176285439637 237.96502121892991 123.13550482178107 4.2863609706982961 3.5655133384279898 12.475834187353028
leaf_count=14320 7585 618 1895 8763 18653 15767 598 5487 962 23285 46 5183 15484 5783 1955 3010 11366 9954 7011 64 270 1172 20871 10161 1506 4678 21266 12792 217 23193 7877 12047 9987 4481 8177 1207 94 56 716
internal_value=0 -0.00876081 0.0064141 -0.00409376 0.00129459 -0.0113098 -0.0217494 0.0118085 -0.018336 -0.0195481 0.00541377 0.00186017 -0.00179317 -0.00949165 -0.00594414 -0.00722832 0.00308271 0.00900488 -0.0256487 -0.00305489 -0.00120314 0.0137039 -0.0364932 -0.00243503 0.0106238 0.0148876 -0.0296108 0.00732047 0.0404454 0.013051 -0.00510365 -0.00263371 0.00917671 -0.0052829 -0.014625 0.005138 0.00641143 0.000330879 5.88146e-05
internal_weight=0 5910.38 8072.79 4348.04 4141.93 1965.68 1562.34 3930.87 1268.64 1224.57 2639.77 2382.36 1427.36 536.315 1502.15 1530.14 701.482 1546.89 435.543 947.746 862.849 3229.38 293.702 836.33 149.733 613.526 402.295 955.004 42.8445 3098.38 1466.81 1112.15 1171.53 686.597 822.272 933.359 138.058 1092.89 1089.32
internal_count=298557 180466 118091 104689 64991 56684 75777 53100 54288 53690 35527 48005 30030 14546 29464 35353 16853 16102 21331 19586 16576 36247 21489 16306 1664 4941 22228 17975 263 35075 27509 19924 11882 14642 31462 11161 1600 19425 19369
is_linear=0
shrinkage=0.05


Tree=18
num_leaves=40
num_cat=0
split_feature=17 1 17 1 2 16 10 12 9 2 3 12 14 10 3 12 10 3 3 3 1 3 16 6 3 14 4 16 1 1 16 4 12 1 2 8 16 15 8
split_gain=294.664 165.429 108.106 83.0844 33.4968 31.5475 25.3072 21.3172 20.4235 19.3076 17.592 16.277 16.014 15.1519 14.8457 14.4085 13.3628 13.3537 12.7451 12.0443 11.9002 15.2576 11.4399 12.5319 11.3902 11.5415 11.3092 11.0566 11.7267 16.4109 11.0042 16.3539 10.652 10.5212 13.9672 10.9171 10.3514 9.84175 9.46454
threshold=15.974900000000002 0.81236991286277782 8.2118500000000019 -0.5279412269592284 10.500000000000002 39.796635721509581 17.500000000000004 2.8090909090909095 2.5000000000000004 7.5000000000000009 21.500000000000004 7.6770833333333348 77.815122168447843 101.50000000000001 20.500000000000004 3.6125000000000003 77.500000000000014 49.500000000000007 56.500000000000007 12.500000000000002 -4.4261441230773917 23.500000000000004 39.00796533105509 13.013350000000001 9.5000000000000018 150.92633417420473 36.500000000000007 31.499507723431879 -2.4851510524749751 -2.577101349830627 21.052987798151875 25.500000000000004 7.4083333333333341 -1.8658583164215086 5.5000000000000009 9.3416666666666686 12.419444266733246 88.500000000000014 4.2071428571428582
decision_type=2 2 2 2 2 2 2 2 2 2 2 2 2 2 2 2 2 2 2 2 2 2 2 2 2 2 2 2 2 2 2 2 2 2 2 2 2 2 2
left_child=1 2 8 5 6 11 15 24 14 19 37 20 -11 -12 -1 -4 17 -6 30 -10 21 26 23 -13 -3 -26 -2 -22 29 38 31 -8 -30 34 36 -35 -33 -5 -29
right_child=3 7 4 10 16 -7 18 -9 9 12 13 22 -14 -15 -16 -17 -18 -19 -20 -21 27 -23 -24 -25 25 -27 -28 28 32 -31 -32 33 -34 35 -36 -37 -38 -39 -40
leaf_value=-0.024829783523534293 0.032312512604703851 0.021037997534972593 -0.0070358716810144887 0.015368659250671499 -0.017991028457753324 0.010317885134568102 0.0077394438851991557 -0.0016112537582435864 0.0074809342749957751 -0.037690693512253806 0.0036074940193184211 -0.022703709971773657 -0.012843347861812566 0.012107058171687068 -0.044896484996625088 -0.021151513169335404 -0.0050903926782335735 -0.047554804512924896 -0.028778825327755844 -0.017518410003419079 -0.00082504882044169819 -0.047867423419299643 -0.041432920017107154 -0.0037071086467648515 0.0068679370267278623 0.040235906385377052 -0.07490942539947848 -0.045462852895409522 0.009465276471721103 -0.064618896949301285 0.0023931905088314131 -0.087009448646422252 0.043232193038885119 -0.0018266680034132205 -0.021426843406132205 -0.01695760873698373 0.0099674133741643241 0.043589321669989294 0.0031198539633107963
leaf_weight=170.04134163219715 13.645792928757148 212.62028774200007 383.29595251544379 1543.7567519591539 702.68547865364235 761.03423850098625 207.36234650120605 532.76959211943904 55.804562571109273 225.71871282882057 816.87630113761406 100.54071672004648 90.983730944397394 1464.1792235728353 201.26449925743509 342.16639966121875 201.83834200247657 40.391958092455752 46.439439557259902 352.61223179619992 1365.2467201809632 27.014637258136645 23.92318687075749 636.03597903996706 763.27089084178442 26.825348164420575 2.9998991265892974 10.73011605395004 444.15063963108696 10.480118547566233 780.7336686825729 2.8872388092568135 24.651870866771787 648.16844317977666 228.5789328898536 146.0768348746351 58.618073096498847 31.525166147388518 152.51205401448533
leaf_count=9568 368 1328 9631 15639 26846 9157 3162 17869 1313 16355 17234 3431 4597 16921 16957 14411 4779 2651 1922 13318 20808 1835 563 12747 11367 218 139 270 4960 204 14186 84 220 9727 6113 4216 793 226 2424
internal_value=0 -0.00784457 -0.0123437 0.00678007 -0.00834293 0.00128683 -0.00563335 0.00647099 -0.0261704 -0.0212872 0.0118697 -0.00115738 -0.0305524 0.00906325 -0.0357068 -0.0136936 -0.0164991 -0.019598 -0.00287368 -0.0141026 0.00115882 -0.0246657 -0.00740527 -0.00630009 0.0107653 0.00800085 0.0129889 0.00172039 0.00712897 -0.00396737 -0.00229319 -0.00512576 0.0112409 -0.00758605 -0.0157357 -0.00460954 0.00541504 0.0159334 -7.35493e-05
internal_weight=0 6421.15 4885.67 7429.3 3789.24 3572.97 2844.33 1535.49 1096.43 725.119 3856.34 2811.93 316.702 2281.06 371.306 725.462 944.916 743.077 2118.86 408.417 2051.43 43.6603 760.5 736.577 1002.72 790.096 16.6457 2007.77 642.525 173.722 2072.43 1291.69 468.803 1084.33 290.084 794.245 61.5053 1575.28 163.242
internal_count=298557 191411 160629 107146 98521 57126 64245 30782 62108 35583 50020 47969 20952 34155 26525 24042 34276 29497 40203 14631 31228 2342 16741 16178 12913 11585 507 28886 8078 2898 38281 24095 5180 20933 6990 13943 877 15865 2694
is_linear=0
shrinkage=0.05


Tree=19
num_leaves=40
num_cat=0
split_feature=13 1 1 17 17 8 12 17 0 4 15 17 2 1 12 2 8 13 4 5 8 8 2 8 3 2 16 10 1 17 5 15 0 4 6 17 3 1 13
split_gain=281.496 122.079 107.903 71.4432 65.9296 32.6988 23.5416 17.9644 17.2592 16.9435 17.4791 16.4707 16.6621 16.1032 14.6428 13.8178 17.8934 13.7837 13.2919 12.5004 12.1739 11.5359 11.3471 10.9263 10.3574 10.2594 11.4847 11.8439 10.1871 10.1209 10.2254 10.0088 9.99968 9.90974 9.68776 10.1551 9.68082 9.56604 9.36466
threshold=27.500000000000004 -0.57988792657852162 -0.12519258260726926 7.746449000000001 17.800350500000004 4.4833333333333343 7.7573529411764719 23.365050500000002 12.547500000000001 1.5000000000000002 6.5000000000000009 26.877398500000002 13.500000000000002 -2.9255383014678951 3.1742424242424243 1.5000000000000002 14.67543859649123 69.500000000000014 189.50000000000003 3.5000000000000004 50.702941176470596 6.8397435897435903 6.5000000000000009 25.074175824175828 37.500000000000007 15.500000000000002 54.470491438935973 121.50000000000001 3.0477068424224858 11.611950000000002 7.5000000000000009 8.5000000000000018 17.032300000000003 172.50000000000003 8.3232995000000027 14.396550000000001 30.500000000000004 -0.93445408344268788 14.500000000000002
decision_type=2 2 2 2 2 2 2 2 2 2 2 2 2 2 2 2 2 2 2 2 2 2 2 2 2 2 2 2 2 2 2 2 2 2 2 2 2 2 2
left_child=1 3 4 -1 13 9 7 14 21 -3 -11 12 19 18 -4 -7 31 -8 -2 23 -15 -5 -10 32 -16 36 33 -28 -9 -24 -31 -17 -6 -27 35 -32 -13 -14 -23
right_child=2 5 6 8 11 15 17 28 22 10 -12 25 37 20 24 16 -18 -19 -20 -21 -22 38 29 -25 -26 26 27 -29 -30 30 34 -33 -34 -35 -36 -37 -38 -39 -40
leaf_value=-0.033174217220297245 -0.020752114970714143 0.013665426029624922 0.013726157716627463 -0.01279553463234699 -0.032209457000781712 0.019122651926470599 -0.0094438195766494912 0.016686613214241124 0.0064186006874272826 -0.014265099393363241 0.0038154781841166704 0.02455921562470053 -0.0080723778578565639 -0.0042566777839425788 0.0072815159657155419 -0.017187485115630421 -0.025990175167147946 0.006599555471074452 0.01103893629014111 0.0071135476242211622 -0.029151530551767481 -0.029781576594892962 -0.035494471016931636 -0.054162617933231932 -0.012001866828796413 0.0030081705955879506 -0.056361104347908246 0.022505552588779894 0.036031462111108525 -0.014670139577970127 -0.012216490553779798 -0.0022577587326719039 0.00051561828821684321 -0.025254740239763415 -0.0072871306574824133 0.026381374430172272 0.0095527734417660878 0.0055940249395297487 -0.014064680070527727
leaf_weight=599.46248383712373 286.25182734814007 325.17633050057339 1341.3103935224935 478.52955944102723 25.294031016528606 39.765941861085594 182.36849926953437 934.84507329831831 115.35099636740051 166.82822905629291 672.52963175636251 184.95904716663063 474.2204253898235 1720.39350686752 1069.3794287180644 161.30553398138727 157.48963558618561 503.53204157348955 37.145524968625978 1387.5470680411672 50.550580677809194 266.69553969928529 38.201992174610496 10.359369240235536 74.484719911124557 249.90310183074325 4.9962166426703325 100.87127956654876 73.398527901386842 382.51075733208563 26.01420150604099 369.19334191878443 302.70395559072495 35.409300891100429 259.90570116345771 49.404025360476226 256.53399621974677 175.40757811022922 147.02414665999822
leaf_count=42084 10026 4432 14029 13842 651 346 7388 8956 1987 4160 11349 1408 9167 32847 17539 7259 8128 11073 1151 15245 2598 13402 1885 335 1611 3564 96 1037 742 12593 874 11411 5329 715 7376 800 3518 2070 5534
internal_value=0 -0.010684 0.00479489 -0.0182623 5.95697e-05 -0.00122014 0.0108029 0.0124657 -0.0131937 0.00397573 0.000221837 0.00456422 0.00244316 -0.00684085 0.0101819 -0.00953445 -0.0111908 0.00233391 -0.0171006 0.00501225 -0.00496729 -0.0180818 -0.00818864 -0.00360482 0.00602584 0.0106154 0.00471924 0.0187836 0.0180949 -0.0104173 -0.00908274 -0.00679735 -0.00200802 -0.000499458 -0.00270909 0.0130677 0.0158396 -0.00438228 -0.0241962
internal_weight=0 4255.39 9481.87 2363.1 5302.55 1892.29 4179.32 3493.42 1763.64 1164.53 839.358 3208.21 2375.53 2094.34 2485.17 727.754 687.989 685.901 323.397 1725.9 1770.94 892.249 871.388 338.357 1143.86 832.673 391.18 105.867 1008.24 756.037 717.835 530.499 327.998 285.312 335.324 75.4182 441.493 649.628 413.72
internal_count=298557 147462 151095 100377 89757 47085 61338 42877 58293 19941 15509 43135 32797 46622 33179 27144 26798 18461 11177 21560 35445 32778 25515 6315 19150 10338 5412 1133 9698 23528 21643 18670 5980 4279 9050 1674 4926 11237 18936
is_linear=0
shrinkage=0.05


Tree=20
num_leaves=40
num_cat=0
split_feature=17 1 9 1 2 16 7 2 0 8 1 17 0 17 3 16 5 9 2 17 1 3 12 10 10 10 3 1 5 14 14 3 6 17 4 16 12 15 7
split_gain=267.211 148.355 88.9889 77.557 31.8721 30.8824 25.9585 25.3876 19.3161 18.8232 18.7421 18.4959 15.8394 15.6913 15.1134 13.5964 12.743 12.6895 12.6201 16.423 11.7522 11.1629 11.1333 10.4952 10.3868 10.2313 9.9852 9.95589 10.512 9.8996 9.49467 9.88495 9.4864 9.4322 11.8744 10.5329 12.4616 9.93194 9.16075
threshold=15.974900000000002 0.18394848704338077 8.5000000000000018 -0.93445408344268788 10.500000000000002 37.012565688880947 19.600925925925932 8.5000000000000018 12.613650000000002 5.6770833333333348 1.4795586466789248 6.6203995000000004 11.400850000000002 23.365050500000002 74.500000000000014 35.150858022929548 2.5000000000000004 2.5000000000000004 13.500000000000002 24.479049500000006 0.63918969035148632 12.500000000000002 11.449494949494952 38.500000000000007 75.500000000000014 242.50000000000003 9.5000000000000018 -1.2137597799301145 8.5000000000000018 96.197886529122414 76.496010019203979 6.5000000000000009 7.4820000000000011 17.800350500000004 30.500000000000004 22.969230669313848 1.0625000000000002 58.500000000000007 18.429029304029307
decision_type=2 2 2 2 2 2 2 2 2 2 2 2 2 2 2 2 2 2 2 2 2 2 2 2 2 2 2 2 2 2 2 2 2 2 2 2 2 2 2
left_child=1 2 6 5 8 14 17 10 27 13 11 -3 -6 20 16 -11 22 -1 19 33 -5 -8 29 -9 -14 -17 -13 30 -29 -2 -4 -32 -20 -18 38 36 -36 -37 -35
right_child=3 7 4 9 12 -7 21 23 -10 15 -12 26 24 -15 -16 25 18 -19 32 -21 -22 -23 -24 -25 -26 -27 -28 28 -30 -31 31 -33 -34 34 35 37 -38 -39 -40
leaf_value=-0.031270456399582043 -0.022283235409417443 -0.014798418500814104 -0.01242183858593502 0.0058642808302765623 -0.032003554388414041 0.0083901131107185171 -0.014110165293643426 -0.015477375296028585 -0.0015960843508008697 0.0038234395040695709 0.011936348037718343 0.019093738305117319 -0.017940857753421895 0.020696422241670915 -0.048743164307746598 0.0088258571840117549 -0.0075534460073478863 -0.013577178272326185 0.023213887102227673 0.017667223768750729 0.014984984113636078 -0.037547893413706603 -0.049993265936355037 -0.00039362795532542534 -0.0047392348293166285 0.020155602019062049 0.0022327549373952348 -0.0084992495751715479 0.012713385238717401 -0.00079498964839487367 0.074804074986463492 -0.032516812235072863 -0.0096667575083029741 0.0098575501188392662 0.042590973509899384 -0.0010885604880244704 -0.027064046930294152 0.020058820844316462 0.05509448165655139
leaf_weight=139.60714588133851 95.589905304717831 150.47113880544202 504.91449707356514 592.24402623740025 148.87366131477756 844.00471449433826 57.867733376566321 214.4564387468854 1212.6160639395821 1164.8407827083429 723.14583062333986 99.703706796746701 510.76457476706128 637.93633561301976 17.830026092939079 804.79875064676162 346.81714495224878 369.66663795144996 23.030884778592736 137.4972052432131 874.97955694922712 416.09713097050553 19.157605930930004 249.47258145760861 210.3542341805296 264.8383183539845 735.91431239119265 383.83425947252545 68.884057955583557 122.01432398473844 2.1984693175181738 89.198357791290618 461.49499809276313 206.30820877396036 7.1771987341344348 572.04267592390534 60.950788660906255 61.48953111609444 11.833313926123081
leaf_count=9363 3546 3696 15317 6124 8278 11301 3032 7368 23645 21453 13678 800 20434 4778 928 12325 7097 15938 359 1150 9179 29725 929 6787 5567 2764 14516 9558 1125 3123 10 2574 10320 2625 54 7210 1182 613 86
internal_value=0 -0.00756121 -0.0131425 0.00648915 -0.00902241 0.000288849 -0.0262649 0.00300686 -0.00589392 0.0107572 0.00582238 0.00133872 -0.0171553 0.0141498 -0.00290143 0.00756092 -0.00251686 -0.0184274 -0.00114608 0.00125487 0.0113034 -0.0346863 -0.0134515 -0.00736626 -0.0140899 0.0116311 0.00424456 -0.010862 -0.00527161 -0.0102344 -0.0151061 -0.0299353 -0.00810385 -0.000526763 0.00212269 -0.00104493 -0.019726 0.000963967 0.0123115
internal_weight=0 6288.04 4114.88 7326.88 3131.64 2987.24 983.239 2173.16 2261.65 4339.64 1709.23 986.089 869.992 2105.16 2143.23 2234.48 2125.4 509.274 1888.64 1404.12 1467.22 473.965 236.762 463.929 721.119 1069.64 835.618 1049.03 452.718 217.604 596.311 91.3968 484.526 1266.62 919.802 701.66 68.128 633.532 218.142
internal_count=298557 191411 144566 107146 86508 50523 58058 46845 52229 56623 32690 19012 34279 20081 39222 36542 38294 25301 30696 20017 15303 32757 7598 14155 26001 15089 15316 28584 10683 6669 17901 2584 10679 18867 11770 9059 1236 7823 2711
is_linear=0
shrinkage=0.05


Tree=21
num_leaves=40
num_cat=0
split_feature=13 1 17 1 17 12 1 9 0 2 12 8 15 14 5 13 1 14 14 11 18 16 3 13 1 16 12 1 8 2 6 7 3 18 2 11 14 0 17
split_gain=260.405 118.91 81.6025 79.0995 45.1071 35.3971 25.6078 21.5658 18.6372 16.1889 15.9275 14.5198 14.5022 14.2232 14.1809 13.2448 12.5773 21.7069 13.8784 12.5443 12.5199 12.1624 11.8229 12.9151 15.924 11.6739 11.5718 11.199 11.1125 10.6148 11.1717 11.7701 10.6103 10.5798 10.4245 9.93744 10.9509 9.90854 9.86598
threshold=40.500000000000007 -0.8611391782760619 8.6464500000000015 0.66816213726997387 23.036999000000005 2.4083333333333337 -1.5396937131881712 11.500000000000002 12.613650000000002 1.5000000000000002 6.026315789473685 21.00793650793651 89.500000000000014 78.462072718259336 6.5000000000000009 6.5000000000000009 -1.8058176040649412 88.920325833982517 108.91648417196556 7.1675925925925936 4.3172500000000005 30.179921660762925 31.500000000000004 110.50000000000001 -3.97673487663269 36.386659376006257 3.035714285714286 1.1004859805107119 51.809090909090919 6.5000000000000009 8.3767500000000013 28.842822314049592 26.500000000000004 32.499250500000009 23.500000000000004 13.333484848484849 140.69090819999641 14.478997500000002 14.262550000000003
decision_type=2 2 2 2 2 2 2 2 2 2 2 2 2 2 2 2 2 2 2 2 2 2 2 2 2 2 2 2 2 2 2 2 2 2 2 2 2 2 2
left_child=1 2 20 4 6 27 28 9 13 -7 12 21 -5 15 -10 -4 17 33 34 26 -1 32 -20 -24 -25 29 -8 -3 -2 -16 31 -31 -9 -6 -19 36 -32 -22 -21
right_child=3 5 8 10 16 7 19 11 14 -11 -12 -13 -14 -15 25 -17 -18 18 22 38 37 -23 23 24 -26 -27 -28 -29 -30 30 35 -33 -34 -35 -36 -37 -38 -39 -40
leaf_value=-0.036081453053087388 -0.0052827042607914284 0.0011429634426935002 -0.026138148994590906 0.014821269550973482 -0.028897380840803028 0.015329770767646789 0.030831089357559828 0.0022610899601992708 -0.012903772683474838 -0.017369524012782731 0.0056026468883334174 -0.020305315830984966 0.038808595346793102 -0.040691852954754783 0.014717765756954358 -0.010720214513613244 0.011228962789632334 0.026687326820707593 0.012636749878311022 -0.0046748214802909789 -0.024369326460198987 0.015607259153917322 -0.025354308594961929 -0.065815604330127273 0.005006861858351406 0.02241230239079527 0.0015076309846676721 0.010483168211757217 -0.034537244150589064 0.0024752166241351187 -0.0048949276723256625 0.051850249937965665 -0.009995511568208576 0.028679545089672832 -0.087446172363450092 -0.016991873241204467 0.052889823540977557 0.026121629001526959 0.0036782737379504487
leaf_weight=380.55828833604755 1389.5379619013984 738.77148265545839 187.76808829832589 1800.9513370031491 68.435706544434652 41.311193926958367 73.636285056360066 502.89315622695722 576.93772063055076 451.9570169277722 498.82825408948702 95.845749064639676 65.294517478905618 56.741994598414749 68.338852470275015 539.56548177817604 1393.7824792417232 87.601760205347091 165.2325365873985 462.63284681097139 330.61582073991303 111.67241446819389 57.719468895345926 8.3157518545631302 174.20990567933768 44.004789206665009 61.948208797723055 567.41617325227708 33.237733715912327 95.854225527960807 348.24626472510863 13.808683886192737 272.12234155237093 9.0314484564587456 2.0473924661055198 222.92737791192485 8.3967437623068673 10.011002157465553 1498.4858695555013
leaf_count=29499 27782 12917 8271 20369 1473 427 531 12090 16534 19679 13236 4421 526 2144 831 17596 12932 976 1833 9568 18118 2780 1547 1043 2823 664 720 7768 1846 2189 8387 110 8467 125 57 7075 93 406 20704
internal_value=0 -0.00816941 -0.0152839 0.0058956 0.00260029 -0.000794565 -0.000788657 -0.00610053 -0.0104268 -0.014631 0.0135392 -0.00181795 0.0156605 -0.0165814 -0.00692621 -0.0147005 0.00866592 0.00242708 0.00627783 0.00272466 -0.0298488 0.00018043 0.00234169 -0.0047389 0.00178024 -0.00262383 0.0174333 0.00520041 -0.00596613 -0.0040781 -0.00594174 0.00869249 -0.00204243 -0.0221848 0.0240808 -0.00871075 -0.00353445 -0.0228854 0.00170776
internal_weight=0 5665.76 2883.78 7850.93 5485.86 2781.99 3519.48 1475.8 2162.59 493.268 2365.07 982.534 1866.25 784.076 1378.51 727.334 1966.38 572.594 495.127 2096.7 721.185 886.688 405.478 240.245 182.526 801.577 135.584 1306.19 1422.78 757.572 689.233 109.663 775.015 77.4672 89.6492 579.57 356.643 340.627 1961.12
internal_count=298557 180466 111917 118091 83960 68549 61151 47864 63894 20106 34131 27758 20895 28011 35883 25867 22809 9877 8279 31523 48023 23337 7246 5413 3866 19349 1251 20685 29628 18685 17854 2299 20557 1598 1033 15555 8480 18524 30272
is_linear=0
shrinkage=0.05


Tree=22
num_leaves=40
num_cat=0
split_feature=17 1 17 1 16 1 8 6 9 8 8 17 17 1 5 13 12 8 9 4 3 15 3 6 17 14 5 2 8 12 18 14 4 8 4 12 12 15 8
