tree
version=v3
num_class=1
num_tree_per_iteration=1
label_index=0
max_feature_idx=18
objective=lambdarank
feature_names=Column_0 Column_1 Column_2 Column_3 Column_4 Column_5 Column_6 Column_7 Column_8 Column_9 Column_10 Column_11 Column_12 Column_13 Column_14 Column_15 Column_16 Column_17 Column_18
feature_infos=[0:131.99049400000001] none [1:72] [1:1022] [1:1076] [0:9] [0:113.589401] [0.5:1000] [0.25:1000] [0:4639] [0:9163] [0.40000000000000002:1000] [0.25:1000] [0:1220] [0:4796.4805654814272] [0:3585] [0:137.51606351093679] [0:135.591095] [0:135.591095]
tree_sizes=5532 5546 5550 5543 5535 5552 5559 5578 5541 5543 5554 5557 5561 5541 5548 5552 5533 5551 5554 5536 5558 5548 5547 5528 5556 5522 5541 5567 5559 5513 5545 5538 5544 5545 5549 5550 5546 5530 5536 5511 5556 5505 5534 5550 5534 5529 5529 5546 5536 5535 5508 5530 5521 5502 5513 5550 5536 5509 5559 5557 5529 5523 5495 5502 5492 5511 5533 5514 5484 5527 5537 5519 5543 5543 5493 5535 5522 5479 5490 5519 5513 5527 5523 5520 5495 5482 5480 5480 5499 5508 5485 5529 5510 5501 5483 5510 5517 5486 5534 5495 5516 5513 5504 5504 5476 5526 5498 5504 5496 5503 5452 5502 5495 5461 5474 5513 5502 5473 5482 5501 5463 5466 5458 5496 5487 5449 5492 5511 5482 5506 5511 5493 5454 5455 5506 5442 5478 5442 5462 5497 5459 5441 5438 5473 5449 5437 5468 5479 5440 5459 5435 5414 5471 5495 5471 5468 5460 5472 5497 5454 5421 5483 5439 5494 5454 5485 5439 5453 5497 5439

Tree=0
num_leaves=50
num_cat=0
split_feature=17 17 12 12 2 10 2 13 2 8 2 9 10 17 10 13 2 3 3 8 3 12 2 5 3 3 2 16 10 3 3 3 10 3 9 9 2 8 8 17 8 10 7 2 9 8 16 13 8
split_gain=1468.1 392.901 212.152 158.066 100.114 76.1602 62.3639 61.6278 53.0587 50.0879 41.8513 40.2435 38.6347 38.1061 34.4026 29.887 26.9071 25.3377 23.203 22.3905 21.3085 20.9851 20.7951 20.2758 18.6765 18.3337 16.909 16.1014 15.6411 14.3627 13.898 13.6287 13.4487 12.4542 12.1559 11.9173 11.8542 11.678 11.5663 11.3533 11.0766 10.768 10.3583 10.1268 10.9871 10.1021 10.0448 9.92591 10.5015
threshold=8.4365500000000022 17.800350500000004 5.8944444444444457 1.8090909090909093 8.5000000000000018 26.500000000000004 7.5000000000000009 20.500000000000004 5.5000000000000009 10.836666666666668 12.500000000000002 25.500000000000004 16.500000000000004 4.5353500000000011 53.500000000000007 29.500000000000004 8.5000000000000018 21.500000000000004 21.500000000000004 3.3484848484848491 19.500000000000004 18.861904761904764 3.5000000000000004 6.5000000000000009 26.500000000000004 30.500000000000004 13.500000000000002 39.796635721509581 43.500000000000007 31.500000000000004 25.500000000000004 25.500000000000004 11.500000000000002 31.500000000000004 3.5000000000000004 29.500000000000004 6.5000000000000009 62.031250000000007 12.289915966386557 6.5097460000000007 3.1742424242424243 20.500000000000004 22.953434343434353 2.5000000000000004 2.5000000000000004 49.63068181818182 19.43724889754056 13.500000000000002 72.71825396825399
decision_type=2 2 2 2 2 2 2 2 2 2 2 2 2 2 2 2 2 2 2 2 2 2 2 2 2 2 2 2 2 2 2 2 2 2 2 2 2 2 2 2 2 2 2 2 2 2 2 2 2
left_child=3 2 4 8 12 16 13 17 43 14 21 20 19 22 41 -11 23 -6 47 36 -8 24 -5 31 -7 -16 -27 29 42 -17 45 -4 -24 -18 -20 -19 -2 -13 -36 -10 -14 -3 -9 -1 -45 -12 -21 48 -15
right_child=1 9 5 6 7 10 11 28 39 15 30 37 40 18 25 27 33 35 34 46 -22 -23 32 -25 -26 26 -28 -29 -30 -31 -32 -33 -34 -35 38 -37 -38 -39 -40 -41 -42 -43 -44 44 -46 -47 -48 -49 -50
leaf_value=0.032494555070094938 0.026584219391127834 -0.0051828700396804794 -0.0047533399934769531 -0.030667750833305786 0.00015658154291849346 0.016787010261130077 -0.047440129665099064 0.010188085534698124 -0.048543734431686747 -0.013710473862981602 0.00072390367854621978 -0.024938019863106717 0.036926912675492585 -0.021324008791147177 0.043486257951071215 0.02514432613956006 -0.025396958845290214 -0.028992974673009826 -0.051065217056259743 -0.013410120602264576 -0.067643490338819792 -0.014626927514064079 -0.065436894287137753 0.0034745647118707371 -0.00068571399257664404 0.037061177660803503 0.016163546441805943 0.030846831093096584 0.020843358625544733 0.007215676813752965 -0.029796888125832657 -0.034232225605887026 -0.033583077884314604 -0.043933196619464925 -0.014265173534048187 0.0031642794835811238 -0.0032155610896782583 -0.067925608260915302 -0.038731150185265691 -0.015647175161925209 0.024358124679178833 0.023383666047952407 -0.013178002702564385 -0.027522605750229818 0.014144221098102865 -0.063304901472158434 0.017254058086449864 0.014336422186523201 0.049955077892453528
leaf_weight=53.524605410115328 157.80065893214487 36.594616245478392 60.12466045707697 97.484997229534201 193.64608048589434 265.75586884502263 182.39419504248508 152.47873823242116 50.148382223960652 67.590054967644392 75.836292865045834 109.20473375509027 316.89742879202822 84.623753685475094 655.06017324737513 203.89591629945789 199.17159091623034 198.73415030769502 76.587188183970284 106.0783167379559 458.80280116749054 140.88136525092705 159.21876579980017 110.12875856232858 360.26136892670729 299.84979975377792 142.94167234792258 265.23661463917961 270.45696058738758 247.06697730129963 157.82903360729688 112.70059347666393 41.844204797671409 166.26206276199082 88.956089164239529 33.696242490463192 42.323138846550137 18.470869321725331 105.71412678372144 54.985221425944474 392.27548717881291 334.74469420067726 68.845941230654716 20.103539224364795 74.273715262286714 6.7049356043571597 35.692938133899588 35.205435126576049 5.5034005376510313
leaf_count=2226 6119 1338 2051 3250 7145 9940 8571 6167 2285 2907 2916 4274 12194 3338 23687 7482 7564 8174 3264 4292 21573 5341 6544 4387 13820 11652 5612 9512 10865 10173 6871 4470 1352 7644 3627 1449 1469 889 3622 2173 15171 11357 3029 646 3085 299 1248 1300 193
internal_value=0 0.011882 0.00168989 -0.0406727 0.0127825 -0.0115016 -0.0469797 0.000717428 -0.00418223 0.0282789 -0.00289776 -0.056792 0.0233185 -0.0361265 0.0337242 0.0180719 -0.0248677 -0.0132017 -0.0259694 0.00951239 -0.0618965 0.00280813 -0.0496191 -0.0132924 0.00673178 0.038174 0.030315 0.0210713 0.0127769 0.0153218 -0.0211023 -0.0239767 -0.0588076 -0.0338304 -0.0341902 -0.024331 0.020282 -0.031157 -0.0275512 -0.0313387 0.0299745 0.0205685 0.00291976 0.0151215 0.00526866 -0.00447724 -0.00568998 -0.00817724 -0.0169715
internal_weight=0 5877.56 3624.58 1717.05 1968.93 1655.66 1464.01 917.858 253.035 2252.98 1007.27 768.873 1051.07 695.138 1469.19 783.79 648.388 426.076 396.59 341.895 641.197 766.899 298.548 282.954 626.017 1097.85 442.791 716.2 491.782 450.963 240.37 172.825 201.063 365.434 271.257 232.43 200.124 127.676 194.67 105.134 709.173 371.339 221.325 147.902 94.3773 82.5412 141.771 125.333 90.1272
internal_count=298557 226345 142625 72212 77322 65303 61797 36829 10415 83720 39187 35307 40493 26490 53646 30074 26116 16768 15344 13128 30144 29101 11146 10908 23760 40951 17264 27167 20061 17655 10086 6521 7896 15208 10513 9623 7588 5163 7249 4458 27365 12695 9196 5957 3731 3215 5540 4831 3531
is_linear=0
shrinkage=0.05


Tree=1
num_leaves=50
num_cat=0
split_feature=17 8 0 10 8 2 2 2 2 3 17 10 16 3 2 17 3 2 17 13 3 10 3 10 12 10 3 17 15 4 12 14 2 3 5 17 12 2 10 11 2 8 16 3 16 12 0 0 6
split_gain=1219.59 392.461 250.4 206.455 181.599 99.0639 85.8575 76.7601 66.642 65.5496 56.5004 52.981 49.6348 48.9577 46.8347 44.5528 43.8805 43.5102 40.3554 40.0596 39.8404 36.3961 35.1732 37.4081 31.1478 31.0944 30.4425 30.2254 29.6805 32.3728 28.2965 24.0703 22.264 21.9647 24.6925 21.5944 21.2818 20.4042 20.1448 21.8143 19.6692 23.8733 18.9723 18.212 17.7675 17.2033 17.02 16.8968 18.2356
threshold=11.811150000000001 3.3484848484848491 20.526099000000002 11.500000000000002 7.5166666666666675 6.5000000000000009 9.5000000000000018 5.5000000000000009 8.5000000000000018 32.500000000000007 23.036999000000005 43.500000000000007 10.795623033145839 21.500000000000004 12.500000000000002 7.3975000000000009 20.500000000000004 12.500000000000002 10.177800000000001 27.500000000000004 84.500000000000014 46.500000000000007 13.500000000000002 70.500000000000014 12.513157894736844 120.50000000000001 53.500000000000007 15.748699500000003 9.5000000000000018 20.500000000000004 1.5277777777777779 63.757023669141169 1.5000000000000002 18.500000000000004 5.5000000000000009 6.826950000000001 5.0277777777777786 9.5000000000000018 108.50000000000001 8.1696969696969717 13.500000000000002 8.2899159663865571 25.439142096808339 19.500000000000004 17.444942373969411 6.7596153846153859 11.469350000000002 24.028900500000002 13.719650000000001
decision_type=2 2 2 2 2 2 2 2 2 2 2 2 2 2 2 2 2 2 2 2 2 2 2 2 2 2 2 2 2 2 2 2 2 2 2 2 2 2 2 2 2 2 2 2 2 2 2 2 2
left_child=1 5 4 7 6 16 22 13 33 21 17 -8 -7 32 36 -9 28 -4 31 24 27 -6 -2 -24 -10 -16 -27 37 29 -1 -30 -18 -3 -5 45 -34 -12 -11 39 47 -23 -42 -13 -40 -14 -35 -36 48 -19
right_child=2 3 10 8 9 12 11 15 19 20 14 42 44 -15 25 -17 18 38 -20 -21 -22 40 23 -25 -26 26 -28 -29 30 -31 -32 -33 35 34 46 -37 -38 -39 43 -41 41 -43 -44 -45 -46 -47 -48 -49 -50
leaf_value=0.014295251882377003 0.027247369542719752 0.016824322788127018 0.014720334544664425 -0.00034933118270263436 -0.010615084014270512 -0.0492691061654646 -0.012898959083378471 -0.062941021605153399 -0.029792384475868364 -0.013185667258030668 0.032808908872928456 -6.9175711774814287e-05 -0.0091841936025730819 -0.042409530275173218 0.00713197057818943 -0.039223741705180754 -0.01769880323635814 0.0013588836858245145 0.011285614127712576 -0.019135241888299764 -0.071197457183680826 0.0068993827737288725 0.0073628481014445055 0.020908125364389823 -0.055026305209555183 0.022678534681051001 -0.0010389544365047496 -0.0081067197087295838 0.028968215646598006 -0.013922254575201659 -0.0042172924042343197 0.0073056990363904901 -0.032903975586424675 -0.015643587508973184 -0.014078965795618473 0.0042658075900206668 0.019604123663824597 -0.033874615835458526 0.031300786486960476 -0.010344368329987039 -0.055213252039785346 -0.003742124533370575 0.012078262747786296 0.0043785921204142556 -0.044285956161891835 -0.036404791571772087 0.0074923261922874643 -0.048376428988238018 0.042030221900293437
leaf_weight=248.94810992956627 410.67113551014336 51.315654252655804 1854.1337006603717 318.2672238254745 708.10178943863139 122.69122391496785 563.97138991735119 521.18898405064829 361.30265263351612 214.22783552056353 768.43759901440353 706.20072395046009 349.59941299480852 324.29299641076068 735.99607468745671 319.32692178103025 433.0814907180611 62.419563113711774 274.40373681322671 540.75185557887016 32.763283350039274 941.72381380011211 1699.579870321526 728.07412210555049 184.8634337966505 1174.2290439025383 152.91412586893421 636.79232311752276 304.68857606512029 171.78164906310849 81.395911924773827 123.74798173294403 117.99096088740043 231.06037510622991 295.44416710943915 58.423097108199727 506.08736119227251 268.59163438534597 81.054902940872125 412.98193818784785 25.537352124694735 191.18072824925184 589.95704533299431 279.17592489079107 40.195230598561466 175.62062536898884 132.43072989323991 10.047080081887541 49.349807002581656
leaf_count=2807 3910 519 17972 5134 14536 4254 12380 23447 9849 4582 6562 7627 5355 9706 7712 10072 5625 796 2161 12071 833 11566 19240 6098 7054 12843 2197 12535 2208 2307 761 1016 2880 3960 5332 1368 5155 7697 794 5277 247 2597 4916 3546 827 5345 2290 159 432
internal_value=0 -0.0192765 0.00807525 -0.0292991 0.00209469 -0.00234812 0.00824277 -0.0444169 -0.0198998 -0.0074738 0.0156579 -0.000106358 -0.0215338 -0.0299316 0.0200299 -0.0539304 0.00365439 0.01035 -0.00440808 -0.0287822 -0.0168505 -0.00168476 0.0137145 0.0114252 -0.0383334 0.0153746 0.0199458 -0.0152602 0.0119609 0.0027742 0.0219719 -0.0121419 -0.0121627 -0.0115252 -0.0157873 -0.0205944 0.0275656 -0.0246949 0.0012965 -0.00485992 0.00377394 -0.00980731 0.00545983 0.0104363 -0.0128039 -0.0246091 -0.00740248 0.0137335 0.0193166
internal_weight=0 5782.81 13804.2 3632.28 7717.37 2150.53 4698.45 1392.54 2239.74 3018.92 6086.83 1860.13 512.486 552.023 3337.66 840.516 1638.05 2749.16 831.233 1086.92 1152.38 1866.54 2838.33 2427.65 546.166 2063.14 1327.14 1119.61 806.814 420.73 386.084 556.829 227.73 1152.82 834.556 176.414 1274.52 482.819 895.029 534.798 1158.44 216.718 1296.16 360.231 389.795 406.681 427.875 121.816 111.769
internal_count=298557 126348 172209 99027 108764 27321 54171 47992 51035 54593 63445 24923 10436 14473 34469 33519 16885 28976 8802 28974 25647 28946 29248 25338 16903 22752 15040 24814 8083 5114 2969 6641 4767 22061 16927 4248 11717 12279 11004 6664 14410 2844 12543 4340 6182 9305 7622 1387 1228
is_linear=0
shrinkage=0.05


Tree=2
num_leaves=50
num_cat=0
split_feature=17 12 17 2 10 2 3 12 2 10 9 3 3 3 12 16 8 3 16 5 3 17 13 17 8 3 10 2 3 3 6 17 14 12 12 10 2 5 17 10 3 10 8 5 13 4 2 17 4
split_gain=994.704 315.906 299.612 221.484 115.322 89.6023 82.3836 78.0531 73.4979 73.241 56.8352 47.4521 43.8781 42.8475 40.5056 38.668 52.0947 36.9629 36.5857 34.4143 32.7453 25.2463 24.5002 23.5249 23.4161 22.4959 21.2784 21.2283 21.2245 20.6401 19.4141 18.9062 18.8835 18.3937 18.0116 17.3232 16.8808 20.9568 17.9796 16.4202 15.922 15.9178 15.9053 16.824 23.5547 16.8707 15.6205 16.7804 15.1934
threshold=10.639499500000001 2.4083333333333337 17.980300000000003 8.5000000000000018 11.500000000000002 5.5000000000000009 32.500000000000007 3.757352941176471 5.5000000000000009 43.500000000000007 42.500000000000007 21.500000000000004 20.500000000000004 13.500000000000002 16.341666666666672 35.868828766262546 8.6770833333333339 28.500000000000004 9.4340364340404044 6.5000000000000009 29.500000000000004 14.897599500000002 14.500000000000002 21.679249500000001 6.4868421052631584 18.500000000000004 24.500000000000004 11.500000000000002 74.500000000000014 19.500000000000004 12.877050000000002 13.5721495 54.709659472009399 3.8452380952380958 5.8944444444444457 78.500000000000014 12.500000000000002 1.0000000180025095e-35 26.877398500000002 77.500000000000014 14.500000000000002 16.500000000000004 0.55000000000000016 6.5000000000000009 33.500000000000007 153.50000000000003 3.5000000000000004 7.6666995000000009 203.50000000000003
decision_type=2 2 2 2 2 2 2 2 2 2 2 2 2 2 2 2 2 2 2 2 2 2 2 2 2 2 2 2 2 2 2 2 2 2 2 2 2 2 2 2 2 2 2 2 2 2 2 2 2
left_child=1 5 3 7 8 12 10 13 11 20 26 46 32 -2 25 16 27 34 -7 31 41 -21 -14 33 -10 -6 -4 -8 -18 -28 -29 -9 -1 -12 -11 -19 37 -25 -38 -15 -20 -5 -16 -44 -45 -46 -3 -48 -37
right_child=2 4 6 9 14 18 15 19 24 17 23 -13 22 39 42 -17 28 35 40 21 -22 -23 -24 36 -26 -27 29 30 -30 -31 -32 -33 -34 -35 -36 48 38 -39 -40 -41 -42 -43 43 44 45 -47 47 -49 -50
leaf_value=0.0072440444177518538 0.024834134147081573 -0.0038402446266829083 -0.01535526694625376 -0.025632028991103218 -0.0068339106802620415 -0.05635740687871748 0.013083131057238618 -0.019443002559280036 -0.038284734191380045 0.0062564456297514379 0.020710898520666168 -0.04433815404692304 -0.019087551767489774 0.0064126171539696589 0.072650215041687796 0.012480092623184851 -0.010562843501850033 -0.020243126192007889 -0.00075809913913869149 0.00060430527323625618 -0.029706167707083116 0.028399986592268445 0.0081468447280095592 0.0036003352068328443 -0.060257551401791287 -0.022609456962960895 0.018429627388606675 0.025662242834797028 -0.059039108132800291 0.0048923624094945849 -0.010974496316586035 -0.0022515436653850764 0.025906361728826117 0.009413828500613286 -0.0060530450427011273 -0.0017259905142615987 0.012514469639401352 0.028813091110109375 0.023914392655524894 0.019512451307903602 -0.023008818066761701 -0.010310784452866581 -0.046525253481115941 -0.041368615069561597 0.0096240054453101062 -0.029025156178776684 -0.042398487704181781 -0.00016641419867467018 -0.045204230468224166
leaf_weight=473.88639141665772 594.16841272159945 148.13097005325835 94.164157785009593 218.23451124830171 353.65526061531273 66.027582457871176 543.42268124187831 306.10451964121603 160.47685959399678 715.90764942159876 637.01637020730413 273.27076650434174 226.64637516008224 1215.9752231587772 3.4037665175274006 997.65456242277287 504.11634925071849 391.16311610909179 117.61756031759433 309.07821449416224 477.33713633421576 111.04227547324263 129.91500589880161 89.496272699791007 496.03656119818334 625.97368580673356 416.00160724564921 43.873254016507417 23.638549369410612 871.34305115707684 205.66768821328878 334.89257285854546 189.85071903793141 829.49214048229624 508.08086442278 302.64548856229521 648.625809550751 1042.1199743401958 741.00481793330982 297.79898177459836 254.07234956882894 759.5351436563069 202.12045123067219 132.23814186011441 54.814484529662877 58.229864644352347 73.308855826267973 34.633171702269465 21.522251110407524
leaf_count=4538 3677 2342 1968 5749 6453 2931 5249 6943 6622 8389 4354 9717 4473 14673 46 13613 10261 8401 1880 4948 15487 1548 1600 909 25660 16621 4490 624 691 10550 3137 6314 1182 7923 8453 5741 5691 6583 5556 2408 5444 16376 7110 4787 1220 1922 2133 561 609
internal_value=0 -0.0217865 0.00622863 -0.00161748 -0.03218 -0.00313628 0.0129274 0.00788839 -0.0437092 -0.0104922 0.0163286 -0.0298466 0.00498233 0.0134558 -0.022622 0.00505043 -0.000561849 -0.00413033 -0.0220604 -0.00317141 -0.0189712 0.007951 -0.00916456 0.0193564 -0.0548866 -0.0169143 0.00758863 0.00753938 -0.0127341 0.00926689 -0.00453318 -0.0104612 0.0125821 0.014321 0.00114674 -0.0131598 0.0222853 0.0268191 0.0185933 0.0089897 -0.0159678 -0.0137304 -0.035025 -0.0358442 -0.0270427 -0.0102844 -0.0143819 -0.0288483 -0.00461261
internal_weight=0 4074.31 14251.1 6563.49 2616.29 1458.02 7687.64 3169.06 1185.86 3394.43 5369.26 529.344 1020.3 2107.94 1430.44 2318.37 1320.72 1939.32 437.717 1061.12 1455.11 420.12 356.561 3987.76 656.513 979.629 1381.51 792.964 527.755 1287.34 249.541 640.997 663.737 1466.51 1223.99 715.331 2521.25 1131.62 1389.63 1513.77 371.69 977.77 450.807 447.403 245.282 113.044 256.073 107.942 324.168
internal_count=298557 107242 191315 109716 85194 22048 81599 40511 47035 69205 48024 14753 11793 20758 38159 33575 19962 31593 10255 19753 37612 6496 6073 31016 32282 23074 17008 9010 10952 15040 3761 13257 5720 12277 16842 14751 18739 7492 11247 17081 7324 22125 15085 15039 7929 3142 5036 2694 6350
is_linear=0
shrinkage=0.05


Tree=3
num_leaves=50
num_cat=0
split_feature=17 8 10 9 8 8 2 2 12 2 8 0 3 16 15 0 2 10 3 2 13 3 16 0 8 2 3 16 0 12 4 5 3 17 18 3 5 17 9 3 2 10 5 5 5 10 3 16 14
split_gain=848.911 331.127 238.939 141.839 119.612 78.8225 74.9454 59.7662 54.1658 51.1577 50.5511 50.0165 39.7916 40.5333 39.2187 34.4816 30.8048 33.7293 28.59 27.7138 26.4945 25.8162 24.6599 24.29 24.1768 23.0949 22.1189 21.7338 21.6843 22.0525 21.5962 19.2421 19.0921 18.9625 18.9119 18.1833 17.9248 17.54 17.3246 17.2032 17.0251 16.2666 15.8227 15.694 15.6249 15.591 15.4608 15.3534 15.2169
threshold=11.942950000000002 2.8944444444444448 64.500000000000014 6.5000000000000009 9.3416666666666686 9.6282894736842124 6.5000000000000009 1.5000000000000002 16.341666666666672 8.5000000000000018 8.2071428571428573 18.788550500000003 21.500000000000004 33.387792496040575 9.5000000000000018 21.066049500000002 7.5000000000000009 38.500000000000007 8.5000000000000018 10.500000000000002 27.500000000000004 13.500000000000002 10.795623033145839 12.481550000000002 6.9045454545454552 8.5000000000000018 29.500000000000004 27.595069340391127 1.0000000180025095e-35 607.50000000000011 18.500000000000004 6.5000000000000009 16.500000000000004 22.708049000000003 6.3064000000000009 9.5000000000000018 3.5000000000000004 14.052000000000001 4.5000000000000009 53.500000000000007 9.5000000000000018 18.500000000000004 3.5000000000000004 6.5000000000000009 5.5000000000000009 43.500000000000007 84.500000000000014 30.981912112541107 127.84345161055538
decision_type=2 2 2 2 2 2 2 2 2 2 2 2 2 2 2 2 2 2 2 2 2 2 2 2 2 2 2 2 2 2 2 2 2 2 2 2 2 2 2 2 2 2 2 2 2 2 2 2 2
left_child=1 6 4 7 9 12 14 28 16 21 34 26 23 25 30 46 31 -18 -16 27 40 -2 -8 -4 -25 37 45 -6 -3 -30 36 32 -5 43 -9 -31 -1 -14 -38 -17 -10 -13 -23 -21 -22 -11 -7 -44 -47
right_child=2 3 5 8 19 15 22 10 20 11 -12 41 13 -15 18 39 17 -19 -20 33 44 42 -24 24 -26 -27 -28 -29 29 35 -32 -33 -34 -35 -36 -37 38 -39 -40 -41 -42 -43 47 -45 -46 48 -48 -49 -50
leaf_value=0.013580357646222558 0.019616739489782667 -0.080293408278261383 -0.036238421231242518 0.00083228657375554482 -0.013503977010796742 -0.0022743716485122789 -0.045481248641084479 -0.040603871523261885 -0.035073328897150029 -0.010482227467303436 -0.053859658065026905 -0.036620004895973161 -0.0021588622163765925 0.020061392546587523 0.043051034902975495 0.011053476597551452 -0.029344972833773839 -0.0086182645517243178 0.010107747529039916 -0.033426392677761478 -0.042326195553298716 -0.0015848113675050791 -0.013335966209348168 0.025708861959329001 0.0094550150750817314 0.0054748512198289486 -0.022526691739627812 0.0042515365556629733 -0.043859923249978783 -0.01384454405260617 -0.013853329314527808 0.0019453374929790932 -0.020281799902998658 -0.00069418542518331731 -0.017932262918317936 0.050680444108689153 -0.031859016328132171 0.020616118740740184 0.007824877300248289 -0.0085742361907875063 -0.062944718578127432 0.0083296827741860032 0.0087988416928662799 -0.017173553595303634 -0.016174253542740932 0.0044701665457877546 -0.066411916956051628 0.04419990762253001 -0.077603842189332389
leaf_weight=211.69162985682487 477.5574288489297 7.0036659175530067 17.47567596193403 151.23081688644015 459.33808023412712 840.88845496976865 77.023790939012542 207.55286789027741 130.02126058394788 559.43456787616014 619.48536991368746 20.639610949903727 100.9377923111897 1271.7382085409481 73.074701429344714 1436.2850159853406 549.5646051382937 305.34138303424697 667.0559172462672 256.74754248087993 80.325851734785829 446.50403685925994 264.68301000876818 1382.6181201678701 274.14889089780627 1521.0154543907847 236.61929314100416 275.85143489891198 13.535942443879319 16.69331438280642 283.73906945402268 291.44072726066224 366.61271114088595 101.6304175411351 165.19433935557026 31.560884291306138 53.058256375370547 520.32273558271118 57.100964500103146 121.04590835247654 94.697366644249996 810.73115147108911 711.78832958836574 352.39029931626283 197.65790265225223 334.88953573314939 9.5022573374444601 32.004715213086456 5.7443442161311387
leaf_count=2152 2989 174 192 2605 10852 15480 3543 8722 4591 12334 30268 663 899 10884 315 19228 16969 5953 6344 7429 3062 7779 5259 9783 2382 15676 6336 5222 433 140 5491 4701 9642 1749 5480 284 741 4438 552 2549 5374 10889 8791 8844 5707 3759 453 358 97
internal_value=0 -0.0176195 0.00688558 -0.0270024 -0.00148418 0.0125598 0.00032948 -0.0419807 -0.0196683 0.00335327 -0.0451054 -0.00210656 0.0160868 0.0129904 0.0056393 0.00510628 -0.0153235 -0.0219421 0.0133603 -0.0136481 -0.0340516 0.00979583 -0.0205818 0.0224008 0.0230193 0.00879273 -0.00892342 -0.00684191 0.00308712 0.012538 -0.00379706 -0.00833174 -0.0141157 -0.0206882 -0.0305563 0.0283583 0.00506841 0.0169158 -0.0112889 0.00952788 -0.0468184 0.00721376 0.00585559 -0.024024 -0.0237311 -0.00534725 -0.00299104 0.0103221 0.0030861
internal_weight=0 4915.35 12577.8 3227.92 5081.87 7495.98 1687.43 1061.03 2166.89 3635.91 992.233 1968.06 5088.26 3414.01 1345.72 2407.72 1664.19 854.906 740.131 1445.96 502.702 1667.85 341.707 1674.24 1656.77 2142.28 1136.69 735.19 68.7938 61.7901 605.59 809.284 517.844 710.768 372.747 48.2542 321.851 621.261 110.159 1557.33 224.719 831.371 1190.3 609.138 277.984 900.068 850.391 743.793 340.634
internal_count=298557 128502 170055 104105 88091 81964 24397 45501 58604 53995 44470 34078 44254 31897 15595 37710 39870 22922 6659 34096 18734 19917 8802 12357 12165 21013 22526 16074 1031 857 8936 16948 12247 18022 14202 424 3445 5337 1293 21777 9965 11552 16928 16273 8769 16190 15933 9149 3856
is_linear=0
shrinkage=0.05


Tree=4
num_leaves=50
num_cat=0
split_feature=9 17 8 12 2 9 2 17 3 2 13 5 2 2 3 4 2 10 13 17 3 8 17 2 2 0 0 13 12 2 0 17 12 12 11 13 2 10 17 4 3 2 8 0 17 17 12 6 12
split_gain=756.012 243.214 240.313 197.746 75.7744 69.4124 61.1047 78.438 57.5442 56.35 48.0405 44.5546 43.7027 38.2418 34.0437 30.4073 32.455 28.1527 26.5389 26.5209 25.6564 23.2138 23.1348 22.8563 22.5104 21.9564 20.9291 20.1376 19.6826 18.9239 20.4365 18.916 18.6274 18.625 18.4325 17.1359 17.0501 16.8065 16.6068 16.2163 15.6556 15.5133 15.0857 14.8794 14.5354 14.249 14.2316 13.8802 15.4117
threshold=14.500000000000002 17.980300000000003 8.4316770186335415 5.8944444444444457 8.5000000000000018 2.5000000000000004 1.5000000000000002 7.3975000000000009 21.500000000000004 6.5000000000000009 77.500000000000014 6.5000000000000009 3.5000000000000004 10.500000000000002 18.500000000000004 10.500000000000002 2.5000000000000004 43.500000000000007 22.500000000000004 23.365050500000002 12.500000000000002 30.170289855072468 12.452750000000002 12.500000000000002 14.500000000000002 14.478997500000002 15.185250000000002 62.500000000000007 0.92857142857142871 7.5000000000000009 14.902450000000002 14.605850000000002 4.7182539682539693 15.839743589743593 22.197528344671209 61.500000000000007 11.500000000000002 7.5000000000000009 22.397799500000001 21.500000000000004 7.5000000000000009 5.5000000000000009 9.1602564102564106 1.0000000180025095e-35 8.7128495000000026 28.004449500000003 15.519230769230772 13.013350000000001 1.267857142857143
decision_type=2 2 2 2 2 2 2 2 2 2 2 2 2 2 2 2 2 2 2 2 2 2 2 2 2 2 2 2 2 2 2 2 2 2 2 2 2 2 2 2 2 2 2 2 2 2 2 2 2
left_child=2 3 5 4 14 12 43 20 32 15 23 21 28 26 47 -7 40 31 -11 24 -8 27 41 -10 -12 33 -13 36 39 -9 -31 -6 38 46 -21 -34 -5 -18 -3 -1 -17 -16 -36 -4 -23 -37 -15 48 -2
right_child=1 8 6 11 17 9 7 29 10 18 19 13 -14 25 22 16 37 -19 -20 34 -22 44 -24 -25 -26 -27 -28 -29 -30 30 -32 -33 35 -35 42 45 -38 -39 -40 -41 -42 -43 -44 -45 -46 -47 -48 -49 -50
leaf_value=0.017582202122561015 0.026404250526506884 0.017319190227367103 -0.075195470853422958 -0.018732171220147757 -0.021621918282297474 0.014670633414039652 -0.025599732045214804 -0.01726011093291074 0.0072819394651933746 -0.0207331621313947 0.009165162172169096 -0.0066487467154374468 -0.045447178831660627 -0.025164521471824415 0.0044333231491538389 0.053987312306899439 -0.022771974086934658 0.00098441312965118015 0.0015500137623893752 0.020858304772171338 -0.05717258864081004 -0.054298575998223159 0.0105324373054844 -0.0043647126530459981 -0.012561608224885949 -0.010067224738911444 0.012808002671916141 -0.0060756950831216371 -0.029492689498169019 -0.04130315774236213 -0.015933029224642164 -0.0021341958498422428 -0.0058580233150526562 -0.060108480756406971 0.01760650048953219 0.011076911304052231 -0.041857148187110373 -0.0044384078378112051 0.028125680530210563 -0.028725358563304659 0.0099686031629453459 -0.012474492577860756 0.0050437727576003975 0.018971712858720076 -0.027017535284183172 0.029526661404824857 0.064814693948539268 0.028008552858985788 0.010073137097262763
leaf_weight=65.78440198302269 192.92851748294197 823.16260329075158 4.5365832718089214 452.67557658438454 294.60874704070739 283.35591501637828 73.750026464491384 254.79621131066233 961.00683037471026 698.13337442625198 1109.931772084441 299.12541053025052 209.5520624028286 103.87343891581986 331.98966213967651 24.305590119212866 162.26599045889452 1026.609819263278 165.24629691563314 1012.9918606581632 504.50386150807026 69.972907295246841 873.72858184354845 750.02673063141992 133.56084570346866 394.96507300954545 256.92978295264766 267.49154536268907 81.043185411253944 301.28596878628014 107.77223272185074 215.68742740654852 112.4360126121901 43.422457260487135 467.12718012975529 438.24481151235523 96.74296850245446 544.36039264919236 625.7815951667726 26.529752108734101 119.56194443907589 229.41349378356244 489.25495821153163 55.705230445601046 161.55144343985012 137.48123635957018 4.5886278175748876 237.40037301473785 575.08130780296051
leaf_count=486 1311 6384 162 12418 8054 3804 2948 7912 13442 20125 13295 6325 9102 3019 4463 93 3896 13784 2691 9540 26549 3173 10280 12919 2308 10314 4426 6273 1942 12997 3298 5196 1599 2197 4364 4379 3507 8600 3827 522 1840 3661 6827 602 5270 887 43 1904 5599
internal_value=0 0.00559241 -0.0200307 -0.0016953 0.00490994 -0.0105824 -0.037298 -0.0396832 0.011918 -0.00684374 0.00894429 -0.0139072 -0.0300833 -0.00689164 0.0103865 0.000484949 -0.00424124 -0.00378664 -0.0164683 0.0125484 -0.0531458 -0.0212873 0.00544375 0.00217666 0.00683154 -0.0162801 0.0023414 -0.0173265 -0.0115116 -0.0279564 -0.034619 -0.013385 0.0187694 -0.0324363 0.0161582 0.0119959 -0.0228041 -0.00864843 0.0219864 0.00427408 0.0174053 -0.00247594 0.0111798 0.0118803 -0.0352626 0.0154826 -0.0213578 0.0174419 0.0141756
internal_weight=0 13189.8 3682.49 6128.79 3977.45 2380.14 1302.35 1242.11 7061.01 1997.23 4923.9 2151.34 382.909 1102.9 2440.54 1133.85 850.494 1536.91 863.38 3212.87 578.254 1048.43 1435.13 1711.03 1243.49 546.85 556.055 816.91 173.357 663.854 409.058 510.296 2137.11 151.885 1969.37 688.162 549.419 706.626 1448.94 92.3142 143.868 561.403 956.382 60.2418 231.524 575.726 108.462 1005.41 768.01
internal_count=298557 190988 107569 111217 54252 53101 54468 53704 79771 41049 62695 56965 12052 26324 27218 18233 14429 27034 22816 36334 29497 30641 18404 26361 15603 15573 10751 22198 2950 24207 16295 13250 17076 5259 20731 6865 15925 12496 10211 1008 1933 8124 11191 764 8443 5266 3062 8814 6910
is_linear=0
shrinkage=0.05


Tree=5
num_leaves=50
num_cat=0
split_feature=9 17 8 8 2 2 17 3 2 8 16 3 3 13 9 5 2 13 7 3 17 17 0 13 17 8 9 12 3 8 2 0 5 0 2 2 11 9 13 8 8 2 17 4 2 8 2 11 14
split_gain=676.209 221.602 212.146 171.204 60.8028 57.4741 68.1094 49.0499 47.9627 43.664 43.1201 39.3542 36.7935 35.9377 34.799 24.2017 24.8524 21.6701 29.1886 21.1692 21.1179 20.4715 20.3269 19.5703 19.4354 21.6662 19.1667 19.4677 17.9852 16.6584 16.4707 16.5785 16.4536 20.901 20.2717 15.8562 15.6769 15.6696 15.3087 15.2374 15.0113 14.2302 13.6497 13.5944 16.9143 14.988 13.5554 13.234 13.1377
threshold=14.500000000000002 18.824348500000003 8.4316770186335415 6.7573529411764719 6.5000000000000009 1.5000000000000002 7.3975000000000009 30.500000000000004 9.5000000000000018 51.809090909090919 11.154207736771747 21.500000000000004 12.500000000000002 47.500000000000007 47.500000000000007 7.5000000000000009 11.500000000000002 107.50000000000001 41.337053571428577 12.500000000000002 15.250649500000003 10.706450000000002 12.613650000000002 22.500000000000004 14.052000000000001 3.3484848484848491 2.5000000000000004 0.92857142857142871 19.500000000000004 6.8397435897435903 7.5000000000000009 14.902450000000002 5.5000000000000009 15.185250000000002 9.5000000000000018 12.500000000000002 19.73386783284743 76.500000000000014 27.500000000000004 1.5357142857142858 675.66666666666674 10.500000000000002 5.3554985000000004 1.5000000000000002 2.5000000000000004 0.55000000000000016 5.5000000000000009 8.1696969696969717 80.423763989829652
decision_type=2 2 2 2 2 2 2 2 2 2 2 2 2 2 2 2 2 2 2 2 2 2 2 2 2 2 2 2 2 2 2 2 2 2 2 2 2 2 2 2 2 2 2 2 2 2 2 2 2
left_child=2 3 4 8 11 40 19 14 12 13 -6 26 -2 15 28 16 36 35 -19 -7 37 39 41 -12 25 -14 27 -1 -3 38 -8 -32 -15 46 -35 -9 -5 -10 48 -13 -4 -17 -24 -28 -45 -46 -34 -40 -16
right_child=1 7 5 9 10 6 30 17 20 -11 23 21 24 32 29 22 -18 18 -20 -21 -22 -23 42 -25 -26 -27 43 -29 -30 -31 31 -33 33 34 -36 -37 -38 -39 47 -41 -42 -43 -44 44 45 -47 -48 -49 -50
leaf_value=0.0039573336854145727 0.021192256441960343 0.015250963604805904 -0.076719874710889702 -0.009067655030697409 -0.041206018318855508 -0.026968256072102532 -0.017804320711026504 0.0065905089426338912 -0.014176643260458527 -0.038747826688633108 -0.019146975426961504 -0.010207665352111792 0.0072503624952537198 -0.0093840927527291552 -0.050906817828457476 -0.0097892124738513508 -0.035605183418672672 0.020561629663095087 0.0045953947295913093 -0.05623844145031287 0.0028705130123378203 -0.00013550702339616423 -0.064356539074466076 0.00051329882108572418 0.011629551977781743 -0.0075547719476653829 0.01799748943135877 -0.031376751595954398 0.0021877218708923492 0.01402977436026269 -0.040978599067571952 -0.017251198858359611 0.042589041956305328 0.020826571035332669 0.00062887057089730395 -0.0057498842389789749 -0.02430198621954743 0.027829312140452846 0.032114237931454716 -0.031724234898974968 0.015636760730952527 -0.038024468570153694 0.0017325674490476818 0.020084040506137921 -0.054874648969765752 -0.00081437292098690366 -0.016820920748934248 0.020231302721225655 0.01573520806701878
leaf_weight=82.532448178855702 554.55401356471702 461.3971584062092 4.7419416895136228 436.08827121253125 195.57488362354343 71.418611693079583 246.20122773124604 569.59582532045897 387.24775943998247 125.10568436613539 569.79691301216371 151.11973257944919 703.28179076092783 576.78429086611141 13.231799218803646 135.22369781488669 183.47574815573171 467.09426133614033 739.35233511892147 457.33702715314575 615.45918375188194 159.71937133010942 7.9737057595630167 162.72730285476428 1034.0327919945121 380.98213438416133 190.71247641765513 73.875699863419868 614.26111486647278 1255.2855388123353 269.17283107229741 101.33200572186615 10.173707120586185 165.95546323939925 494.10393486116664 479.38163660292048 275.58887571572268 23.551333117298782 286.55415785172954 180.63411032047588 60.956227685790509 66.602630565233994 386.98646136315074 103.70526159880683 13.292239712551234 361.75332587910816 170.6725693938788 1285.0369162217248 16.766448576003313
leaf_count=963 3471 4670 217 10795 9749 2948 7912 8293 8564 5333 16857 3435 8147 13533 132 2691 6639 5425 11092 26549 8800 2582 332 2595 11585 6317 1767 2067 9146 12101 12997 3298 132 2427 9555 9819 7911 213 1565 6066 547 2462 7845 947 190 5883 3545 8330 118
internal_value=0 0.00525458 -0.0196432 -0.00102221 -0.0105459 -0.0365092 -0.0391177 0.0120851 0.00619896 -0.00982426 -0.0203483 -0.00363983 0.00972684 -0.00858063 0.0154564 -0.0139974 -0.0191971 0.00620698 0.010777 -0.0522849 -0.00298928 -0.0148425 -0.0061981 -0.0147795 0.00672529 0.00204822 0.00302685 -0.0127319 0.00779112 0.0183424 -0.0278283 -0.0344892 -0.00288016 0.00158095 0.00570708 0.000950962 -0.014967 -0.0117684 0.0217226 -0.0219231 0.00897067 -0.0191068 0.000398319 0.00670859 0.00221161 -0.00273036 -0.0134787 0.022398 -0.0136596
internal_weight=0 12921.8 3456.6 6733.84 2245.44 1211.16 1145.46 6187.96 3699.11 3034.74 928.099 1317.34 2672.85 2909.63 3932.53 1491.94 895.153 2255.42 1206.45 528.756 1026.26 491.473 596.786 732.524 2118.3 1084.26 825.871 156.408 1075.66 2856.87 616.706 370.505 1417.69 840.906 660.059 1048.98 711.677 410.799 1601.59 331.754 65.6982 201.826 394.96 669.463 478.751 375.046 180.846 1571.59 29.9982
internal_count=298557 190988 107569 120297 53101 54468 53704 70691 47097 73200 29201 23900 29520 67867 36062 38675 25345 34629 16517 29497 17577 12083 13330 19452 26049 14464 11817 3030 13816 22246 24207 16295 29192 15659 11982 18112 18706 8777 10145 9501 764 5153 8177 8787 7020 6073 3677 9895 250
is_linear=0
shrinkage=0.05


Tree=6
num_leaves=50
num_cat=0
split_feature=17 12 10 10 2 2 8 2 17 3 8 3 16 2 3 3 17 17 10 17 16 13 3 12 0 3 3 17 15 3 2 5 12 8 2 12 0 12 4 4 13 17 12 3 5 16 5 2 5
split_gain=621.248 227.252 165.367 95.0146 75.0559 72.1655 59.7373 47.6625 39.3201 35.7666 34.7963 33.403 32.8666 28.4254 27.8952 27.8883 27.7679 27.5539 26.7355 24.196 23.0398 21.5481 20.9751 20.1856 18.7532 18.6069 18.0431 17.4856 17.0768 18.2147 16.8066 15.7802 14.7337 14.5324 14.4216 13.7597 13.6515 13.0549 13.073 13.0124 12.8834 12.7953 22.3939 12.7748 12.6181 12.9265 12.5652 12.4523 11.9754
threshold=12.132950000000001 2.3541666666666674 64.500000000000014 11.500000000000002 10.500000000000002 6.5000000000000009 9.4472222222222246 4.5000000000000009 16.053500000000003 22.500000000000004 3.1742424242424243 20.500000000000004 30.653767768105233 8.5000000000000018 21.500000000000004 31.500000000000004 23.365050500000002 17.800350500000004 45.500000000000007 7.3975000000000009 9.8287017750843422 16.500000000000004 28.500000000000004 7.6770833333333348 10.731350000000001 33.500000000000007 12.500000000000002 7.9880500000000012 9.5000000000000018 8.5000000000000018 11.500000000000002 5.5000000000000009 22.26136363636364 4.9666666666666677 6.5000000000000009 36.460606060606068 13.350150000000001 7.2583333333333337 82.500000000000014 20.500000000000004 94.500000000000014 26.250550500000003 5.2111111111111121 5.5000000000000009 6.5000000000000009 18.874618904140288 8.5000000000000018 11.500000000000002 5.5000000000000009
decision_type=2 2 2 2 2 2 2 2 2 2 2 2 2 2 2 2 2 2 2 2 2 2 2 2 2 2 2 2 2 2 2 2 2 2 2 2 2 2 2 2 2 2 2 2 2 2 2 2 2
left_child=1 5 4 7 10 11 14 9 22 -3 26 28 15 24 41 -8 30 25 27 -9 -7 -13 -6 31 -5 48 43 -15 39 -30 -16 -10 -14 -22 -28 -20 -29 38 -33 -1 -17 42 -4 -2 -27 -46 -26 -18 -12
right_child=2 3 6 13 8 20 12 19 23 -11 17 21 32 18 16 40 47 -19 35 -21 33 -23 -24 -25 46 44 34 36 29 -31 -32 37 -34 -35 -36 -37 -38 -39 -40 -41 -42 -43 -44 -45 45 -47 -48 -49 -50
leaf_value=0.0087625556628377621 -0.029896737210512933 -0.0075473082977123964 0.019075295581871387 -0.018440958631597053 -0.013989152519991985 -0.049838762940964447 0.0035958015106585875 -0.051666519684058249 -0.01083225902359581 -0.039252110334489138 -0.0068713453710707783 -0.015461952921609588 0.0097965694603669232 -0.046779552278326447 0.0097242767301621933 -0.024745024494121297 0.023123040288210831 0.0091082473723002929 -0.0096870632668999996 -0.032190793994822137 -0.010697415141568158 0.0061985837246387038 -0.034665749535271725 -0.016137376224958807 -0.0079495345951584116 -0.023890882470498347 0.013846923321368929 -0.031095907302452788 0.038173697991747711 0.012518338834632861 -0.0019163366544655389 0.0058746553698475175 -0.0075607249585873566 -0.039410806883534821 -0.0013777154370748545 -0.057963316899611463 -0.010337408386761811 0.037011929080056766 -0.022265288028685912 -0.012216217450939724 -0.0029709906275721155 0.028095493171277339 -0.001579531495229344 0.024132080824166839 -0.039739412582748268 0.0021391714855200786 0.014128402122083309 0.012975967226947778 0.0035218679534065617
leaf_weight=279.60626776178833 11.402784692589192 198.37787269195542 1346.3826222997159 469.13264762418112 346.3249303145567 53.695118649513461 417.55067354789935 420.74365742201917 228.84828930237563 161.26841999526368 489.96485853014747 261.05167628574418 1429.2678291056363 129.21553463878809 1188.6418188801035 181.35521065630019 457.29121859441511 553.38987889781129 286.89714577043196 256.81955269887112 312.17307900416199 204.96911789709702 189.91629106234177 268.30331657151692 384.15314252191456 171.50850461993832 331.03018740401603 304.43783677331521 87.270920939743519 333.81996520003304 419.51274709310383 402.84113117714878 133.69743131884024 51.309366806119215 293.42039217951242 15.560383827076292 107.0501063328702 30.089711803710088 45.98468952300027 100.47735957533587 108.62562194804195 318.95151183288544 145.39998675324023 269.97330650221556 21.569793618982658 126.43144435173599 77.436464720638469 892.33713279012591 638.13321937713772
leaf_count=2560 88 4222 8847 12283 8693 2978 6359 26872 5166 7210 10757 5993 21710 6990 12403 4991 3680 8259 7632 11792 7110 2699 7787 7540 9533 5005 4362 11502 357 2773 6012 6704 2835 1550 4496 978 3209 417 906 2126 2388 1680 1637 1806 502 2702 1219 9046 10191
internal_value=0 -0.0157523 0.00618021 -0.0244542 -0.00140076 -0.0012293 0.0109396 -0.0364757 -0.0104348 -0.021764 0.00329931 0.00470889 0.00426433 -0.0174252 0.014118 -0.00467673 0.0111258 -0.000381353 -0.0240751 -0.0442846 -0.0192668 -0.00593504 -0.021312 -0.004459 -0.0114009 -0.00400903 0.01143 -0.0307341 0.0109002 0.0178354 0.00668764 -3.18965e-05 0.00831181 -0.0147506 0.00669308 -0.0121707 -0.0256955 0.00512902 0.00299156 0.00321669 -0.0165886 0.0190056 0.0170621 0.0219426 -0.0146606 -0.00396424 -0.00424573 0.0164141 -0.000992198
internal_weight=0 4495.47 11458.1 2811.09 4419.13 1684.37 7039.01 1037.21 1512.31 359.646 2906.82 1267.2 2270.5 1773.88 4768.52 707.532 2957.78 2001 843.161 677.563 417.178 466.021 536.241 976.067 930.722 1447.61 905.827 540.703 801.175 421.091 1608.15 707.764 1562.97 363.482 624.451 302.458 411.488 478.916 448.826 380.084 289.981 1810.73 1491.78 281.376 319.51 148.001 461.59 1349.63 1128.1
internal_count=298557 131588 166969 103442 85381 28146 81588 50096 37213 11432 48168 16508 38283 53346 43305 13738 31141 37416 30311 38664 11638 8692 16480 20733 23035 29157 10752 21701 7816 3130 18415 13193 24545 8660 8858 8610 14711 8027 7610 4686 7379 12164 10484 1894 8209 3204 10752 12726 20948
is_linear=0
shrinkage=0.05


Tree=7
num_leaves=50
num_cat=0
split_feature=13 12 17 12 9 2 10 17 12 3 2 2 16 9 3 3 5 17 9 12 17 0 2 2 0 17 10 2 8 12 12 3 10 14 16 3 5 12 2 3 8 16 2 3 7 16 5 14 3
split_gain=568.056 226.029 129.22 107.556 80.5942 54.3909 56.7123 42.005 52.4089 38.4567 38.0724 33.261 29.8613 28.8638 28.0544 27.8165 25.968 21.1224 19.4772 19.4723 16.2894 16.0653 22.8194 15.9262 25.5085 15.5939 15.1232 15.6995 15.0608 14.5645 14.025 13.9006 13.2321 15.1212 12.4764 12.2457 11.8401 11.7033 11.5231 22.1321 12.4107 10.7299 13.1967 10.6221 10.4399 10.3817 10.0874 10.015 9.95365
threshold=27.500000000000004 7.8397435897435903 18.824348500000003 5.8944444444444457 2.5000000000000004 6.5000000000000009 17.500000000000004 1.0000000180025095e-35 607.50000000000011 30.500000000000004 10.500000000000002 3.5000000000000004 15.41432841731273 5.5000000000000009 25.500000000000004 12.500000000000002 6.5000000000000009 10.051250000000001 42.500000000000007 21.757352941176475 14.122550000000002 14.279899500000001 9.5000000000000018 13.500000000000002 28.766700000000004 23.709998000000002 72.500000000000014 11.500000000000002 9.5119047619047645 1.8090909090909093 17.369318181818183 12.500000000000002 97.500000000000014 36.777343829874333 17.63606877738307 53.500000000000007 2.5000000000000004 0.92857142857142871 6.5000000000000009 33.500000000000007 6.4142156862745106 31.14945132062806 8.5000000000000018 43.500000000000007 18.000811688311696 20.387712486955504 3.5000000000000004 62.673980031285694 17.500000000000004
decision_type=2 2 2 2 2 2 2 2 2 2 2 2 2 2 2 2 2 2 2 2 2 2 2 2 2 2 2 2 2 2 2 2 2 2 2 2 2 2 2 2 2 2 2 2 2 2 2 2 2
left_child=1 4 3 10 11 14 44 31 13 18 15 37 48 -9 29 -2 19 -16 -4 26 38 -18 -23 25 35 -11 27 -5 -20 -6 34 -3 33 -14 -15 -25 -12 -1 -17 40 -40 42 -35 -44 -7 -28 -10 -33 -8
right_child=2 7 9 16 5 6 12 8 46 23 36 -13 32 30 17 20 21 -19 28 -21 -22 22 -24 24 -26 -27 45 -29 -30 -31 -32 47 -34 41 -36 -37 -38 -39 39 -41 -42 -43 43 -45 -46 -47 -48 -49 -50
leaf_value=-0.00011860289039451241 0.020759865803432212 -0.025194783111343211 0.0068568521208105752 -0.014431768028262487 0.010965651617692126 -0.019349510978723082 -0.0054850163530978423 -0.050575305096315651 0.011475807723553316 0.0048422320290783735 -0.0290143926477653 -0.04580549957576547 0.0062105312850782544 -0.032379666621604027 -0.01914190535761584 0.0063697402605649564 -0.016077016422874166 0.0024014635518997823 0.018472340981656125 -0.036809829540554791 0.010281720161253366 0.013729450192917001 -0.0056287802284971204 -0.0041334659797852297 0.010931556752996265 0.015871579086755811 -0.036478462295325212 -0.040073337958304922 0.010057200936543116 -0.0013750201481817742 -0.039192058913725729 -0.053736535895461859 0.014923178397526025 0.0019765241737718718 -0.01672123890590441 -0.028766093464280624 -0.0027266710321128644 -0.02980323185639765 -0.0071318396901039836 -0.036861868190190585 0.015725377051022661 0.015751334983013725 -0.012010501514628411 -0.04583242542015719 -0.034068686414487619 -0.00035069486100451283 -0.021866020892138873 -0.019407578954815912 -0.026918083087340762
leaf_weight=76.78882082272321 424.87443539814558 64.035474182019243 630.6687774801394 382.26953694262193 662.48997537908144 448.87492943665711 78.258165853098035 148.69136624457315 98.272964727788349 733.75613128422992 46.226883733063005 178.98989607050316 296.78255344944773 201.66693548340118 227.75940585584613 442.60006708709989 204.19679852004629 227.35087659838609 2298.7723235068843 96.730523738777265 1223.5423740878177 210.2974526201142 551.3787657727371 372.65006917994469 334.57116388250142 568.98855120025109 21.679774229996838 70.741717367898673 691.68482587570907 374.09853817528347 163.56534136207483 263.13841498165857 112.98516511195339 186.58848368533654 344.57624993790523 58.355846909806132 583.58606555790175 58.498752349521965 208.63071926424163 49.254523668903857 83.017738297290634 46.63727180310525 404.25852683294215 24.628564353799447 164.65829579631099 240.1899278286437 29.493302672402933 23.111724870977923 175.98191025204142
leaf_count=1008 2880 2737 9058 11194 7086 15253 1441 9113 1183 10963 1176 9549 6220 8291 6674 6282 5587 4112 15934 4262 14306 3289 12867 6985 5695 7007 618 2842 8213 7463 8145 16498 1366 2831 11736 1540 9283 1958 3067 1044 1230 805 9191 907 6806 5773 997 1163 4929
internal_value=0 -0.0137282 0.0066266 0.000620466 -0.00742941 -0.00520977 -0.0107303 -0.0313803 -0.0260978 0.0117352 0.00630008 -0.031664 -0.00491494 -0.0305442 0.00196854 0.00913749 -0.00916272 -0.00837989 0.0148419 -0.0157556 0.00667714 -0.00362283 -0.000284007 0.00629599 0.000572611 0.00965942 -0.0129067 -0.0184359 0.0165259 0.00651198 -0.0263481 -0.0462538 -0.00126083 -0.00316777 -0.0225022 -0.00746859 -0.00465613 -0.0129543 0.00104811 -0.00586105 -0.000625533 -0.00737146 -0.00912358 -0.0139527 -0.0232998 -0.00334166 0.00377925 -0.0509648 -0.0203207
internal_weight=0 5082.18 10528.7 4839.22 3745.63 3431.35 1939.65 1336.55 986.266 5689.45 3061.73 314.277 1326.12 858.5 1491.7 2431.92 1777.48 455.11 3621.13 811.611 2007.05 965.873 761.676 2068.32 765.577 1302.74 714.881 453.011 2990.46 1036.59 709.809 350.286 1071.88 958.895 546.243 431.006 629.813 135.288 783.503 340.903 291.648 662.113 615.476 428.887 613.533 261.87 127.766 286.25 254.24
internal_count=298557 147462 151095 85700 87599 75084 49749 59863 39465 65395 39268 12515 27690 37285 25335 28809 46432 10786 33205 24689 25929 21743 16156 32190 14220 17970 20427 14036 24147 14549 28172 20398 21320 19954 20027 8525 10459 2966 11623 5341 4297 13734 12929 10098 22059 6391 2180 17661 6370
is_linear=0
shrinkage=0.05


Tree=8
num_leaves=50
num_cat=0
split_feature=17 12 10 17 2 2 17 3 8 3 3 16 8 9 2 3 16 5 3 17 12 6 2 16 2 3 3 10 3 16 2 9 14 0 4 3 2 6 8 10 0 17 14 3 2 13 3 12 10
split_gain=515.834 179.655 128.975 78.2524 65.7799 57.6863 47.7405 45.4833 40.0132 38.8799 25.2766 24.5022 22.5221 23.4168 26.1719 22.4006 24.9533 21.6446 21.3948 20.654 19.9833 19.0747 18.9402 18.8041 17.8733 16.1844 15.8122 15.7817 15.3759 15.2321 18.0132 15.6044 20.112 14.1324 13.6551 13.0904 13.0834 12.8378 12.6395 12.3249 12.1375 11.646 11.597 11.5007 11.288 11.2049 11.0845 10.8241 14.4105
threshold=12.132950000000001 2.3541666666666674 75.500000000000014 7.832843500000001 10.500000000000002 6.5000000000000009 16.053500000000003 12.500000000000002 13.837719298245617 18.500000000000004 9.5000000000000018 30.179921660762925 1.6904761904761907 5.5000000000000009 1.5000000000000002 21.500000000000004 35.868828766262546 6.5000000000000009 22.500000000000004 17.800350500000004 7.6770833333333348 12.023250000000003 8.5000000000000018 9.8287017750843422 6.5000000000000009 28.500000000000004 31.500000000000004 6.5000000000000009 33.500000000000007 11.308678626302635 5.5000000000000009 27.500000000000004 78.462072718259336 23.078749500000004 82.500000000000014 69.500000000000014 1.5000000000000002 3.4581500000000003 4.9666666666666677 11.500000000000002 14.345998000000003 8.5774980000000003 21.840921517252109 39.500000000000007 8.5000000000000018 72.500000000000014 9.5000000000000018 17.226495726495731 65.500000000000014
decision_type=2 2 2 2 2 2 2 2 2 2 2 2 2 2 2 2 2 2 2 2 2 2 2 2 2 2 2 2 2 2 2 2 2 2 2 2 2 2 2 2 2 2 2 2 2 2 2 2 2
left_child=1 5 4 7 9 10 25 36 15 33 21 26 -9 14 42 -4 22 18 44 24 34 37 -17 -7 -11 -6 -10 -12 39 -19 -31 43 40 -2 -8 -24 46 -1 -25 -26 -33 -34 -14 -32 -5 -38 -3 -15 -49
right_child=2 3 8 17 6 23 20 12 11 19 27 -13 13 47 -16 16 -18 29 -20 -21 -22 -23 35 38 28 -27 -28 -29 -30 30 31 32 41 -35 -36 -37 45 -39 -40 -41 -42 -43 -44 -45 -46 -47 -48 48 -50
leaf_value=-0.023598213865569546 0.010101010917046271 -0.02168428890363315 0.017499970210879259 -0.0048555354160837805 -0.013703723843643257 -0.047352541643019205 0.0038734354273572721 0.0039417503698370507 -0.00016678119100651558 0.0056077401707939987 -0.009605297400680151 0.0064750725327995806 -0.033930799962322539 -0.023261442511559316 -0.051205113322134926 0.015568962973007522 0.016403570793006274 -0.047719706991993772 -0.028124301019600364 0.0080559111417435342 -0.012716813134205879 0.074483138919010969 0.0048164454914046998 -0.010512454617104254 -0.036602026254490293 -0.0315363087080354 -0.024062157931722224 0.0043302106917069948 -0.016011572804709575 0.014366297216184246 -0.01240475675684497 0.014450746530313311 0.0378553851873734 0.030382250873433575 -0.013530946041743234 -0.039941232784672986 -0.022446215307597536 0.018201450404385398 -0.039550109513281084 -0.0015709818424331048 0.073295268020142884 -0.016553996486558639 0.019579589656406299 -0.034731240487197411 -0.025086168206915529 0.011384024204263071 0.042157918179311651 -0.046452919594697724 -0.014678995404710819
leaf_weight=20.095746214035898 981.92637789167929 10.706468577496709 1620.0723547030939 216.61707698187092 367.94429403098184 48.975248898321297 799.45232510659844 31.144933231524192 162.86132080643438 451.98238017805852 291.30539854092058 928.20083345097373 21.863067256985232 220.74122215645912 403.78070488362573 494.37422329001129 1084.5837783289608 25.062158762710169 465.51314349067979 611.12635933337151 341.78839792788494 14.104657100513576 1551.7218687089917 294.98666541668354 25.925131977448473 194.49055149391643 120.4222958573373 671.46349374845158 293.10525249794591 79.601268768194132 399.1112369215698 54.857419535517693 10.915670336224137 94.128964478615671 131.19244893989526 16.510303975315765 154.84591973587521 213.77464296109974 42.92912813811563 796.81698372430401 10.429039910435675 99.328531539125834 18.859919760609046 67.423627894604579 101.14642178753274 29.070877854188439 18.628552003763616 157.35991676541744 46.149758107727394
leaf_count=318 12234 202 11254 5344 9439 2978 13856 750 2666 7814 5659 15600 464 9209 26429 4823 11228 1098 18297 9298 9525 36 19803 7110 945 8466 3684 9040 7963 1556 13079 1113 197 949 2595 425 5379 1455 1550 14402 78 2535 250 3014 3407 318 98 8642 1983
internal_value=0 -0.0148275 0.00568096 -0.0228285 -0.00016865 -0.00159056 -0.00773936 -0.0329147 0.0106609 0.004099 0.00378019 0.00254678 -0.0378347 -0.0393324 -0.0473521 0.0127229 0.0102638 -0.0154903 -0.0212969 0.000258842 -0.00237733 0.0180153 0.00703539 -0.0183979 -0.00278039 -0.0198703 -0.0103246 0.000113738 -0.00617806 -0.00939953 -0.00806875 -0.0108502 0.00185758 0.0118751 0.00141995 0.00434524 -0.0121527 0.0146097 -0.0142014 -0.00267483 0.0238507 -0.0111667 -0.00914869 -0.0156314 -0.0112951 -0.0170988 0.0188573 -0.0309299 -0.0392476
internal_weight=0 4240.79 11068.6 2643.16 5089.88 1597.63 1834.87 1113.15 5978.75 3255.01 1210.74 1211.48 899.9 868.755 444.504 4767.26 3147.19 1530.01 783.277 2178.96 1272.43 247.975 2062.61 386.891 1567.83 562.435 283.284 962.769 1115.85 746.729 721.667 642.066 175.531 1076.06 930.645 1568.23 213.252 233.87 337.916 822.742 65.2865 110.244 40.723 466.535 317.763 183.917 29.335 424.251 203.51
internal_count=298557 131588 166969 103442 97486 28146 43881 53724 69483 53605 16508 21950 47727 46977 27143 47533 36279 49718 27048 40422 25976 1809 25051 11638 31124 17905 6350 14699 23310 22670 21572 20016 3923 13183 16451 20228 5997 1773 8660 15347 1191 2732 714 16093 8751 5697 300 19834 10625
is_linear=0
shrinkage=0.05


Tree=9
num_leaves=50
num_cat=0
split_feature=13 12 17 12 9 2 10 2 17 8 0 2 16 3 2 3 8 13 7 3 5 2 17 4 10 17 2 11 9 11 0 4 2 2 9 5 12 8 3 12 7 4 0 8 11 4 8 10 13
split_gain=482.928 179.906 106.563 89.1978 69.6424 45.7206 47.7976 38.9231 35.865 27.5584 26.768 26.4284 25.8358 22.6352 22.0973 21.6379 21.5376 19.5608 21.0372 18.4359 17.8213 17.0237 16.5485 16.5179 15.7584 15.0445 14.9114 14.8886 13.7352 14.8671 12.8959 12.6231 12.5241 11.6214 15.0706 12.3362 11.5081 11.5022 11.1443 10.8145 11.0647 11.0756 10.5928 10.5924 14.4632 10.4563 10.358 13.9899 10.0797
threshold=27.500000000000004 7.8397435897435903 20.335200000000004 5.8944444444444457 2.5000000000000004 6.5000000000000009 17.500000000000004 1.5000000000000002 8.3640500000000024 7.1455026455026465 15.043500000000002 10.500000000000002 15.41432841731273 25.500000000000004 3.5000000000000004 25.500000000000004 51.809090909090919 107.50000000000001 41.337053571428577 12.500000000000002 3.5000000000000004 12.500000000000002 10.051250000000001 96.500000000000014 43.500000000000007 14.122550000000002 7.5000000000000009 11.722718253968257 64.500000000000014 7.5037037037037058 1.0000000180025095e-35 1.5000000000000002 13.500000000000002 9.5000000000000018 5.5000000000000009 8.5000000000000018 0.92857142857142871 675.66666666666674 3.5000000000000004 0.53571428571428581 50.614530812324929 98.500000000000014 10.864350000000002 2.8090909090909095 25.583370370370378 325.50000000000006 3.1742424242424243 150.50000000000003 152.50000000000003
decision_type=2 2 2 2 2 2 2 2 2 2 2 2 2 2 2 2 2 2 2 2 2 2 2 2 2 2 2 2 2 2 2 2 2 2 2 2 2 2 2 2 2 2 2 2 2 2 2 2 2
left_child=1 4 3 11 14 15 -7 30 9 -9 26 19 -8 28 36 31 20 21 23 46 -12 -15 -17 -19 -13 -21 -5 -26 48 -30 -3 -6 -22 34 38 -36 -1 -32 -11 40 41 -33 -41 -10 -45 -34 47 -2 -4
right_child=2 7 13 10 5 6 12 8 43 33 16 24 -14 17 -16 22 -18 18 -20 25 32 -23 -24 -25 27 -27 -28 -29 29 -31 37 39 45 -35 35 -37 -38 -39 -40 42 -42 -43 -44 44 -46 -47 -48 -49 -50
leaf_value=-0.0023463363728117269 0.024396390155292765 -0.073022426155911632 0.011888105494473396 -0.0043467469089009557 0.01587770719837487 -0.022410579057165515 -0.020095012905570295 -0.010891487698443746 0.022370406516463368 0.022249441201138781 -0.014436306905367216 -0.016768335315386271 -0.0016834819267876014 0.0096913519122596142 -0.043298266241505692 -0.018231353191156079 -0.031622277698298555 0.015006006814949622 0.0072292040017400243 0.0010393105437825161 0.0025612039572299782 -0.0033718321196478033 0.0016239973905334518 0.034620933010169518 0.010856915573426766 0.009668766297696068 -0.022605091112769975 -0.0039809896677106514 0.037771008990673344 0.017716975997908887 -0.059785464923180764 0.0159640396734765 -0.011709563283739493 -0.055070641811685889 -0.034776452428093567 -0.00089768859694960173 -0.032668217683674311 0.023448231316523294 -0.049848771224024944 -0.006792436559635873 0.03979713864683241 -0.016143070486724729 0.0063343935407308097 -0.020014914989321814 -0.040989021844539515 0.084121420273437997 0.0072520608257665674 -0.064325812116453343 -0.026880220610549406
leaf_weight=72.612856284715235 303.36824287939817 4.3290817351080468 831.79148490261286 165.76697499927832 223.35275025357259 577.56581526124501 233.39193386479747 71.350508480856661 12.782736388500778 5.507192447432316 249.36223204043927 139.03307855292223 1037.7124003347999 507.93502288253512 160.29291377429035 206.01456404710189 65.065423382358858 556.3215984411072 916.89195809105877 749.83071408144315 1020.3011846816225 489.98556368937716 213.89691151247825 132.98724603746086 271.56390317785554 1547.2829631166242 343.63602820309461 447.9127786756726 101.76981298159808 1005.8928296233062 4.5224901563487938 100.32769525237381 221.76577333459863 163.53810070799955 122.44394823751645 34.424250021809712 54.988376128603704 50.492886591237038 200.1491179485165 329.07707123516593 32.55332887545228 36.679882700555027 288.35029052366735 474.40492905405699 99.417986874381313 2.8834700584411612 155.10364652809221 4.5091696791350833 17.111006007529795
leaf_count=1008 1592 168 8488 4583 2467 22059 6370 2396 195 147 7464 3720 21320 7121 9549 6674 3115 5719 12929 11623 19979 9511 4112 1030 3285 17517 11480 6380 436 7566 206 1054 5848 13502 5691 1219 1958 416 12082 6325 237 378 4088 19209 4632 46 1475 16 172
internal_value=0 -0.0130697 0.00613456 0.00156882 -0.00736052 -0.00529029 -0.0104835 -0.0294474 -0.0314279 -0.040051 -0.00671259 0.00630335 -0.00506409 0.0118282 -0.030939 0.0014222 -0.0034619 0.00877499 0.0121907 0.00868647 -0.00223574 0.00327724 -0.00811732 0.0187903 -0.00135833 0.00685191 -0.0166636 0.00161952 0.015892 0.0195595 0.0100678 0.00538695 0.000208025 -0.0440059 -0.0390145 -0.0273419 -0.0154132 0.0166061 -0.0479181 0.0024096 0.0135942 0.00736827 -0.000661958 -0.022646 -0.0236488 -0.0104795 0.0177888 0.023097 0.0111067
internal_weight=0 4810.18 10248.1 5687.39 3566.82 3278.92 1848.67 1243.36 1184.02 597.413 2068.78 3618.6 1271.1 4560.69 287.894 1430.25 1559.38 2604.12 1606.2 2760.09 1494.31 997.921 419.911 689.309 858.51 2297.11 509.403 719.477 1956.57 1107.66 59.3445 1010.34 1244.95 526.063 362.525 156.868 127.601 55.0154 205.656 786.988 169.561 137.008 617.427 586.606 573.823 224.649 462.981 307.877 848.902
internal_count=298557 147462 151095 98123 87599 75084 49749 59863 59073 35037 52515 45608 27690 52972 12515 25335 36452 36310 19678 32223 33337 16632 10786 6749 13385 29140 16063 9665 16662 8002 790 14549 25873 32641 19139 6910 2966 622 12229 12082 1669 1432 10413 24036 23841 5894 3083 1608 8660
is_linear=0
shrinkage=0.05


Tree=10
num_leaves=50
num_cat=0
split_feature=13 8 17 12 9 3 2 0 9 2 3 2 17 3 8 2 5 12 5 2 8 10 2 12 0 2 17 2 0 2 4 13 4 2 2 10 3 12 16 5 14 16 0 6 2 4 2 0 12
split_gain=446.199 159.115 105.248 80.6753 74.3682 45.104 40.8758 37.4256 31.4708 35.1959 27.819 24.4664 22.2875 21.4597 21.0443 20.9456 19.5838 18.8391 17.6867 16.5439 15.1938 14.4285 15.3111 13.8874 15.7825 13.3206 14.7165 12.8649 12.259 16.129 12.0229 11.183 11.8038 11.1653 11.0241 12.1818 10.9203 10.9022 20.7456 12.7127 10.8256 10.7761 10.608 10.5368 10.9959 10.3319 14.7021 10.1413 12.2382
threshold=27.500000000000004 12.405882352941179 18.824348500000003 5.8397435897435903 2.5000000000000004 12.500000000000002 1.5000000000000002 10.449500000000002 14.500000000000002 6.5000000000000009 25.500000000000004 10.500000000000002 23.036999000000005 12.500000000000002 51.809090909090919 3.5000000000000004 6.5000000000000009 17.369318181818183 6.5000000000000009 12.500000000000002 1.9500000000000002 75.500000000000014 11.500000000000002 4.7182539682539693 22.404449500000002 11.500000000000002 33.07874850000001 16.500000000000004 13.481600000000002 9.5000000000000018 1.5000000000000002 18.500000000000004 64.500000000000014 14.500000000000002 8.5000000000000018 16.500000000000004 7.5000000000000009 1.3541666666666667 15.857523360557872 5.5000000000000009 37.165266164837455 35.868828766262546 1.0000000180025095e-35 29.577600500000003 15.500000000000002 5.5000000000000009 2.5000000000000004 14.547100000000002 2.2111111111111117
decision_type=2 2 2 2 2 2 2 2 2 2 2 2 2 2 2 2 2 2 2 2 2 2 2 2 2 2 2 2 2 2 2 2 2 2 2 2 2 2 2 2 2 2 2 2 2 2 2 2 2
left_child=1 4 3 11 15 -6 42 34 9 20 23 13 19 -2 16 30 21 18 -9 -12 45 22 -5 -4 33 -14 27 -27 -18 -30 36 -22 -33 -25 35 -8 -1 -10 -39 -40 -41 -28 -3 44 -43 -7 -47 48 -15
right_child=2 6 10 14 5 8 7 17 37 -11 12 -13 25 47 -16 -17 28 -19 -20 -21 31 -23 -24 24 -26 26 41 -29 29 -31 -32 32 -34 -35 -36 -37 -38 38 39 40 -42 43 -44 -45 -46 46 -48 -49 -50
leaf_value=0.05739091324047927 0.017709604758824469 -0.069257335917761592 0.017731027784292017 -0.014482863819759557 0.0069841245377504401 0.015886700804240921 -0.040766096874859187 -0.027778901866992278 0.0071902153347852037 -0.021713155713847455 0.0057964183486474887 -0.0038946662939960451 0.017669744186244587 0.0072242260910612343 -0.033132026785305885 -0.041260999142532333 -0.016542145655395097 -0.03867464087243698 -0.0048060393034132249 -0.0072001935527569259 -0.0156093426674944 -0.0036293778028918819 -0.038999996475644949 0.0025492987228349709 0.013373939995624962 0.0081286756021771971 -0.0093852207380344579 -0.0056888302793844719 0.011444726767516275 -0.0045568666639217948 -0.026478856977414585 0.021924310345279953 -0.023543810886268515 -0.031412877819664418 -0.050229824211612789 -0.018066826605024296 -0.0061795373772204803 -0.017984042278427481 -0.0082326337637059176 0.01667270954471765 -0.00031464995718680878 0.054560846809383348 0.017345372399129269 0.012782251525937968 0.021597729612000328 0.016965492764013639 -0.011771388937933771 0.0083948070545464097 -0.004940888146710903
leaf_weight=8.165706202387808 425.94463550881483 3.7907044338062397 1428.2336145963054 389.9504726597952 589.36420967336744 97.615092461463064 255.53403400810203 158.27467510203132 229.90834488987457 673.93460934472387 858.19753373996355 582.18192235671449 514.95483152684756 411.78626553958748 82.073780560720479 190.74712019736762 125.86639689351432 120.28543768006784 178.01637383020716 342.61417233047541 356.35218319651904 251.64648155857867 76.109572255198145 195.70070857694373 804.44697239948437 770.18818688299507 34.240472802659497 215.61602759908419 226.79329421371222 515.25865492911544 87.730109550408088 43.445482764276676 21.25866903050337 27.615061194170266 206.29016461310675 76.89065447577741 39.121175788110122 233.88205960887717 363.97143391141435 126.98730360355694 358.71482890076004 36.814228480216116 52.623352715279907 185.53232607571408 80.888566245092079 62.005318312905729 157.72610159311444 1136.2126342844567 415.1901657350536
leaf_count=63 2877 158 10773 12742 7732 1101 13825 6694 3688 26077 11873 10366 5485 4898 4188 12001 3714 7315 5927 7259 10441 6744 3558 2395 7894 10687 874 3581 3642 12028 2635 744 577 454 15960 2432 664 6214 8930 2386 6962 381 525 2816 923 916 3495 13888 7055
internal_value=0 -0.0127466 0.0059024 0.000356688 -0.0077983 -0.00555826 -0.0298774 -0.0322242 -0.00827013 -0.0134512 0.0105842 0.00529652 0.00738603 0.00753622 -0.00844454 -0.0305943 -0.00716668 -0.0216924 -0.0156182 0.00208824 -0.00591052 -0.0132773 -0.0184866 0.0145416 0.0101094 0.0108468 0.00819161 0.0051065 -0.00211365 0.000333699 -0.0155248 -0.0121371 0.00698567 -0.00165044 -0.0411502 -0.0355157 0.00479809 -0.00269908 -0.00479739 -0.00116761 0.00412671 0.0172036 0.0115262 0.0202059 0.0319077 0.00235099 -0.00366222 0.00532894 0.00111663
internal_weight=0 4692.64 10134.1 4639.01 3640.93 3315.17 1051.71 995.291 2725.8 1412.34 5495.04 2971.32 3039.05 2389.13 1667.7 325.764 1585.62 456.576 336.291 1200.81 738.403 717.707 466.06 2456 1027.76 1838.23 1323.28 985.804 867.918 742.052 135.017 421.056 64.7042 223.316 538.715 332.425 47.2869 1313.46 1083.56 849.674 485.702 337.476 56.4141 303.235 117.703 317.347 219.731 1963.19 826.976
internal_count=298557 147462 151095 85700 94626 79263 52836 52153 71531 43351 65395 39084 43879 28718 46616 15363 42428 19936 12621 19132 17274 23044 16300 21516 10743 24747 19262 14268 19384 15670 3362 11762 1321 2849 32217 16257 727 28180 24492 18278 9348 4994 683 4120 1304 5512 4411 25841 11953
is_linear=0
shrinkage=0.05


Tree=11
num_leaves=50
num_cat=0
split_feature=13 12 8 9 17 0 12 16 2 12 16 2 13 3 17 18 12 2 3 16 2 0 12 2 0 5 10 11 10 5 9 17 3 18 5 8 5 2 6 0 0 14 3 6 12 8 8 3 5
split_gain=409.582 170.811 64.7525 60.2178 50.954 46.6462 39.3301 37.8362 30.7736 27.6175 41.3889 20.9732 19.4938 25.3881 19.1739 18.9717 17.4104 16.9017 16.5287 15.3215 31.6797 14.4483 14.2221 14.2159 13.2267 12.8596 12.8431 12.7389 11.6438 11.6111 16.2501 11.3405 19.215 11.094 11.0325 10.6543 10.2371 10.2034 10.9495 10.1566 9.9024 12.3545 9.8082 9.73159 10.9207 9.90846 9.69848 9.5612 9.54413
threshold=40.500000000000007 7.4833333333333343 26.031250000000004 2.5000000000000004 1.0000000180025095e-35 20.014750500000002 2.4083333333333337 20.611096951321773 8.5000000000000018 607.50000000000011 17.967661629826249 3.5000000000000004 16.500000000000004 21.500000000000004 17.266948500000002 9.9177500000000016 3.1742424242424243 8.5000000000000018 28.500000000000004 39.796635721509581 12.500000000000002 9.876649500000001 12.408333333333335 5.5000000000000009 23.699600000000004 6.5000000000000009 3.5000000000000004 14.150555555555558 75.500000000000014 6.5000000000000009 31.500000000000004 15.395250000000003 9.5000000000000018 9.5858995000000018 7.5000000000000009 46.845238095238102 4.5000000000000009 7.5000000000000009 17.156448500000003 9.9496500000000019 17.841100000000004 72.776666309606739 11.500000000000002 37.372598500000009 3.3166666666666669 4.6076923076923082 1.4142857142857144 44.500000000000007 7.5000000000000009
decision_type=2 2 2 2 2 2 2 2 2 2 2 2 2 2 2 2 2 2 2 2 2 2 2 2 2 2 2 2 2 2 2 2 2 2 2 2 2 2 2 2 2 2 2 2 2 2 2 2 2
left_child=1 3 5 11 42 8 12 17 16 10 26 33 13 23 35 -15 31 -8 28 20 27 -19 -12 -5 34 -18 -6 -7 -10 -23 39 32 -2 46 -9 -4 -21 -36 40 -31 -39 -42 -3 44 45 48 -1 -16 -22
right_child=2 4 14 6 9 19 7 24 18 -11 22 -13 -14 15 47 -17 25 21 -20 36 43 29 -24 -25 -26 -27 -28 -29 -30 30 -32 -33 -34 -35 37 -37 -38 38 -40 -41 41 -43 -44 -45 -46 -47 -48 -49 -50
leaf_value=-0.0047322782301961472 0.034741662140428224 -0.021913004176144779 -0.010667334682680935 0.0088045971179945611 -0.05692649985875007 0.018377510989237594 -0.0088540169717518762 -0.0069366193973835122 -0.0018324393800508215 0.0034522260517610469 -0.0084995526412199249 -0.041102931934578327 0.0071924810628824143 -0.022880537027978029 0.0064618692786978064 -0.00036721679016930771 -0.0029717933709787038 -0.036936916621279882 -0.0066613076405769942 0.011573651491410044 -0.020403578667651724 -0.026536846907187602 -0.021856463614397234 -0.0057685748037804765 0.015354469169980858 0.012593748331124401 -0.030830157288901417 0.010453855026981729 0.0086927952618182543 0.052881108240743102 0.013061018757031665 0.021385896969616434 0.0056325509789824334 0.051738187191272045 0.026463226273379811 -0.031258060027173483 0.020524312875067535 -0.0050779600917520056 -0.039395805540440115 -0.019158376051728283 0.017813526409193561 -0.029188786350538634 -0.045099604561337367 0.047226545336429768 0.00050858842972723874 0.023080331218559211 -0.035429214144319633 -0.013625925011794979 0.018379061692798928
leaf_weight=69.072539856191725 65.035898451460525 54.878737695253221 294.2921907590935 416.85165967559442 54.297843389271293 832.58433436683845 715.5071436536382 626.03959215543 534.61789079486334 123.17397958785295 424.77816524071386 141.59910300836782 918.48406679823529 215.42889824009035 243.73663171833323 165.43952561460901 365.14750507724239 108.81932487804443 680.32205201499164 590.00851390883327 32.809571386314929 164.40413439483382 375.43638834403828 279.57721611426678 110.59266294341069 208.43298720545135 357.97362030082149 1298.1270000517834 516.75286421936471 5.0408502421341828 60.705357842962258 320.26938965276349 441.88945957541 6.3624021301511666 44.178796826978214 79.874269789317623 696.63350656139664 174.25376309838612 16.053004192188382 166.44616858148947 127.62269074213691 15.70064097130671 270.03143574271235 12.388895526528357 930.69345451961271 111.71524152788334 41.00654521852266 78.254941615858115 30.713939278386533
leaf_count=1142 291 2504 8460 4245 4262 7608 18698 14327 9640 2180 13808 9196 12488 6722 4405 3781 7602 5554 14032 7395 461 5234 16246 6351 1867 2443 17792 14805 5855 84 885 2933 4700 57 553 3970 6778 3829 335 5651 1739 264 18985 167 13160 1126 1687 1983 277
internal_value=0 -0.00968363 0.00723555 -0.00471133 -0.0234252 0.00856109 -0.00331333 -0.00771797 0.00386852 -0.0191054 -0.021397 -0.0281764 0.00184076 -0.00272203 -0.00736518 -0.0131013 0.00937872 -0.0137984 -0.000588709 0.0118019 0.00997318 -0.020798 -0.0147662 0.00295428 -0.00105662 0.00268456 -0.0342672 0.0135501 0.00334075 -0.0163697 -0.00917084 0.0140205 0.0093671 -0.0124571 -0.00286461 -0.0150629 0.0164199 0.00388283 0.000892764 -0.0170408 0.00292929 0.0126646 -0.0411833 0.00315823 0.00266456 0.0141149 -0.0161675 0.00157985 -0.00165198
internal_weight=0 6249.76 8364.3 4589.19 1660.57 7668.14 4331.15 2335.36 3132.47 1335.66 1212.49 258.041 1995.78 1077.3 696.158 380.868 1400.78 1220.92 1731.69 4535.67 3249.03 505.416 800.215 696.429 1114.44 573.58 412.271 2130.71 1051.37 396.597 232.192 827.195 506.925 116.441 1003.85 374.166 1286.64 377.809 333.63 171.487 317.577 143.323 324.91 1118.32 1105.93 175.239 110.079 321.992 63.5235
internal_count=298557 180466 118091 104689 75777 99273 92607 59020 47496 54288 52108 12082 33587 21099 18818 10503 17969 36106 29527 51777 37604 17408 30054 10596 22914 10045 22054 22413 15495 11854 6620 7924 4991 2886 21047 12430 14173 6720 6167 5735 5832 2003 21489 15191 15024 1864 2829 6388 738
is_linear=0
shrinkage=0.05


Tree=12
num_leaves=50
num_cat=0
split_feature=13 12 17 12 9 2 16 2 18 3 9 2 17 3 3 8 2 5 17 16 2 12 2 0 12 10 2 2 17 6 4 17 14 13 18 8 13 11 10 3 2 8 10 2 3 5 18 8 11
split_gain=378.782 134.891 93.7512 67.4171 48.3993 35.2399 38.9399 28.9105 27.4293 23.5465 22.9071 20.8296 19.0116 21.3369 18.6659 18.2998 17.7044 17.4185 17.3046 14.976 24.8486 14.6821 14.4052 14.3062 13.8783 13.0192 14.3986 11.914 13.2463 12.32 20.2211 14.8166 11.5386 10.5636 10.5234 10.0691 9.93593 9.9621 9.87981 9.8051 9.26782 12.2953 9.06538 9.22487 10.3207 9.0453 8.86426 8.68552 8.67391
threshold=27.500000000000004 7.912878787878789 18.824348500000003 5.8397435897435903 2.5000000000000004 6.5000000000000009 15.41432841731273 1.5000000000000002 11.633300000000002 32.500000000000007 18.500000000000004 10.500000000000002 10.051250000000001 21.500000000000004 12.500000000000002 4.7596153846153859 3.5000000000000004 6.5000000000000009 23.036999000000005 35.868828766262546 11.500000000000002 3.2613636363636371 10.500000000000002 14.279899500000001 21.757352941176475 11.500000000000002 9.5000000000000018 12.500000000000002 26.877398500000002 25.551299000000004 151.50000000000003 26.877398500000002 36.777343829874333 62.500000000000007 9.5858995000000018 3.4330357142857149 81.500000000000014 16.050715488215491 104.50000000000001 11.500000000000002 3.5000000000000004 0.55000000000000016 53.500000000000007 6.5000000000000009 33.500000000000007 4.5000000000000009 8.4003990000000019 15.837719298245617 7.0009157509157527
decision_type=2 2 2 2 2 2 2 2 2 2 2 2 2 2 2 2 2 2 2 2 2 2 2 2 2 2 2 2 2 2 2 2 2 2 2 2 2 2 2 2 2 2 2 2 2 2 2 2 2
left_child=1 4 3 11 16 12 35 -3 15 18 -8 14 13 40 -2 -9 34 24 21 20 -11 48 23 -19 33 39 45 29 -29 -20 31 -31 -12 -5 -1 46 37 -24 -34 -17 -6 -42 43 -16 -45 -27 -7 -10 -4
right_child=2 7 9 17 5 6 10 8 47 19 32 -13 -14 -15 42 25 -18 22 27 -21 -22 -23 36 -25 -26 26 -28 28 -30 30 -32 -33 38 -35 -36 -37 -38 -39 -40 -41 41 -43 -44 44 -46 -47 -48 -49 -50
leaf_value=-0.017383051576818385 0.016445781801264853 0.007305883991867124 0.02733063448449807 -0.017597116191126493 0.010202773362011822 -0.025520468352700929 -0.012857156297530823 -0.0075876606138481299 -0.0058221092588657871 0.0076134467025552035 0.011832336530608868 -0.0039122630131099871 0.0070691731279097633 -0.016373133996606296 0.0064672295952317854 -0.018822951124853268 -0.040001360735372297 -0.011698368546501976 0.022979685085008163 0.00970775820396815 -0.009867872453925175 0.0057439718256054708 -0.00049682404439308251 0.0084162764457012314 -0.033184554698345643 -0.03474860053196463 -0.040397479892845804 0.0054400061548887588 0.016428447994127286 -0.02412399810294329 0.035840654804447106 0.010705580705018005 -0.006369001850934277 -0.0047471993889703157 0.04422542831958165 -0.028035190203054835 0.00036134459694604114 -0.02108373176048146 0.011142204418554113 -0.043764773406440222 -0.070340770277991002 -0.0024730636639745365 0.008002875931273792 -0.00095240682263380378 -0.023783827532068553 -0.012794396677059656 -0.0036238725120537095 -0.024920632940968617 0.011941169738364713
leaf_weight=104.81599108374212 411.99603693262907 58.725370225030929 125.95438096811995 327.91457857690693 186.40287979110144 81.919678373262286 567.96294234017842 65.352196859021205 140.04053049710637 481.44103516498581 173.80939192790538 564.87691697906121 634.13376605365193 256.79260546551086 431.99819357716478 44.049929729197174 139.12611280599958 121.22386697854381 662.61559934297111 834.72067713213619 351.83503841643687 1284.5616215316404 82.089437197777443 326.43912997178268 81.939157805682044 69.460220036038663 143.32927533614566 460.70535207551438 677.69950277928729 47.785441669169813 48.606678866082802 84.581572181545198 423.46074801014038 312.21917190286331 7.4221489968476808 288.75958879268728 157.98341215669643 206.80440910893958 99.468639014521614 373.5670769479766 6.8324515544809392 286.7900017562788 1006.3850181565795 434.32050970595446 55.863847708678804 144.55824842047878 106.06013687211089 103.54706657335919 335.30418521026149
leaf_count=2908 2877 790 885 11727 2199 2973 18201 1925 4817 6593 3343 10366 9976 8509 6387 2116 9549 3279 5191 12995 8283 16015 1956 5646 4262 3507 9247 4909 5940 420 431 712 9506 8819 58 12000 3857 7070 1197 27194 109 4542 11416 6622 1416 5337 2577 4882 3021
internal_value=0 -0.0120202 0.00546164 0.000151456 -0.00697841 -0.00527397 -0.00999456 -0.0268627 -0.028714 0.00991194 -0.00540407 0.00470536 0.000722329 -0.00474001 0.00678516 -0.0329964 -0.0280828 -0.008033 0.0121213 0.00497413 0.000232291 0.00849161 -0.00337003 0.00296938 -0.0138097 -0.0351391 -0.0281332 0.0153186 0.0119815 0.0198219 0.00825984 -0.00186815 0.000671484 -0.0113297 -0.013309 -0.0221723 -0.00972058 -0.0152339 -0.00303812 -0.0411339 0.00148321 -0.00405231 0.00472138 0.00114026 -0.00355439 -0.0199197 -0.0131662 -0.0139407 0.0161435
internal_weight=0 4506.39 9917.86 4522.05 3363.76 3112.39 1741.44 1142.63 1083.9 5395.81 1264.7 2905.44 1370.95 736.818 2340.56 840.317 251.364 1616.61 3727.81 1668 833.276 1745.82 894.54 447.663 722.073 774.965 357.348 1981.99 1138.4 843.589 180.974 132.367 696.739 640.134 112.238 476.739 446.877 288.894 522.929 417.617 480.025 293.622 1928.57 922.183 490.184 214.018 187.98 243.588 461.259
internal_count=298557 147462 151095 85700 87647 75132 49797 59815 59025 65395 32247 39084 25335 15359 28718 49326 12515 46616 37524 27871 14876 19921 21808 8925 24808 47401 18091 17603 10849 6754 1563 1132 14046 20546 2966 17550 12883 9026 10703 29310 6850 4651 25841 14425 8038 8844 5550 9699 3906
is_linear=0
shrinkage=0.05


Tree=13
num_leaves=50
num_cat=0
split_feature=17 17 2 2 8 13 3 0 10 9 12 3 3 17 9 2 3 3 3 17 2 12 5 17 5 14 3 10 3 8 3 0 8 16 10 4 5 2 8 11 10 11 0 17 11 10 2 16 12
split_gain=358.432 146.658 92.1719 70.2557 46.5471 40.6147 32.8633 31.2557 31.0092 29.4808 27.4937 22.9151 16.8411 16.484 14.8245 14.6661 14.0317 13.9404 13.5721 13.5041 19.5634 13.3992 13.2077 16.5982 12.9884 12.8944 13.0078 10.9934 11.7548 10.9248 10.6963 10.4973 10.2381 15.9913 10.167 9.96379 9.47751 11.7882 10.6734 10.1236 9.85374 11.8112 10.3453 9.69719 9.20057 9.741 9.16321 8.89004 9.6136
threshold=15.974900000000002 8.2118500000000019 9.5000000000000018 5.5000000000000009 3.1742424242424243 57.500000000000007 22.500000000000004 12.613650000000002 29.500000000000004 5.5000000000000009 7.6770833333333348 32.500000000000007 19.500000000000004 23.036999000000005 43.500000000000007 8.5000000000000018 32.500000000000007 27.500000000000004 43.500000000000007 25.674100000000003 13.500000000000002 17.023809523809529 3.5000000000000004 7.1268495000000014 5.5000000000000009 154.7903598871732 12.500000000000002 16.500000000000004 51.500000000000007 1.9500000000000002 12.500000000000002 17.432749500000003 3.8452380952380958 30.346012675308348 69.500000000000014 85.500000000000014 1.0000000180025095e-35 12.500000000000002 3.2613636363636371 33.780501411767652 216.50000000000003 26.333796296296303 27.359751000000003 26.250550500000003 22.825879629629636 72.500000000000014 7.5000000000000009 33.629244527279475 2.6125000000000003
decision_type=2 2 2 2 2 2 2 2 2 2 2 2 2 2 2 2 2 2 2 2 2 2 2 2 2 2 2 2 2 2 2 2 2 2 2 2 2 2 2 2 2 2 2 2 2 2 2 2 2
left_child=1 3 4 6 25 10 22 27 18 30 12 13 -2 15 21 -7 -10 -17 -4 20 32 -11 -1 -24 -9 26 -3 -6 -29 -8 -5 -12 -13 -34 -18 44 39 40 -39 -15 -38 42 -42 -40 45 -35 -21 48 -26
right_child=5 2 8 9 7 11 29 24 16 14 31 19 -14 36 -16 17 34 -19 -20 46 -22 -23 23 -25 47 -27 -28 28 -30 -31 -32 -33 33 35 -36 -37 37 38 43 -41 41 -43 -44 -45 -46 -47 -48 -49 -50
leaf_value=0.0029366829748136303 0.011738426836151443 0.012679913321151304 -0.02117453618378011 -0.02374502684767953 -0.020126215240762801 0.017300385088731288 -0.0092517282180072415 -0.0057191479161163433 -0.0059880174649457156 -0.021826897665318555 -0.02419954462633048 0.016170964307599792 0.0010090741914960187 -0.0018168391679330492 -0.0067437026794134177 0.0090000408609714408 -0.028067064575526268 -0.0026306043806619303 -0.048997274171921942 0.074289980716814613 -0.01455654549212488 -0.041356865309308127 -0.027681927729933942 0.0072396423934410516 0.021219853573911852 0.037090155238841599 0.0028134237853434971 -0.0061512645707366585 -0.035178594686025688 -0.030125647106530703 -0.048522286882605313 -0.0055142204103385507 -0.0070940230049201239 -0.013335417904824898 -0.0076203534426616051 0.0027418282197187922 0.023526901320749981 -0.060662895878992977 0.0060337727533746723 0.046519174087380474 0.0073940586241764252 0.029419861835570296 -0.040759929243046861 0.016766489088172961 0.053882068541433771 0.023379850372479135 0.0097008233970958049 0.045353741059329669 0.0020999742512146104
leaf_weight=318.43835678999312 532.331628681859 489.75836337241344 523.49645095090091 52.378531673864927 286.50643979210872 405.9154721404193 88.857978243671823 465.60012542386539 832.64979963796213 241.2856301839347 100.36072400660487 147.4505423347 1168.6180984060047 120.31814904254861 93.877302743232576 1281.2521640737396 145.11252176109701 322.48068594829238 47.83673000743147 5.5364457601681343 166.80189231096301 138.08529560915485 94.789185013331007 53.080349626892712 74.755400268826634 33.976578166242689 1050.7486444017268 523.16118145023938 37.368423607782461 212.7881075074838 258.6587672525784 299.39713854249567 291.29033410758711 23.627032898832113 104.63782114288188 231.58113076718291 615.26161580567714 4.9114503399468949 313.66869291407056 11.904454314615576 29.284423323348165 29.375745831988752 18.015317288227379 639.60969398962334 17.650753539055586 76.747749017551541 672.13043179397937 13.543823315179905 545.38505309991888
leaf_count=5510 7273 3848 21875 3090 11763 4061 2187 12099 19059 10016 3675 1671 21725 1289 2993 15206 6381 5243 3146 41 4182 8791 2779 812 869 234 16486 12320 1277 10544 22281 8319 5408 381 3070 4076 4180 52 3178 109 200 238 143 5121 143 945 10287 229 9752
internal_value=0 -0.00838679 -0.00434325 -0.0218663 0.000230217 0.00749664 -0.0111165 -0.00494057 -0.0140802 -0.0323923 0.00159391 0.00978241 0.00436695 0.0119148 -0.0245334 0.00881025 -0.00910586 0.00666134 -0.0235041 0.00483015 0.00100008 -0.0289355 -0.00279753 -0.0151462 0.000621332 0.00662217 0.00595018 -0.0121588 -0.00808641 -0.0239767 -0.0443498 -0.0102052 0.00429162 0.00155855 -0.0195005 0.00876782 0.0154153 0.0164474 0.0128562 0.00253502 0.0214205 0.0045185 -0.0109466 0.013235 0.0205916 0.0147375 0.0102285 0.00528001 0.0044048
internal_weight=0 6726.78 5174.54 1552.24 3520.8 7525.52 767.954 1946.32 1653.73 784.286 2100.71 5424.81 1700.95 3792 473.248 2009.65 1082.4 1603.73 571.333 1632.82 955.149 379.371 466.308 147.87 1099.28 1574.48 1540.51 847.036 560.53 301.646 311.037 399.758 788.348 640.897 249.75 349.607 1782.35 1650.13 958.19 132.223 691.937 76.6755 47.2997 953.278 118.026 100.375 677.667 633.684 620.14
internal_count=298557 191411 122408 69003 68877 107146 21832 48309 53531 47171 40992 66154 28998 39020 21800 24510 28510 20449 25021 27134 16806 18807 9101 3591 22949 20568 20334 25360 13597 12731 25371 11994 12624 10953 9451 5545 14510 13112 8351 1398 4761 581 343 8299 1469 1326 10328 10850 10621
is_linear=0
shrinkage=0.05


Tree=14
num_leaves=50
num_cat=0
split_feature=17 8 0 2 17 10 2 2 9 2 3 3 2 3 9 2 0 0 5 16 2 10 3 12 16 3 17 3 15 2 3 10 2 7 5 16 16 11 9 12 5 8 7 4 12 5 4 17 12
split_gain=338.366 132.703 91.8366 44.2439 41.916 35.5552 33.4023 29.0077 30.0571 25.2111 23.0611 19.6605 19.5411 18.802 18.7317 18.2803 18.8186 17.0012 15.1359 15.2063 15.0063 14.644 14.254 14.1359 13.4749 13.3668 12.5587 12.4106 12.9455 12.3307 11.9206 11.6872 11.4166 14.3058 11.2397 11.1994 10.8026 10.6285 10.5365 9.75971 14.388 9.75412 9.72997 15.6213 9.40098 11.1983 9.19128 9.11172 9.03293
threshold=15.974900000000002 6.1455026455026465 10.797600000000001 9.5000000000000018 23.036999000000005 18.500000000000004 12.500000000000002 1.5000000000000002 5.5000000000000009 10.500000000000002 16.500000000000004 21.500000000000004 7.5000000000000009 28.500000000000004 22.500000000000004 14.500000000000002 30.677849500000004 9.6643000000000026 6.5000000000000009 33.629244527279475 8.5000000000000018 25.500000000000004 18.500000000000004 1.8090909090909093 35.379880941470738 69.500000000000014 17.532549500000005 49.500000000000007 23.500000000000004 7.5000000000000009 21.500000000000004 77.500000000000014 3.5000000000000004 11.809854497354499 1.0000000180025095e-35 23.456179436633871 31.700939414501164 11.201190476190478 3.5000000000000004 7.6770833333333348 8.5000000000000018 675.66666666666674 49.948892904383982 5.5000000000000009 3.035714285714286 4.5000000000000009 325.50000000000006 21.679249500000001 11.449494949494952
decision_type=2 2 2 2 2 2 2 2 2 2 2 2 2 2 2 2 2 2 2 2 2 2 2 2 2 2 2 2 2 2 2 2 2 2 2 2 2 2 2 2 2 2 2 2 2 2 2 2 2
left_child=1 3 7 5 6 11 10 41 -9 18 -2 23 39 47 -11 30 27 -5 21 -20 44 29 32 42 -15 26 48 28 -17 -4 34 -24 33 -7 -6 -28 -30 -16 -13 -10 -41 -3 43 -1 -12 -46 -39 -8 -22
right_child=4 2 9 17 15 22 13 8 12 14 20 38 -14 24 37 16 -18 -19 19 -21 25 -23 31 -25 -26 -27 35 -29 36 -31 -32 -33 -34 -35 -36 -37 -38 46 -40 40 -42 -43 -44 -45 45 -47 -48 -49 -50
leaf_value=0.012523772509528694 0.015119688715755001 -0.062600570433166872 -0.010415026778746818 -0.031156920287798408 -0.003768148558634268 -0.072438318428654211 -0.0013795404021839999 -0.041158887541937826 -0.0061142953820850577 -0.029496310363809699 0.016897203385208705 -0.029797529624809319 -0.032649475842887674 -0.017678021623548031 0.00601057243495365 -0.018557585995080415 0.013314248207821441 -0.0098158505450117693 -0.0016866507350168942 0.032977651102280306 -0.0021417749818869246 -0.005810816769332169 -0.0011273559721463764 -0.010480605922790357 0.0024374873756522857 -0.040902762072868692 -0.0072092430903439256 -0.021287120198533505 -0.0075633334823672158 -0.0347688650144641 0.012193021665382192 0.013752835145362415 0.0092037773450331269 0.043355854250976225 0.022810497727226976 0.0063500125528804605 0.010279421205140143 -0.015356371399761218 -0.010247615689385823 -0.032506767677760694 0.0032807575239208911 0.012137988760421341 0.025112296354786786 -0.0055665649529044502 -0.0054098384046961248 0.012826829098003315 0.068809797467683911 0.012758040473281523 -0.024184470148401735
leaf_weight=196.50592126941774 647.44400222634431 4.7486239005811504 112.8783351375605 114.81935463933041 43.050239948788658 2.8565986240282646 529.84454884636216 373.88781840729644 164.51023421442369 214.45418454048922 338.1772169576725 87.134425491851289 282.18478801101446 291.52838480076753 70.997802561731078 62.150479212868959 543.79130235000048 498.45478393236408 581.97385430114809 33.455860243644565 355.49147994961822 486.7278190444631 758.18177663523238 264.09319936155225 116.53275036066771 17.685822401428595 171.42498228978366 59.524823823885527 113.38279391929973 96.330604828137439 1401.5831684994046 159.76339088589884 727.5487202394288 40.259236039128155 523.12141113146208 1364.1411463588447 336.84974890219746 460.41716362991428 329.7017789487727 114.19226320821326 37.245481331483461 54.114987059030682 47.965017429320142 303.86414780956693 145.08497291314416 200.52240967733087 3.2667166874743989 145.20314369350672 53.467505124746822
leaf_count=2028 6750 277 4120 6592 474 37 8555 27972 4542 11013 3724 3960 15156 8676 1585 1308 6668 13630 14016 614 7147 13801 12613 7292 2770 577 3032 1567 1707 4492 16629 1556 7519 308 3697 20300 3955 15176 9902 5789 1061 547 570 5149 3179 2874 94 1786 1771
internal_value=0 -0.00822584 -0.0157903 -0.0016034 0.0073024 0.000962456 0.00415651 -0.0279741 -0.0300381 -0.00969469 0.00666148 -0.00550644 -0.0230866 -0.00346044 -0.0170122 0.0117676 0.00665481 -0.0138114 -0.00551449 0.000197763 0.00459186 -0.0105659 0.00567165 -0.000977107 -0.0119335 0.00236906 0.00276263 0.000322768 0.00283324 -0.0216288 0.0146664 0.00146246 0.0106852 0.035684 0.0207895 0.00483631 0.00578605 -0.0120049 -0.0143343 -0.0145457 -0.023705 0.00610871 0.00360004 0.00153789 0.0109705 0.00517113 -0.0147634 0.00166146 -0.00502365
internal_weight=0 6622.53 3091.39 3531.15 7460 2917.87 4376.55 1030.88 972.021 2060.5 3293.44 1229.26 598.133 1083.11 749.136 3083.45 1115.7 613.274 1311.37 615.43 2646 695.937 1688.61 812.428 408.061 1962.21 1944.53 571.908 512.383 209.209 1967.75 917.945 770.665 43.1158 566.172 1535.57 450.233 534.682 416.836 315.948 151.438 58.8636 548.335 500.37 683.785 345.607 463.684 675.048 408.959
internal_count=298557 191411 120255 71156 107146 50934 71141 55344 54520 64911 49354 28901 26548 21787 27868 36005 15205 20222 37043 14630 42604 22413 22033 15039 11446 32827 32250 8537 6970 8612 20800 14169 7864 345 4171 23332 5662 16855 13862 11392 6850 824 7747 7177 9777 6053 15270 10341 8918
is_linear=0
shrinkage=0.05


Tree=15
num_leaves=50
num_cat=0
split_feature=17 8 13 17 2 0 2 17 2 8 3 3 2 9 2 17 12 10 12 3 17 14 2 5 14 7 8 8 3 2 16 3 10 5 6 16 5 8 3 16 3 17 15 10 16 16 16 18 17
split_gain=315.942 109.682 82.4911 59.3565 48.2405 37.7503 29.6332 22.5144 22.4205 21.4129 17.8962 17.551 17.1783 16.5461 20.226 18.8605 16.3229 15.5079 14.6866 14.2945 14.1538 14.0975 13.9527 13.8349 12.6246 13.0684 11.7611 13.6409 11.7196 11.4806 11.0154 12.9615 10.9833 10.9541 10.9318 10.8873 10.8451 10.6668 10.627 10.3531 10.308 10.203 9.82979 10.3186 9.32512 9.25816 13.7697 9.14106 10.7278
threshold=14.122550000000002 3.3484848484848491 14.500000000000002 23.036999000000005 8.5000000000000018 17.188550000000003 6.5000000000000009 9.3188995000000023 9.5000000000000018 51.809090909090919 28.500000000000004 32.500000000000007 12.500000000000002 14.500000000000002 1.5000000000000002 6.926549500000001 6.026315789473685 71.500000000000014 3.035714285714286 9.5000000000000018 12.390500000000001 54.709659472009399 11.500000000000002 7.5000000000000009 92.014573895477824 18.429029304029307 3.5166666666666671 4.6794871794871806 7.5000000000000009 7.5000000000000009 40.653954380783503 55.500000000000007 45.500000000000007 2.5000000000000004 15.150549500000002 39.796635721509581 4.5000000000000009 675.66666666666674 4.5000000000000009 30.47916251968179 43.500000000000007 7.9880500000000012 47.500000000000007 117.50000000000001 21.961308331548285 14.93221036094956 15.732017154292338 12.670700000000002 12.005649500000002
decision_type=2 2 2 2 2 2 2 2 2 2 2 2 2 2 2 2 2 2 2 2 2 2 2 2 2 2 2 2 2 2 2 2 2 2 2 2 2 2 2 2 2 2 2 2 2 2 2 2 2
left_child=1 6 8 4 18 16 7 21 13 11 17 29 -5 14 37 28 34 44 33 38 -8 -1 -12 -23 25 45 -19 -28 -16 -4 31 -14 41 -2 -6 -24 -20 -3 -9 -38 -32 -31 43 -21 -7 -10 -47 48 -34
right_child=3 2 9 12 5 10 20 19 24 -11 22 -13 30 -15 15 -17 -18 26 36 42 -22 23 35 -25 -26 -27 27 -29 -30 32 40 -33 47 -35 -36 -37 39 -39 -40 -41 -42 -43 -44 -45 -46 46 -48 -49 -50
leaf_value=-0.0081849605638817709 0.0076825046820083653 -0.054616894722758061 0.0012230774287221476 0.015856621156104138 -0.002206292276728116 -0.017132706597064135 -0.016220817913373799 -0.021341133966384405 -0.037233078588448619 -0.033574197382054492 0.0029697119069692695 -0.016725846161253784 0.0054920831366825481 -0.007212865381967002 0.0028623178981371329 -0.018706576703264755 -0.017019250458603329 -0.010423247969236143 -0.0027921996059953793 0.0056378894600106616 0.0015085659850475244 0.014201844493964638 -0.011449942373545552 -0.044527305387863085 0.016855920317134718 -0.043651286387582158 0.020229191688912282 0.007301547552281646 -0.037500373073027587 -0.035160026253522679 0.014491566368405132 -0.025562149204105211 -0.0048870084660866163 0.019564409245421986 -0.029106475545975577 0.010449297803596156 0.006678450986958526 0.011162395009156563 0.027568855049819398 0.028261377933747736 0.0006215667348218474 -0.010947277317560242 0.05858636903768643 -0.069851365114757452 0.0018448814328678759 0.02481956700279301 -0.024216790923831954 -0.013574373679645105 0.014568832553598641
leaf_weight=459.34814019326586 316.36151018040255 6.9465840565972021 502.46193393040448 1270.6969216081779 646.83882922830526 70.60001271404326 352.47457373062207 12.157480370253323 83.337013721698895 82.022443795605795 542.67580515959708 398.4995385473012 843.08371138363145 188.46686226053862 19.123768514604308 387.5225265873305 351.92298076936277 72.680707294959575 268.49954341282137 661.72759155032691 165.39259292779025 132.73025826911908 436.09035567805404 10.847401888575403 11.656805077916941 231.3900684597902 266.24888694286346 873.51547299750382 301.81566075180308 48.366885069015552 766.06215814180905 34.995867025572807 190.92605598107912 501.41190334176645 40.109841909492388 65.246299334161449 351.85256072221091 54.638718449976295 128.39658238878474 65.983214653329924 162.34429631853709 433.201172256071 8.7093748021870834 4.5579767152667037 778.66861668773345 18.162610788131133 67.600533064687625 128.5539535098942 112.65870609153353
leaf_count=9148 3975 419 11929 12459 12442 1687 11428 103 6253 5166 10350 15014 11609 4944 707 16733 11729 725 6094 8849 2851 1685 11744 151 431 17966 2073 11462 19125 2835 7976 1195 4805 4808 873 1501 5132 547 726 854 2766 13361 60 50 13557 600 3288 2623 1749
internal_value=0 -0.0097511 -0.0153393 0.00581508 0.00277138 -1.21725e-05 -0.000321611 0.00341576 -0.024685 -0.00858562 0.00274769 -0.00745615 0.0114023 -0.0204917 -0.0237416 -0.0261308 -0.00826285 0.00544859 0.0104415 0.00883198 -0.0105585 -0.00391049 -0.00258602 0.00976481 -0.0344371 -0.0359301 0.00907789 0.0103214 -0.0350953 -0.00484772 0.00826913 0.00425442 -0.00818615 0.0149678 -0.00377695 -0.00859987 0.00504841 0.00374275 0.0233383 0.0100868 0.0120662 -0.0133791 0.00581133 0.00512148 0.000267268 -0.0253647 -0.013832 -0.00239921 0.00233295
internal_weight=0 5203.69 3267.35 8725.89 5648.71 4144.6 1936.34 1418.47 1370.66 1896.69 3105.73 1814.67 3077.18 958.514 770.047 708.462 1038.87 2061.71 1504.11 815.549 517.867 602.926 1044.01 143.578 412.147 400.49 1212.45 1139.76 320.939 1416.17 1806.49 878.08 913.707 817.773 686.949 501.337 686.335 61.5853 140.554 417.836 928.406 481.568 674.995 666.286 849.269 169.1 85.7631 432.139 303.585
internal_count=298557 163546 128495 135011 99006 78143 35051 20772 71013 57482 53099 52316 36005 42475 37531 36565 25044 29504 20863 9788 14279 10984 23595 1836 28538 28107 14260 13535 19832 37302 23546 12804 25373 8783 13315 13245 12080 966 829 5986 10742 16196 8959 8899 15244 10141 3888 9177 6554
is_linear=0
shrinkage=0.05


Tree=16
num_leaves=50
num_cat=0
split_feature=17 17 2 2 13 8 3 0 9 12 10 8 16 8 16 5 3 9 8 3 9 2 9 3 7 9 16 2 5 0 12 9 3 9 3 6 5 9 4 18 3 4 7 9 9 0 9 7 15
split_gain=296.651 116.247 76.3904 58.451 40.2093 35.7256 30.007 29.4029 24.34 23.8333 21.7418 16.9089 15.8493 13.6333 17.0128 12.388 13.0503 12.1496 12.8373 11.7978 11.4622 15.0868 10.8906 11.4242 10.8026 10.5302 10.2501 19.6747 10.2098 10.1262 9.52724 9.30591 9.21678 9.1878 9.03654 8.76167 8.6465 8.58546 8.87447 8.20963 8.17303 8.07195 15.7782 9.21874 8.05629 8.09295 7.9571 8.88519 7.85102
threshold=15.902850000000003 8.2118500000000019 9.5000000000000018 5.5000000000000009 57.500000000000007 3.1742424242424243 22.500000000000004 13.685500000000003 5.5000000000000009 2.7638888888888893 29.500000000000004 9.4472222222222246 39.796635721509581 15.510869565217392 28.315215898900281 6.5000000000000009 27.500000000000004 43.500000000000007 20.510000000000002 32.500000000000007 16.500000000000004 3.5000000000000004 51.500000000000007 12.500000000000002 19.811185185185192 37.500000000000007 28.162310088365945 8.5000000000000018 7.5000000000000009 23.229199500000004 3.3484848484848491 154.50000000000003 74.500000000000014 32.500000000000007 12.500000000000002 8.8386500000000012 7.5000000000000009 3.5000000000000004 82.500000000000014 7.159799500000001 45.500000000000007 43.500000000000007 18.801659451659457 56.500000000000007 19.500000000000004 19.435901000000005 55.500000000000007 47.312361111111123 95.500000000000014
decision_type=2 2 2 2 2 2 2 2 2 2 2 2 2 2 2 2 2 2 2 2 2 2 2 2 2 2 2 2 2 2 2 2 2 2 2 2 2 2 2 2 2 2 2 2 2 2 2 2 2
left_child=1 3 5 6 9 22 20 25 34 44 24 26 32 28 -15 16 -9 18 -10 31 21 -1 23 36 -4 -7 27 30 29 -11 -6 -12 -13 -17 -5 -30 -3 -8 -39 -23 -26 -29 -43 -44 -2 -46 47 -24 -28
right_child=4 2 10 8 11 7 37 15 17 13 19 12 -14 14 -16 33 -18 -19 -20 -21 -22 39 46 -25 40 -27 48 41 35 -31 -32 -33 -34 -35 -36 -37 -38 38 -40 -41 -42 42 43 -45 45 -47 -48 -49 -50
leaf_value=0.0020303098123924217 -0.0055144550486936868 0.013568148704567989 -0.015785785671643272 -0.022194963484510933 0.020987436298813587 -0.012167762227302042 -0.033593795800660797 0.0026978041329570939 -0.018379948052381717 -0.0065707840549523305 -0.0070644967155652121 0.0017982897095345691 0.010950247698531165 -0.037729194007430071 -0.0049825801852633137 0.0033156390379963682 -0.016209368198309978 -0.0068865610921137943 -0.037434482794608238 -0.019057103862708341 0.022437825401505223 -0.025854895591698703 0.014731404500977652 0.0012321929584722269 -0.026673200081148346 0.00176147125875183 0.012357106963965012 0.010520157435529068 0.025262093011423431 0.0064706260575283685 0.0040162555627301939 0.027687592991701371 -0.036857869107689067 0.019672339092754482 -0.045603325149009943 0.0030707258568609106 -0.0075834779875138302 -0.0028648426908714358 -0.025772206178647512 0.0009465442177900873 -0.056620736810562171 -0.064778200917788728 -0.011366560126761084 0.0040542065744908441 0.0062001243552150843 0.019754985914769131 0.01221060177144994 0.065534406598469624 0.028754954444037518
leaf_weight=272.04371699749026 69.68642163509503 392.30781130748801 319.82012876155204 49.905957629234763 277.43295901664533 899.55780837792554 113.94239907577867 295.83385154046118 192.81214007458766 677.58265830145683 768.49558959010756 1039.0963617668967 694.88751027698163 56.447998134361114 133.3828627091134 231.72431357798632 131.98332422540989 93.779470288951416 163.21811584901297 230.32245165092172 42.518234137882246 99.767087097512558 17.32029271312058 925.61328315187711 185.22039970161859 159.781913722225 2415.9717930533225 196.28371039219201 49.31820802250877 190.74900336237624 117.81264627724886 19.758864700997947 15.65218396426644 136.38436281052418 237.12236918628332 453.34427852567751 55.102609898196533 74.264634909748565 98.167738298128825 40.039344958495349 25.977798340492882 9.6480030007660371 133.88857105250645 350.97384259593673 226.82957941503264 214.01360124524217 103.02900778478943 17.107122959103435 75.268990030977875
leaf_count=4347 1572 3161 13391 3090 2178 28392 6031 6435 8217 15836 18485 19288 10325 2344 4136 4226 4188 2993 10590 9275 584 3446 154 15591 9463 3160 23110 2220 626 3471 1532 251 619 1575 22281 7865 553 2669 4031 724 2031 125 2091 4268 3304 2530 868 142 773
internal_value=0 -0.00788873 -0.00419206 -0.0201861 0.00681673 3.73629e-05 -0.0102677 -0.00461072 -0.0301571 0.000905489 -0.0133784 0.0091153 0.00508728 -0.00216189 -0.0147201 0.00265106 -0.00313513 -0.0228979 -0.0271153 -0.00910215 -0.00227837 -0.00483 0.00574642 0.0044031 -0.021581 -0.0100668 0.0110854 0.00703178 -0.000423056 -0.00370594 0.0159288 -0.00619338 0.00122464 0.0093758 -0.0415333 0.00524801 0.0109631 -0.0229438 -0.0159063 -0.0181792 -0.0303568 0.00194128 -0.0014639 -0.000204041 0.0102833 0.0127805 0.0191646 0.0399756 0.0128525
internal_weight=0 6392.92 4915.34 1477.58 7398.27 3365.75 740.743 1855.27 736.838 2071.35 1549.6 5326.92 1749.64 1560.83 189.831 795.926 427.817 449.81 356.03 1018.58 454.368 411.85 1510.48 1373.02 531.018 1059.34 3577.28 1086.04 1370.99 868.332 395.246 788.254 1054.75 368.109 287.028 502.662 447.41 286.375 172.432 139.806 211.198 690.794 494.51 484.862 510.53 440.843 137.456 34.4274 2491.24
internal_count=298557 190344 121341 69003 108213 68445 21832 47976 47171 41684 52896 66529 30232 34278 6480 16424 10623 21800 18807 28011 9101 8517 20469 19305 24885 31552 36297 12414 27798 19307 3710 18736 19907 5801 25371 8491 3714 12731 6700 4170 11494 8704 6484 6359 7406 5834 1164 296 23883
is_linear=0
shrinkage=0.05


Tree=17
num_leaves=50
num_cat=0
split_feature=17 8 13 10 2 8 16 2 17 2 8 3 3 4 2 12 3 9 2 13 14 3 8 9 0 2 3 14 7 3 16 12 4 0 11 16 17 2 17 4 8 3 16 16 7 9 0 17 5
split_gain=278.731 92.3555 68.5273 53.146 31.5038 25.5504 28.5709 24.9768 21.1539 19.7938 17.9326 17.9154 16.6827 16.4792 15.6846 16.1137 14.6855 14.3746 18.1597 17.3145 13.3977 12.6723 12.548 12.178 12.1635 10.8942 10.6674 10.4798 11.9417 10.45 10.3929 10.3622 10.0901 9.96748 9.74969 11.6826 9.72352 9.38071 12.1576 9.27756 9.01683 8.75093 8.45735 12.7628 8.42427 9.01751 8.41962 8.29291 8.01498
threshold=14.122550000000002 3.3484848484848491 14.500000000000002 64.500000000000014 10.500000000000002 6.8397435897435903 35.868828766262546 6.5000000000000009 9.3188995000000023 9.5000000000000018 51.809090909090919 21.500000000000004 78.500000000000014 37.500000000000007 13.500000000000002 2.2111111111111117 32.500000000000007 14.500000000000002 1.5000000000000002 2.5000000000000004 61.60163659705858 17.500000000000004 33.25462962962964 18.500000000000004 9.064700000000002 7.5000000000000009 9.5000000000000018 92.014573895477824 18.429029304029307 23.500000000000004 17.225758464190125 22.26136363636364 38.500000000000007 17.925350500000004 22.068995911495914 54.470491438935973 18.539150500000002 11.500000000000002 23.365050500000002 325.50000000000006 675.66666666666674 12.500000000000002 14.93221036094956 15.732017154292338 65.348334846759229 557.00000000000011 20.526099000000002 17.800350500000004 4.5000000000000009
decision_type=2 2 2 2 2 2 2 2 2 2 2 2 2 2 2 2 2 2 2 2 2 2 2 2 2 2 2 2 2 2 2 2 2 2 2 2 2 2 2 2 2 2 2 2 2 2 2 2 2
left_child=1 7 9 4 21 11 12 8 20 17 16 36 14 23 30 -16 25 18 40 41 29 -2 -21 -6 -9 -4 -10 28 42 -1 -7 32 -8 -17 35 -34 46 38 -13 -27 -3 -20 -11 -44 -36 -46 -5 -23 -32
right_child=3 2 10 5 13 6 31 24 26 27 -12 37 -14 -15 15 33 -18 -19 19 22 -22 47 -24 -25 -26 39 -28 -29 -30 -31 48 -33 34 -35 44 -37 -38 -39 -40 -41 -42 -43 43 -45 45 -47 -48 -49 -50
leaf_value=-0.0037046321126287733 0.010879486300852934 -0.053742180099194153 0.0010028334023818911 0.010045022413227661 -0.015650311210547538 -0.035651813982143309 -0.0016899974892204226 -0.024389138224216494 0.020792686708671376 -0.035680854019170587 -0.031963506267080645 0.0071599437538939969 -0.050850587009189166 -0.013509692148228256 0.036235125667631311 -0.03153283393837341 -0.016017260103390617 -0.0068441870019953005 -0.013404026081258368 -0.016566076877143322 0.011376376451497952 -0.0021655047732551335 -0.049511424459263681 0.0028648797395776178 -0.0058822665237062942 -0.0085199146347499626 0.0055390234491837533 0.013184307975657079 -0.041850617578852126 -0.020850954573077039 -0.0011831085012117683 -0.0081089033268658146 0.014435823645475122 -0.0068726039424594756 0.0036076211414708191 0.036046902379103928 0.018372969837285227 0.002748429849456363 0.018524583081544869 0.076641462327274146 0.010194720460665597 -0.039795661618211312 0.022601918470534606 -0.023575364045157483 0.016113383850536039 -0.052309536014383477 -0.027992996121249836 0.006552969226598428 0.0077543550078470946
leaf_weight=362.13366039877292 474.5101525792852 6.1311933966353527 497.61825841254904 289.96549698128365 112.16529538540635 16.430950295645744 143.34713658527471 115.03013250097865 138.60453905817121 78.969766987051116 76.914434245089069 753.1281065819785 15.898458451672921 513.3630262754159 20.038427484221756 46.286446438170969 380.17032342852326 186.29006246407516 37.277669589209836 410.65855934566935 110.81739095551893 712.24405532958917 31.090059098729398 426.50905652495567 389.11196677914995 896.8571533364302 662.28972725721542 12.074032475589773 215.84372815288953 117.75671123666689 400.31804707378615 75.868388093193062 489.86591436166782 357.16277090634685 397.78649287705775 71.68717817380093 966.34985256986693 558.45301033579744 342.28233511373401 3.2095183972269288 54.805946549866349 199.53124953867518 19.461255507543683 64.742686351179145 275.88658631837461 4.9008377650752655 15.31620110105723 442.02109629634651 671.84644699085038
